tree
version=v4
num_class=1
num_tree_per_iteration=1
label_index=0
max_feature_idx=209
objective=binary sigmoid:1
feature_names=P_2 D_39 B_1 B_2 R_1 S_3 D_41 B_3 D_42 D_43 D_44 B_4 D_45 B_5 R_2 D_46 D_47 D_48 D_49 B_6 B_7 B_8 D_50 D_51 B_9 R_3 D_52 P_3 B_10 D_53 S_5 B_11 S_6 D_54 R_4 S_7 B_12 S_8 D_55 D_56 B_13 R_5 D_58 S_9 B_14 D_59 D_60 D_61 B_15 S_11 D_62 D_63 D_64 D_65 B_16 B_17 B_18 B_19 D_66 B_20 D_68 S_12 R_6 S_13 B_21 D_69 B_22 D_70 D_71 D_72 S_15 B_23 D_73 P_4 D_74 D_75 D_76 B_24 R_7 D_77 B_25 B_26 D_78 D_79 R_8 R_9 S_16 D_80 R_10 R_11 B_27 D_81 D_82 S_17 R_12 B_28 R_13 D_83 R_14 R_15 D_84 R_16 B_29 B_30 S_18 D_86 D_87 R_17 R_18 D_88 B_31 S_19 R_19 B_32 S_20 R_20 R_21 B_33 D_89 R_22 R_23 D_91 D_92 D_93 D_94 R_24 R_25 D_96 S_22 S_23 S_24 S_25 S_26 D_102 D_103 D_104 D_105 D_106 D_107 B_36 B_37 R_26 R_27 B_38 D_108 D_109 D_110 D_111 B_39 D_112 B_40 S_27 D_113 D_114 D_115 D_116 D_117 D_118 D_119 D_120 D_121 D_122 D_123 D_124 D_125 D_126 D_127 D_128 D_129 B_41 B_42 D_130 D_131 D_132 D_133 R_28 D_134 D_135 D_136 D_137 D_138 D_139 D_140 D_141 D_142 D_143 D_144 D_145 B_30_t_mean B_30_t_count B_38_t_mean B_38_t_count D_114_t_mean D_114_t_count D_116_t_mean D_116_t_count D_117_t_mean D_117_t_count D_120_t_mean D_120_t_count D_126_t_mean D_126_t_count D_63_t_mean D_63_t_count D_64_t_mean D_64_t_count D_66_t_mean D_66_t_count D_68_t_mean D_68_t_count
feature_infos=[-0.26575687527656555:1.0099492073059082] [2.421387307549594e-06:5.3313603401184082] [-0.024332312867045403:1.3240525722503662] [2.4175449652830139e-05:1.0099971294403076] [1.6740253840907826e-06:1.7588940858840942] [-0.16116462647914886:1.8174711465835571] [1.1270562936260831e-06:3.1298315525054932] [8.1558329156905529e-07:1.3773040771484375] [0.00076402089325711131:3.249891996383667] [3.3676446037134156e-05:2.9265041351318359] [2.6913414785667555e-06:2.0069246292114258] [8.8708256953395903e-06:2.4032225608825684] [1.9086037355009466e-06:1.4374743700027466] [3.4841821161535336e-06:16.135066986083984] [2.3255531687027542e-06:1.0099729299545288] [-1.8857510089874268:2.5301790237426758] [-0.026619922369718552:1.2480202913284302] [-0.0092211142182350159:1.6711122989654541] [0.00098430854268372059:1.3951627016067505] [-0.003223673440515995:15.795204162597656] [-0.015888111665844917:1.2526897192001343] [4.4504931793198921e-06:1.0099178552627563] [-0.22558566927909851:5.4941191673278809] [1.8956023950522649e-06:1.6759779453277588] [1.3310645954334177e-06:5.9341697692871094] [1.2076384336978663e-05:3.0094633102416992] [-0.0066700996831059456:1.0099948644638062] [-0.53314864635467529:1.6271718740463257] [-0.0028982767835259438:60.546566009521484] [1.2653910744120367e-05:2.1897859573364258] [1.4600733493352891e-06:7.9477543830871582] [2.2007916413713247e-06:1.4668954610824585] [1.0822227523021866e-06:1.0099989175796509] [-0.0019090689020231366:1.009996771812439] [7.297395541172591e-07:1.00996994972229] [-0.13414815068244934:1.4511964321136475] [9.2720392785849981e-06:11.592044830322266] [2.8684853532467969e-06:1.2293061017990112] [3.793136784224771e-05:1.8036304712295532] [-0.011897692456841469:2.6100101470947266] [1.5833072666282533e-06:10.751116752624512] [6.5335387944287504e-07:4.0066366195678711] [5.3879471124673728e-06:1.2554349899291992] [0.00029694254044443369:2.8371627330780029] [-0.041264116764068604:8.5522899627685547] [-0.082131668925285339:1.981742262840271] [2.2795163658884121e-06:1.009995698928833] [-0.0090145645663142204:8.5587539672851562] [-0.034043293446302414:10.107585906982422] [-0.19961151480674744:1.969182014465332] [-0.00045986872282810509:4.3401188850402832] -1:2:1:3:4:5 -1:1:4:3:2:5 [8.6830402779014548e-07:6.2183518409729004] [9.9926955954288132e-07:1.0099989175796509] [1.4563763215846848e-05:1.0099947452545166] [0.00015170373080763966:1.0099958181381226] [2.0544109702314017e-06:1.0099982023239136] -1:1:2 [6.3508485936836223e-07:1.0099941492080688] -1:1:4:3:5:7:2:6 [-0.36102160811424255:5.9128818511962891] [2.2871518012834713e-06:14.447647094726562] [9.4254509974689427e-08:1.0099930763244629] [8.6991047965057078e-07:74.421134948730469] [8.2969137338295695e-07:138.14675903320312] [1.0848116289707832e-06:2.0050232410430908] [5.1260244617878925e-06:2.5030815601348877] [9.2858630523551255e-05:7.2967987060546875] [8.7863071485116961e-07:3.0088002681732178] [-0.29780769348144531:2.0082433223724365] [2.385407242400106e-06:1.3801372051239014] [0.00015467603225260973:3.853646993637085] [3.9051724343153182e-06:1.1987053155899048] [3.6863584682578221e-06:2.359673023223877] [4.5380329538602382e-06:2.3376061916351318] [2.5346987968077883e-05:4.7335395812988281] [9.7660496578555467e-08:6.7383480072021484] [7.6984116503808764e-07:46.467708587646484] [1.25641545309918e-05:4.0031170845031738] [-0.065946273505687714:2.4843108654022217] [6.1360589143077959e-07:348.354248046875] [4.9880550250236411e-06:3.5011372566223145] [6.6920495100930566e-07:2.5049901008605957] [3.3655614970484748e-06:7.0091543197631836] [2.391860653006006e-05:1.5046402215957642] [2.3563657123304438e-06:42.882026672363281] [2.8871174890809925e-06:2.6046943664550781] [8.9876033371183439e-07:7.0060443878173828] [2.004763928198372e-06:2.5005509853363037] [2.076030568787246e-06:0.013975642621517181] [9.2279123009575414e-07:6.0012755393981934] [1.4142268810246605e-05:1.5098347663879395] [4.6497202532691517e-08:4.049018383026123] [-0.090372197329998016:1.0099989175796509] [5.3936721087666228e-05:4.0027308464050293] [3.0551350960195123e-07:0.13453198969364166] [4.6028731048863847e-07:9.0073375701904297] [3.2780641845420178e-07:194.49063110351562] [9.4613932333231787e-07:1.0099315643310547] [4.060559604113223e-06:6.5058383941650391] [1.6083504306152463e-06:3.0082817077636719] [1.8073020328301936e-05:2.5810360908508301] -1:1:2:3 [6.0272338942013448e-07:1.0099385976791382] [6.9058637564012315e-07:1.0099978446960449] none [9.4221138624561718e-07:0.1717379242181778] [7.9052341561691719e-07:0.009999515488743782] none none [1.5785871028128895e-06:0.12893213331699371] [9.3947329560251092e-07:1.0098378658294678] [1.656846677633439e-07:1.0099837779998779] [8.2601906115087331e-07:1.0099388360977173] [2.1854486931260908e-06:12.00907039642334] [1.124403070207336e-06:1.0097790956497192] [1.4438311154663097e-05:1.0099985599517822] [1.0570653330432833e-06:0.66937291622161865] [9.1263603962943307e-07:1.0094010829925537] [3.8726770981156733e-06:1.0028811693191528] [1.3039908708378789e-06:2.0089716911315918] [3.6986608620281913e-07:2.0088987350463867] [4.7440525463571248e-07:1.0098602771759033] [2.586670291293558e-07:1.0099880695343018] [8.8524296870673425e-07:1.0096839666366577] [1.3401933074419503e-06:1.0096629858016968] [3.6628457564802375e-06:1.009987473487854] [-73.354606628417969:1.0305876731872559] [-3.334261417388916:10.204194068908691] [-81.310813903808594:1.0443625450134277] [-2.4502618312835693:1.9316641092300415] [5.6113972277671564e-06:33.566551208496094] [2.1968560304230778e-06:1.089565634727478] [2.7388369971959037e-07:1.0099918842315674] [1.1163544513692614e-05:1.0848928689956665] [-0.0090673146769404411:2.1186444759368896] [4.5233704440761358e-05:6.7829012870788574] [7.2082519864125061e-07:1.6757780313491821] [7.2147389573729015e-07:0.51184326410293579] [-0.1480088084936142:1.3277385234832764] [2.2132831873022951e-05:3.5435619354248047] [-0.0097074015066027641:1.0099949836730957] -1:1:2:3:4:5:7:6 none [2.7874200441146968e-06:1.0098358392715454] none none none [2.9517334041884169e-05:1.0099997520446777] [1.4482850929198321e-05:8.1781015396118164] [1.642403844925866e-06:4.6174101829528809] [7.9020253451744793e-07:2.0089056491851807] -1:1:2:3 [8.2599426605156623e-06:1.4258172512054443] -1:1:2 -1:2:6:1:4:3:7:5:8 [3.3438707305322168e-06:1.4054368734359741] [4.2269425648555625e-06:1.406091570854187] -1:1:2:3 [-0.031938463449478149:1.2684128284454346] [0.00017172023945022374:1.5812026262283325] [4.8637360805514618e-08:2.0083878040313721] [-0.045195456594228745:1.6872091293334961] [1.0255977258566418e-06:3.0070858001708984] -1:1:3:2:4 [3.4782135571731487e-06:1.0099697113037109] [9.8425925898482092e-07:1.0109506845474243] [4.6933482735767029e-06:1.0099937915802002] [1.0364697118347976e-06:7.0009818077087402] [0.00078273570397868752:2.8853929042816162] [4.3372374420869164e-06:1.0112521648406982] [2.9900078857281187e-07:1.3093833923339844] [0.0053257863037288189:3.903317928314209] [1.5054904451972106e-06:1.5098687410354614] [1.4248242905523512e-06:1.0096790790557861] [-0.0071519268676638603:1.0098015069961548] [7.3481814979459159e-06:1.0085017681121826] [8.1038786447606981e-05:1.258711576461792] [0.0001035496752592735:1.0066344738006592] [0.00011171992082381621:1.0086458921432495] [5.9342670510886819e-07:1.0099987983703613] [1.142754513239197e-06:1.0099732875823975] [1.6386496781706228e-07:1.122950553894043] [-0.0051443804986774921:1.3418759107589722] [7.4886365553084033e-08:1.009998083114624] [8.3932002326037036e-07:1.3426483869552612] [2.3142879399529193e-06:4.2736754417419434] [0:1] [0:1] [0:1] [0:1] [0:0.75] [0:1] [0:1] [0:1] [0:1] [0:0.66666666666666663] [0:1] [0:1] [0:1] [0:1] [0:0.59999999999999998] [0:0.91666666666666663] [0:1] [0:1] [0:0.59999999999999998] [0:1] [0:1] [0:1]
tree_sizes=4561 4898 4143 4249 4464 4554 4571 3816 4014 4361 4810 4662 4908 5258 4982 4692 4883 5252 4915 4696 4368 4721 5240 4402 5232 4784 4557 4804 4809 4686 4364 4845 4262 4990 4912 4098 4370 4834 4864 4685 4391 5280 5112 5220 4822 4847 4354 5394 4677 4451 4842 4949 4250 5228 5021 4754 5547

Tree=0
num_leaves=42
num_cat=0
split_feature=47 12 73 24 7 79 24 5 47 7 5 145 73 87 24 5 83 83 100 89 82 47 12 6 197 77 5 3 15 12 13 87 79 89 45 6 83 100 15 104 83
split_gain=612.205 244.841 180.149 96.0981 60.8318 50.9637 31.3337 30.3513 27.1744 26.4151 20.4868 15.0436 14.237 12.7512 11.4573 10.722 10.6522 9.99488 9.74422 9.51741 7.26479 7.56476 6.53379 6.48381 6.03818 10.7765 4.33526 6.93058 4.27217 3.65426 3.64698 3.18402 3.15844 2.9648 2.60651 2.41864 2.00018 1.01139 0.687734 0.657839 0.260774
threshold=0.43520288169384008 0.11173518747091295 0.95625832676887523 0.29457660019397741 0.098120387643575682 0.23412735015153888 0.30402402579784399 0.17688784003257754 0.85135620832443248 0.010043527930974962 0.1760317534208298 0.0021364770364016299 0.96428564190864574 0.0059438170865178117 0.37181824445724493 0.37326794862747198 0.0098409093916416186 0.0086146211251616495 0.0011559055419638755 0.0034874599659815435 0.0071770607028156528 0.75974297523498546 0.047791348770260818 0.003897260059602559 0.22431932137406488 0.0028801542939618234 0.15618173032999041 0.81415167450904857 0.52076479792594921 0.2911819219589234 0.0059856418520212182 0.0084534641355276125 0.17243400216102603 0.0058638406917452821 0.58586385846138012 0.0047302239108830699 0.00033381882531102752 0.0092969918623566645 0.61106538772583019 0.0023677836870774631 0.0053660345729440459
decision_type=2 2 2 2 2 2 2 2 2 2 2 2 2 2 2 2 2 2 2 2 2 2 2 2 2 2 2 2 2 2 2 2 2 2 2 2 2 2 2 2 2
left_child=2 6 4 8 15 10 7 20 16 -10 13 -5 31 -4 23 22 28 19 -8 -9 21 -2 32 -6 25 -13 -20 -28 39 -25 -21 -12 -1 -30 36 -27 -24 -19 -38 -3 -34
right_child=1 3 5 11 14 -7 18 17 9 -11 12 24 -14 -15 -16 -17 -18 37 26 30 -22 -23 34 29 -26 35 27 -29 33 -31 -32 -33 40 -35 -36 -37 38 -39 -40 -41 -42
leaf_value=-0.54474148304575765 -0.5472710794839184 -0.54795587522001143 -0.53932435236244414 -0.54450698819589505 -0.54915043913938899 -0.5500615430719149 -0.5391124471861225 -0.54327410410958854 -0.54833003831797589 -0.53777254994498436 -0.53422224994948286 -0.54176266919074245 -0.54212572912824442 -0.54671113694716311 -0.54006229559672669 -0.54577266158583759 -0.54327410410958854 -0.53139923060069882 -0.53699757430321804 -0.54032790558012611 -0.53873447368885563 -0.54106850931599215 -0.5475016279823004 -0.54147249948377862 -0.54201734823906689 -0.53892628501650641 -0.53008229872029289 -0.5382034069520486 -0.54866797197500905 -0.54605467481269221 -0.53445323897098285 -0.5399902473983792 -0.54982851093379315 -0.54448266934720446 -0.54701355118513517 -0.53279722507138005 -0.55126324461544007 -0.53768204411559162 -0.54810447801612328 -0.55108756694814898 -0.54692087806691103
leaf_weight=7.7886492013931301 8.5675141215324455 10.51467642188072 9.5410952717065829 8.9569465816020948 7.9833654314279583 13.630136102437971 9.3463790416717512 7.9833654314279583 10.319960191845896 13.240703642368315 22.97651514410973 9.151662811636923 14.603717252612112 13.824852332472799 14.409001022577284 14.019568562507628 7.9833654314279547 22.392366454005245 12.072406262159346 9.1516628116369265 11.488257572054861 9.9305277317762357 9.151662811636923 7.7886492013931266 7.7886492013931266 8.7622303515672701 59.193733930587769 7.7886492013931266 9.9305277317762393 8.178081661462782 14.019568562507628 8.3727978914976102 8.7622303515672701 8.178081661462782 7.9833654314279547 17.13502824306488 268.12424875795841 8.5675141215324384 9.5410952717065793 31.933461725711823 7.7886492013931266
leaf_count=40 44 54 49 46 41 70 48 41 53 68 118 47 75 71 74 72 41 115 62 47 59 51 47 40 40 45 304 40 51 42 72 43 45 42 41 88 1377 44 49 164 40
internal_value=-0.544417 -0.538687 -0.548252 -0.543896 -0.549834 -0.541205 -0.534585 -0.537066 -0.547154 -0.542341 -0.539354 -0.538217 -0.537356 -0.543531 -0.543516 -0.550563 -0.54882 -0.534976 -0.53222 -0.537883 -0.541715 -0.543939 -0.550764 -0.54577 -0.536956 -0.536022 -0.531556 -0.530819 -0.549565 -0.543741 -0.536264 -0.535405 -0.547679 -0.546972 -0.550995 -0.534329 -0.551087 -0.532624 -0.551182 -0.550506 -0.548878
internal_weight=0 324.397 454.468 143.895 371.519 82.9491 180.502 92.1008 92.1008 23.5607 69.319 51.7945 45.953 23.3659 38.3591 333.159 68.5401 62.1145 88.4012 31.1546 29.9863 18.498 319.14 23.9501 42.8376 35.0489 79.0548 66.9824 60.5567 15.9667 23.1712 31.3493 24.3395 18.1086 294.8 25.8973 286.817 30.9599 277.665 42.4481 16.5509
internal_count=4000 1666 2334 739 1908 426 927 473 473 121 356 266 236 120 197 1711 352 319 454 160 154 95 1639 123 220 180 406 344 311 82 119 161 125 93 1514 133 1473 159 1426 218 85
is_linear=0
shrinkage=0.533333


Tree=1
num_leaves=44
num_cat=0
split_feature=20 21 83 59 26 26 26 21 27 45 20 21 204 2 34 37 37 2 87 117 37 49 61 64 124 59 27 27 174 202 154 174 204 26 53 204 63 175 26 54 199 27 27
split_gain=521.421 241.457 140.32 74.4646 47.8698 46.8867 32.4622 28.8251 21.7092 16.5518 15.95 14.401 14.2286 13.5476 15.066 13.4644 12.349 11.3607 10.4294 13.5456 12.4317 9.90597 9.59875 9.34734 8.38776 7.55743 6.82594 6.46809 5.4362 5.23834 5.07174 4.94528 4.28875 4.26587 3.31914 3.04942 2.8749 2.74218 1.67049 1.38261 1.37093 0.38727 0.160842
threshold=0.076161112636327757 0.0099840797483921068 0.036211472470313318 0.35881061851978308 0.097091808915138259 0.079845022410154357 0.17648658156394961 0.0099840797483921068 0.5098312795162202 0.40515846014022833 0.13709793984889987 1.000265419483185 0.27897773216396099 0.66085052490234386 0.0076137774158269176 0.41328135132789617 0.70665442943573009 0.0097726420499384421 0.0066981380805373201 0.0062161460518836984 0.32651340961456304 0.44743025302886968 0.18905547261238101 0.0056124788243323573 0.005631502717733384 0.12759146094322207 0.60887771844863903 0.51313281059265148 0.0044524581171572217 0.28355292780045832 0.33247707784175878 0.0043778277467936286 0.16418392845082927 0.052838666364550597 0.0043408039491623649 0.46365325639998911 0.42360033094882971 0.0021992844995111231 0.094382263720035567 0.17084894329309466 0.78012021991465075 0.81804347038269054 0.40814395248889929
decision_type=2 2 2 2 2 2 2 2 2 2 2 2 2 2 2 2 2 2 2 2 2 2 2 2 2 2 2 2 2 2 2 2 2 2 2 2 2 2 2 2 2 2 2
left_child=2 3 5 9 8 7 11 39 -3 27 23 -4 -9 14 21 38 17 -12 26 -20 31 24 -14 -6 28 35 37 -2 -5 -16 36 -21 -11 -28 -24 41 -19 -10 -13 -1 -29 42 -7
right_child=1 4 6 13 10 25 -8 12 18 32 16 15 22 -15 29 -17 -18 30 19 20 -22 -23 34 -25 -26 -27 33 40 -30 -31 -32 -33 -34 -35 -36 -37 -38 -39 -40 -41 -42 -43 -44
leaf_value=-0.0032926343581439086 -0.00079070580275113634 0.0076551732134639804 -2.9328511560886826e-05 0.0015463627483207831 -0.00082894929643178509 -0.0019537380950699003 -0.002030274126401966 -0.0015508973743283421 0.003215718248183932 -0.00079717821591412095 0.0012049223354078915 0.0063477573939705488 -0.00024358985338744827 0.0044818297992025588 0.0013903408455607934 0.00079510708561553742 0.00036172481326434872 0.0053933305744628887 0.0054412434793588652 0.0011365676566105376 -0.00020685135062909198 -0.0016853677545204779 0.0044142048812007987 0.0025823768489312716 0.0026635411174598415 -0.0007153477658027055 0.0045970023252253044 -0.0014857774218735042 -0.0011664123269680715 0.0047992873888142917 0.0016956470384525374 0.0042370675376995608 0.0018468069182637906 0.0013991958398579334 0.0014839541585721476 -0.001582924285008516 0.0027830909128776036 0.0067814943785591752 0.003266093863964906 -0.001305683034022218 -0.0032042459447309997 -0.0021603534486064288 -0.0036044262781812406
leaf_weight=18.011434033513073 15.361573383212088 28.501048564910889 8.1691122204065305 7.7970452755689648 14.618598356842996 8.1398638337850553 10.11027182638645 11.272699534893034 7.853356644511222 7.9668848812580091 13.478402361273764 11.175634413957599 9.5510528832674044 10.757292985916136 9.1659993827343005 8.1770146340131742 10.55300849676132 28.063949033617973 15.491670146584509 8.0247636288404482 11.737947478890417 12.079038336873053 7.7998020648956325 8.4009417891502363 13.469543755054472 9.5177518427371961 8.2413287162780779 9.7080568522214872 12.488191768527029 8.0104296356439573 8.0273833870887739 13.921611636877058 7.7803693115711212 8.6007897108793241 8.9696640074253065 11.464827746152876 12.329263910651205 30.224111557006836 11.353921487927437 7.7579731047153464 47.131892994046211 12.796348452568052 234.77404274046421
leaf_count=93 79 145 42 40 75 42 52 58 40 41 69 57 49 55 47 42 54 143 79 41 60 62 40 43 69 49 42 50 64 41 41 71 40 44 46 59 63 154 58 40 243 66 1212
internal_value=0 0.00237412 -0.00221665 -0.000256342 0.00422531 -0.00285702 0.00216643 -0.000650111 0.0053256 -0.00198377 0.00261925 0.00330379 0.000912738 0.00180117 0.00121971 0.00413811 0.00325336 0.0037196 0.00455548 0.00334512 0.00213015 0.000328757 0.0020029 0.000522907 0.00110347 -0.0033541 0.00548363 -0.00254112 -7.84887e-05 0.00331489 0.00434402 0.00329298 0.000570048 0.00328584 0.00317202 -0.00344209 0.0047655 0.00624325 0.00518767 -0.00283158 -0.00297122 -0.00351251 -0.00356552
internal_weight=0 389.784 389.041 161.716 228.068 340.055 48.986 63.3626 132.597 87.9488 95.4715 38.8757 37.5932 73.7675 63.0102 30.7066 72.452 61.899 104.096 49.176 33.6843 45.8338 26.3205 23.0195 33.7548 276.693 54.9196 72.2015 20.2852 17.1764 48.4206 21.9464 15.7473 16.8421 16.7695 267.175 40.3932 38.0775 22.5296 25.7694 56.8399 255.71 242.914
internal_count=4000 1995 2005 831 1164 1754 251 326 676 453 488 199 193 378 323 157 370 316 531 251 172 235 135 118 173 1428 280 372 104 88 247 112 81 86 86 1379 206 194 115 133 293 1320 1254
is_linear=0
shrinkage=0.0028125


Tree=2
num_leaves=37
num_cat=0
split_feature=0 0 190 24 50 205 24 24 190 50 173 40 35 186 43 154 37 186 35 0 28 200 129 0 186 194 36 36 35 190 187 133 138 35 194 140
split_gain=1028.73 157.87 64.9988 28.8077 36.2734 25.6512 31.2545 22.0204 21.1433 19.8532 13.1832 12.5344 15.1797 9.14317 9.34746 9.41067 8.76915 8.30894 8.02403 7.97836 6.04102 5.67505 5.21163 4.97082 4.90936 4.69163 3.44786 4.92962 3.14293 2.39602 1.66587 1.20718 1.17312 0.79204 0.287186 0.016122
threshold=0.65720114111900341 0.47604571282863622 0.23145604395604399 0.017255271784961227 0.024240973405539993 0.46453166063417711 0.30402402579784399 0.44981734454631811 0.27030573880967584 0.18914425373077395 0.21283211559057238 0.006734242895618082 0.18639899045228961 0.0013533104211091997 0.013373516499996187 0.37543378770351415 0.32361969351768499 0.003768989816308022 0.16305301338434222 0.62931427359581005 0.062005473300814636 0.22746865567778563 0.13531246781349185 0.77639496326446544 0.0039935943204909572 0.2403188697077516 0.014794640243053438 0.0059044549707323321 0.23806467652320865 0.32115345899954445 0.0098923952318727987 0.0085666351951658743 0.34325638413429266 0.10919444635510446 0.23096559407374997 0.11636425182223321
decision_type=2 2 2 2 2 2 2 2 2 2 2 2 2 2 2 2 2 2 2 2 2 2 2 2 2 2 2 2 2 2 2 2 2 2 2 2
left_child=1 3 20 4 30 9 24 10 -5 11 -2 22 17 -10 -15 33 21 -13 -8 34 -3 -6 -4 25 -7 29 27 -14 -22 32 -1 -26 -12 -16 -19 -25
right_child=7 2 5 8 16 6 18 -9 13 -11 23 12 26 14 15 -17 -18 19 -20 -21 28 -23 -24 35 31 -27 -28 -29 -30 -31 -32 -33 -34 -35 -36 -37
leaf_value=0.0055057875505946773 0.00033756615835450933 0.00040811576781057778 -0.00077213774765509744 0.0032676633989585932 0.00095790870719245969 0.00030670444028685372 0.0011013530512207455 0.001252602796072479 0.0045743084089180635 -0.0010225275883143233 -0.0045192550413579993 -0.00027826025597705505 0.0039273461819231649 0.0042143843767294678 0.0057143584515183428 0.0054190502197702679 -0.00078216191901897634 0.0033766101725597772 0.0061927008146236964 0.00099680007515817867 -0.0040577036350318164 0.0053580296611025393 0.0032511270359791033 -0.0051425024504469716 -0.0014622290321265607 -0.0011566010641755398 0.0037655638171911012 0.0084809500920424302 -0.00091180078820126277 -0.0018169742051324545 0.010728113616428045 -0.0041442466879254595 -0.0020559403431479376 0.010636054308531311 0.0069969117514062894 -0.0034771258444355742
leaf_weight=11.389457359910013 8.1849761307239515 8.7538706362247449 8.0174273401498812 15.287941247224806 10.324109032750131 8.9453277736902255 9.4130727499723452 9.7684082090854627 13.409852236509321 9.5251114815473539 76.729740306735039 8.6060674488544446 10.645155236124991 9.8574739545583707 8.2714511752128583 14.785652533173559 13.223737344145773 7.8357410132884997 11.620563894510267 9.6014576554298383 20.672146648168567 8.6218312978744489 9.8088488429784757 247.27484884858131 7.7786273956298855 11.716821551322935 11.755982890725134 29.158462211489677 8.3590430468320829 10.920295417308806 8.2973411828279477 9.5204387456178647 8.3360651135444623 76.558502927422523 7.8608822077512741 17.866221815347672
leaf_count=58 42 45 41 78 53 46 48 50 68 49 397 44 54 50 42 75 68 40 59 49 107 44 50 1283 40 60 60 148 43 56 42 49 43 387 40 92
internal_value=0 0.00471846 0.00218427 0.00730711 0.00447488 0.00329219 0.000775858 -0.00445315 0.00829105 0.00431483 -0.00460521 0.00481711 0.00544838 0.00885367 0.00928639 0.00969546 0.00166259 0.00308657 0.00420769 0.00416778 -0.00243944 0.00328072 0.00154627 -0.00471494 -0.00207776 -0.00379563 0.00682819 0.00750929 -0.00326905 -0.00408759 0.00849323 -0.00321479 -0.00433064 0.0102988 0.00577554 -0.00505716
internal_weight=0 387.906 197.878 190.027 51.8565 160.093 47.278 390.797 138.171 112.815 381.029 103.29 85.4637 122.883 109.473 99.6156 32.1697 33.9041 21.0336 25.2981 37.7851 18.9459 17.8263 372.844 26.2444 107.703 51.5596 39.8036 29.0312 95.9861 19.6868 17.2991 85.0658 84.83 15.6966 265.141
internal_count=4000 1977 1012 965 265 817 242 2023 700 575 1973 526 435 622 554 504 165 173 107 129 195 97 91 1931 135 556 262 202 150 496 100 89 440 429 80 1375
is_linear=0
shrinkage=0.004


Tree=3
num_leaves=38
num_cat=0
split_feature=24 73 71 50 12 12 129 23 7 50 23 25 7 49 24 114 57 91 202 202 25 7 45 33 69 25 203 114 50 200 12 12 66 50 44 119 23
split_gain=559.713 316.299 82.5664 62.0548 57.9755 55.7655 31.6626 22.9382 21.7831 18.6554 18.2804 16.476 14.7593 14.5411 11.9709 9.53785 9.29244 6.36286 6.1872 5.81076 5.65953 8.29971 5.56175 5.70323 5.22882 4.65875 4.58593 4.25298 4.24903 4.6966 3.71755 3.57235 3.38562 3.23402 3.08642 1.11905 0.210764
threshold=0.28605552017688757 0.95584282279014599 0.089402414858341231 0.18914425373077395 0.17615450918674472 0.098951902240514769 0.140672042965889 0.33494949340820318 0.055808544158935554 0.020661140792071823 0.0095009785145521181 0.30518442392349249 0.43033626675605779 0.44321915507316595 0.46299386024475103 0.0030270313145592813 0.16836560517549518 0.0090885362587869185 0.28125659385607865 0.28993426705825515 0.10982849448919298 0.081211417913436904 0.40427446365356451 1.003972113132477 0.0091718225739896315 0.20731575042009356 0.74621629030236747 0.0051828091964125642 0.024240973405539993 0.36439303831132064 0.31352931261062628 0.14537359029054644 0.0067734029144048699 0.045125646516680724 0.14973209798336032 0.004873652011156083 0.0085442345589399355
decision_type=2 2 2 2 2 2 2 2 2 2 2 2 2 2 2 2 2 2 2 2 2 2 2 2 2 2 2 2 2 2 2 2 2 2 2 2 2
left_child=1 2 9 10 15 7 8 20 -7 -1 11 13 17 24 26 -4 25 19 -16 34 21 -2 23 -17 28 36 -10 -26 -3 -30 -8 -27 -25 -13 -6 -5 -11
right_child=5 3 4 35 12 6 30 -9 14 16 -12 33 -14 -15 18 22 -18 -19 -20 -21 -22 -23 -24 32 27 31 -28 -29 29 -31 -32 -33 -34 -35 -36 -37 -38
leaf_value=0.00025634399573085971 0.0022149003200588701 0.0039097889360397405 0.0037703151379361618 -0.00095217997465920951 -0.0030857485982783667 -0.0020098833642963432 0.0028861407830813772 0.001093202057634632 -0.0011930065001046204 -0.0029076939835082126 0.00029511887572488635 0.0065541289226565443 0.0013407139351105943 0.00038262493779092676 0.0010975368829720285 0.001958598389124482 -0.00032525841305615361 0.00013632705316621389 0.0036477547630466866 -0.00067287624455453525 0.0063400370903087394 0.0051331326029964777 0.0027656196874355937 -0.0016052592541866296 0.0023670305044638262 -0.0005025293576188044 0.0013202328490108106 0.0058746792837498785 0.00023024553274203973 0.0026053921340930979 0.0065055148347252017 -0.0025428057639554631 0.00061425790490996423 0.0032430535922428855 -0.0010506408807491022 -0.0027036223419792619 -0.0034695500890997797
leaf_weight=12.238884672522543 14.226648658514021 10.928408548235891 12.996444016695021 7.7309742271900204 42.425604641437531 10.823803111910818 9.7039627730846423 10.223628520965574 8.6102467477321643 124.16745172441006 13.372737780213354 15.139780789613726 8.5792827755212766 14.360038816928862 13.008891344070433 7.8627014458179536 9.1063305139541608 7.7439700365066519 20.53819814324379 13.150544434785841 54.883614405989647 35.741604149341583 7.8676606714725486 8.1786297112703341 8.5048117190599459 10.618811547756197 8.057565823197363 10.507714197039602 10.204608783125879 13.639621227979658 8.6903475821018201 17.456534117460251 7.8511728197336188 10.655387997627257 9.1189691275358182 8.887094780802725 160.75601126253605
leaf_count=63 72 55 66 40 220 56 49 52 44 647 68 76 44 73 66 40 47 40 104 68 275 179 40 42 43 55 41 53 52 69 44 91 40 54 47 46 839
internal_value=0 -0.00122855 -0.00224599 0.00252459 -0.000395925 0.00397204 0.00217183 0.00515634 0.00116647 -0.00293546 0.00326243 0.00366987 -0.00172794 0.00283284 0.00190189 0.00198605 -0.00305757 -0.00211763 0.00277623 -0.00238343 0.00552464 0.00441949 0.00107581 0.000348707 0.00344984 -0.0031345 3.32106e-05 0.00468027 0.00255911 0.00168539 0.0050664 -0.00185586 -0.000570606 0.00551818 -0.00277841 -0.00207865 -0.00324667
internal_weight=0 584.05 460.119 123.931 125.775 194.509 79.433 115.075 61.0387 334.344 107.313 93.9404 81.0184 68.1452 50.2149 44.7566 322.105 72.4391 33.5471 64.6951 104.852 49.9683 31.7602 23.8925 53.7852 312.999 16.6678 19.0125 34.7726 23.8442 18.3943 28.0753 16.0298 25.7952 51.5446 16.6181 284.923
internal_count=4000 3018 2389 629 647 982 404 578 311 1742 543 475 419 345 255 228 1679 375 170 335 526 251 162 122 272 1632 85 96 176 121 93 146 82 130 267 86 1486
is_linear=0
shrinkage=0.00266667


Tree=4
num_leaves=40
num_cat=0
split_feature=10 12 12 25 11 10 57 37 190 37 129 142 19 142 150 11 149 118 19 62 208 25 171 158 37 209 145 149 101 65 150 11 142 25 190 205 10 118 12
split_gain=634.715 177.722 160.991 69.4805 49.3676 42.3206 36.8051 26.8752 22.9822 20.4446 19.7837 17.5624 16.7076 15.0473 12.495 12.4647 11.2403 10.9056 10.7589 9.34451 8.93141 8.89139 9.05672 7.7645 7.77028 7.06529 6.64597 5.77054 5.23824 4.54418 4.36029 3.47538 2.76844 3.86219 2.22591 1.57508 1.57317 1.54036 0.203703
threshold=0.058060806244611747 0.11461700871586801 0.047791348770260818 0.10982849448919298 0.41427518427371984 0.13433778285980227 0.085800960659980788 0.48161807656288153 0.29907659634843209 0.32361969351768499 0.13896652311086657 0.023693181574344638 0.17835974693298343 1.0048729777336123 0.094277396798133864 0.73742136359214794 0.93298485875129711 0.0022107133409008388 0.01597644574940205 0.0039227721281349668 0.46398037475859916 0.30518442392349249 0.0083779348060488718 0.40790954232215887 0.47160592675209051 0.17815397042990669 0.0053988038562238225 0.0055392805952578792 0.0077923049684613952 0.032013921067118652 0.0560037698596716 0.29050940275192266 1.0002871155738833 0.0060101959388703117 0.29728069067512225 0.47062865304994539 0.13301303237676623 0.0057780307251960048 0.082848146557807936
decision_type=2 2 2 2 2 2 2 2 2 2 2 2 2 2 2 2 2 2 2 2 2 2 2 2 2 2 2 2 2 2 2 2 2 2 2 2 2 2 2
left_child=2 5 3 14 8 9 27 11 16 17 25 -5 20 19 28 -15 -3 -2 -10 -6 37 22 -13 24 35 -8 -20 -4 34 31 -23 38 -19 -34 -1 -7 -18 -11 -29
right_child=1 4 6 7 13 23 10 -9 18 12 -12 21 -14 15 -16 -17 36 32 26 -21 -22 30 -24 -25 -26 -27 -28 29 -30 -31 -32 -33 33 -35 -36 -37 -38 -39 -40
leaf_value=-0.0059007538680493458 0.0025125299468732078 0.00076032574997642879 -0.0014425219326355771 0.012319219789178958 0.0031982835754139154 0.013369836864633168 0.0001733660559145487 -0.0015210434017009632 0.0046736929337134608 0.0083379655075017361 0.005709416403305541 -0.0014276711935061102 -0.0023968737325357004 -0.00098706668432847582 0.0016183773464066879 0.0058874592120982143 -0.0056449690586355215 0.011449094877106243 -0.0032325688271790339 0.010423282199526105 0.0010780262727246672 0.0035758942384428571 0.004871172662760946 0.0055092232498615661 0.0064204970936642767 -0.0045564727404890926 0.0016859869093707189 -0.0045656527216715054 -0.00078309261337791204 -0.0018218786428790274 0.0097897624700280014 -0.002462761573250575 0.0035474260208966098 0.0083996347033000081 -0.0020608124363196037 0.0069082638182547543 -0.0024791387946846155 0.0036069673882927764 -0.0062481125590694592
leaf_weight=19.463945478200916 9.5634102523326856 11.057211622595785 9.0220797806978208 10.415453001856802 9.824143663048746 55.793635025620461 14.257746055722238 10.951657578349112 14.801141545176504 10.728869110345846 7.8567144125699988 8.8419519662857073 8.9958398193120939 14.064494624733927 12.607544168829916 9.6693828701972944 23.952176153659821 16.99913515150547 10.268564209342005 13.254122555255888 11.064705744385718 8.893983870744707 11.092326894402502 10.388659223914145 12.171941161155699 15.308345720171927 13.703873679041861 29.367864549160004 11.072245940566061 8.8457401245832425 8.4060788750648481 10.426272541284559 10.341043218970297 22.753774464130402 8.2159658968448621 8.0340817719697935 10.452613011002539 7.906694531440734 257.53999434411526
leaf_count=101 48 57 47 52 50 277 73 56 75 54 40 45 46 72 64 49 125 85 53 67 56 45 56 52 61 79 70 153 57 46 42 54 52 114 42 40 54 40 1351
internal_value=0 0.00559077 -0.00357913 0.00167978 0.00110907 0.00872397 -0.00521927 0.00531958 -0.00118399 0.00625663 -0.000501471 0.00688975 0.00318446 0.00511475 -0.00251694 0.00205355 -0.00352794 0.00808143 0.00160253 0.00784805 0.00491955 0.00482041 0.00220184 0.0113279 0.0119616 -0.0024091 -0.000507536 -0.00577271 -0.00387573 -0.00589011 0.00729683 -0.00599816 0.00900729 0.00717206 -0.00497667 0.0127911 -0.0048722 0.00687485 -0.0061087
internal_weight=0 315.79 462.586 109.961 131.048 184.742 352.625 58.6015 84.2356 98.3535 37.4228 47.6498 38.6961 46.8121 51.3597 23.7339 45.462 59.6574 38.7736 23.0783 29.7003 37.2343 19.9343 86.3883 75.9997 29.5661 23.9724 315.202 38.7522 306.18 17.3001 297.334 50.094 33.0948 27.6799 63.8277 34.4048 18.6356 286.908
internal_count=4000 1597 2403 560 672 925 1843 296 434 495 192 240 196 238 264 121 236 299 198 117 150 188 101 430 378 152 123 1651 200 1604 87 1558 251 166 143 317 179 94 1504
is_linear=0
shrinkage=0.005


Tree=5
num_leaves=41
num_cat=0
split_feature=20 21 172 7 25 25 28 75 4 7 4 172 149 149 21 99 75 7 23 20 167 162 55 98 82 140 98 48 167 63 49 202 23 21 167 149 130 134 157 98
split_gain=485.665 218.019 132.804 85.0851 54.8511 43.9558 36.0129 29.8251 24.8414 21.2598 16.2268 21.4172 16.0461 15.6151 15.5631 12.6208 11.0365 9.73271 11.8201 8.6824 8.07897 7.80265 7.22019 7.1391 6.50651 6.17598 4.34225 4.33184 4.03995 3.96 3.771 3.10338 2.7387 2.25799 6.31148 2.22842 1.8948 1.55283 1.32776 0.720026
threshold=0.076161112636327757 0.0099840797483921068 0.052441596984863288 0.21889397501945498 0.40341316163539892 0.2092731520533562 0.27842098474502569 0.27253778278827673 0.2564872950315476 0.076882403343915953 0.0098905684426426905 0.009930294472724201 1.0000556707382204 1.0009902715682986 1.000265419483185 0.0018226982210762801 0.33882623910903936 0.72653639316558849 0.0041639625560492286 0.15937838703393939 0.99956259131431591 0.009987254627048971 0.41672787070274359 0.0051095082890242347 0.0045242374762892732 0.010534196626394989 0.0063862947281450042 0.0020993619691580538 0.0093351984396576899 0.42148828506469732 0.40456317365169531 0.28052764241855677 0.005803111009299756 0.99990063905715953 0.0022253269562497739 1.0003344416618349 0.93515396118164074 1.0050412416458132 0.062925606966018691 0.0067340794485062369
decision_type=2 2 2 2 2 2 2 2 2 2 2 2 2 2 2 2 2 2 2 2 2 2 2 2 2 2 2 2 2 2 2 2 2 2 2 2 2 2 2 2
left_child=2 3 4 8 9 7 14 10 16 21 11 13 39 -3 -4 -7 22 18 -14 -15 -6 33 -2 -20 -21 -9 -16 -17 -23 32 -27 -18 -13 -1 -35 -24 -8 -36 -39 -5
right_child=1 5 6 12 20 15 36 25 -10 -11 -12 29 17 19 26 27 31 -19 23 24 -22 28 35 -25 -26 30 -28 -29 -30 -31 -32 -33 -34 34 37 -37 -38 38 -40 -41
leaf_value=-0.0063408835800078077 -0.00020884989008595285 0.0055494652786738027 0.00021586898162980527 0.0096008818677125012 0.0056914612140396403 0.0047258316304789336 -0.0036220458616435768 0.0030430742766662301 0.0043181021155194637 0.00061083088842783459 0.008609859573627917 0.008456194964476119 0.0045652344249508849 -0.0039467630844420877 0.0097664814179054121 0.0060091057269657713 -0.0021137015531692842 0.0059909880641043044 0.0017933531437744196 0.0031447659336190465 -0.00057715542994154611 0.00011630372800027085 -0.0025218906167348626 -0.0035187459971552665 -0.0015911380862835072 0.0098573432171140327 0.0038126299544140462 0.01222438909457243 -0.0042785595903362542 0.002972762203794227 0.0053503410613590617 0.0017237076122661708 0.0035585942993709156 -0.00057824128730863127 -0.0058099687272542312 -0.0058083727952048317 -0.00028784435768864454 -0.0012112514328395285 -0.0044303945232727574 0.00456269214002669
leaf_weight=202.5777340978384 7.6973216086626044 9.9552172869443876 7.7785160988569251 9.1459894776344317 10.251756399869921 12.476359531283377 8.5634665936231631 7.9482001066207877 8.204817205667494 13.358944192528723 13.049907118082045 13.211719751358034 11.45465539395809 13.248210668563841 17.411520466208461 9.4877120703458768 9.4796846061944979 11.112960413098333 9.4311260282993334 12.330175101757051 8.2735791057348234 9.35240486264229 10.609126523137091 12.722008138895033 12.89487364888191 39.852249920368195 8.1610978692769987 48.759418144822121 9.5705982297658903 15.648110657930372 15.020566537976263 7.7994424104690543 9.3627928793430311 8.2751254886388761 56.27773779630661 55.804034233093262 7.7695157527923575 7.6661362498998633 8.2059291303157789 7.9405951648950568
leaf_count=1070 40 50 40 46 52 62 44 40 42 69 65 66 58 68 87 47 49 56 48 62 43 48 55 65 65 197 41 241 50 79 75 40 47 43 295 292 40 40 43 40
internal_value=0 0.00403041 -0.0038504 -0.000439593 -0.00498397 0.00710101 0.0036638 0.00554657 -0.00327656 -0.00547605 0.00372308 0.00280947 0.00409121 0.000545897 0.00651845 0.0104223 -0.00403627 0.00232618 0.000845902 -0.000959049 0.00310838 -0.00574762 -0.00485574 -0.001296 0.000784746 0.0082364 0.0082808 0.0114451 -0.00230295 0.00550768 0.00885517 -0.000382422 0.00687987 -0.00596017 -0.0048706 -0.00537246 -0.00224044 -0.00533403 -0.00318513 0.00798297
internal_weight=0 394.647 383.494 161.402 333.81 233.246 49.6841 162.522 99.5944 315.285 99.701 86.6511 61.8073 48.4285 33.3511 70.7235 91.3896 44.7207 33.6078 38.4733 18.5253 301.926 74.1105 22.1531 25.225 62.821 25.5726 58.2471 18.923 38.2226 54.8728 17.2791 22.5745 283.003 80.4249 66.4132 16.333 72.1498 15.8721 17.0866
internal_count=4000 1995 2005 831 1753 1164 252 814 518 1658 502 437 313 245 168 350 476 227 171 195 95 1589 387 113 127 312 128 288 98 192 272 89 113 1491 421 347 84 378 83 86
is_linear=0
shrinkage=0.005


Tree=6
num_leaves=41
num_cat=0
split_feature=10 12 12 7 79 7 37 10 17 35 134 10 12 17 7 17 37 7 35 17 209 126 31 152 122 2 2 86 9 12 35 35 63 35 209 195 1 135 88 208
split_gain=623.816 171.769 159.015 66.7237 60.7957 50.9716 41.7901 40.6143 23.0878 21.8904 19.3766 18.0691 13.7405 11.9302 10.9209 10.3045 10.1851 9.63232 9.04443 7.75129 6.51805 6.30315 5.48429 5.40459 5.36002 5.24477 5.12221 5.08307 4.77247 4.10715 3.31174 3.21618 2.72604 3.06921 1.19222 0.824969 0.712119 0.526108 0.515838 0.093879
threshold=0.058060806244611747 0.11461700871586801 0.047791348770260818 0.21889397501945498 0.22266478091478351 0.072851654142141356 0.48161807656288153 0.13433778285980227 0.11877277120947839 0.11110865324735643 0.0036819902015849952 0.25972972810268408 0.23618642985820773 0.82001760601997387 0.010995253920555116 0.57534679770469677 0.32385811209678655 0.013754338957369329 0.19845777004957202 0.53581190109252941 0.17583856316089147 0.0028290238697081809 0.23515223711729052 0.0080727920867502707 0.0054169276263564834 0.0088694733567535895 0.11215621978044511 0.0024487565970048313 0.27207058668136602 0.017361622303724292 0.2181959003210068 0.15230660140514377 0.4299434125423432 0.11110865324735643 0.039144304003634611 0.84738259472739308 0.003090536687523127 0.95324724912643444 0.0072545341681689033 0.23208450046685344
decision_type=2 2 2 2 2 2 2 2 2 2 2 2 2 2 2 2 2 2 2 2 2 2 2 2 2 2 2 2 2 2 2 2 2 2 2 2 2 2 2 2
left_child=2 7 4 11 6 19 8 9 -1 17 -10 14 18 21 30 16 29 -2 -7 28 -16 -5 37 -23 -22 -12 -8 -27 34 36 38 -15 33 -9 -4 -17 -11 -14 -3 -35
right_child=1 3 5 13 -6 12 26 32 10 15 25 -13 22 31 20 35 -18 -19 -20 -21 24 23 -24 -25 -26 27 -28 -29 -30 -31 -32 -33 -34 39 -36 -37 -38 -39 -40 -41
leaf_value=-0.00037331416104101784 -0.0015974119934840884 -0.0039407054122014657 -0.0022536921932824186 -8.4474798923715478e-05 -0.0038049970687559966 -0.0001030690886172383 -0.0026831533189361286 0.0038962142638630064 -0.00014731303588920284 0.0030698396189237347 0.0026195254455300245 0.0025512160633590006 -0.0034074517272825113 0.0027850134041858344 0.0014685188549129551 0.0039292627094510146 0.0011910616946957664 0.0028729050020084154 0.00407259112537972 -0.00054374116931596623 -0.0027059557635270648 0.00098731012224420925 0.00045498888934165585 0.004590439914277821 0.00055222027718167743 0.0026588186201931732 0.0004394147993390715 0.0067704001488741459 -0.0017110624472144557 0.0018567062468249395 -0.00081614439437720839 0.0065668216343318106 0.0037941933356320898 0.0060113001547145405 -0.0042059233667689558 0.0074065460514099908 0.0058514801655526385 -0.0015319531195161602 -0.0018773022214673262 0.0087373898260479366
leaf_weight=12.936847954988478 8.9947247505188006 20.607506901025776 11.026602223515509 10.447759166359903 20.69120679795742 13.528152108192446 13.770028695464136 8.0740205794572812 8.328679144382475 9.6152345538139361 11.302160024642943 10.55412147939205 9.238765582442289 8.7387428283691424 11.71183469891548 9.6161434948444384 15.20251305401325 8.5920314192771894 7.9193413555622092 7.862561658024787 12.184052914381029 9.848796874284746 7.8178143501281729 9.9029160290956479 8.3234693109989148 7.9881041795015326 8.4778028428554517 26.63147959113121 13.209657356142996 8.1934611052274686 7.681044712662696 13.154554322361944 8.2162320017814618 23.897610887885094 271.53246732056141 18.715349450707436 19.890762165188789 8.865549296140669 7.8273907005786887 46.976035535335541
leaf_count=66 46 108 58 53 108 69 71 40 42 48 57 54 48 44 60 48 77 43 40 41 63 50 40 50 43 40 43 133 69 41 40 66 41 118 1432 93 99 46 41 231
internal_value=0 0.00368527 -0.00237252 0.000742624 0.0011068 -0.00346424 0.00230154 0.00572773 0.00358665 0.00411729 0.00451067 -0.00118626 -0.000236524 0.00359959 -0.00181963 0.00483267 0.00370054 0.000656896 0.00165462 -0.00396295 -0.000366571 0.00202757 -0.00180767 0.0030498 -0.00145197 0.00532637 -0.00155515 0.00601873 -0.00404959 0.0046015 -0.00302866 0.0054168 0.00742021 0.00769451 -0.00414612 0.00656322 0.00519744 -0.00273282 -0.00353341 0.0080084
internal_weight=0 316.966 461.127 130.982 110.126 351.001 89.4351 185.984 67.1873 98.8202 54.2504 78.8894 47.3696 52.0928 68.3353 81.2335 52.902 17.5868 21.4475 303.631 32.2194 30.1995 25.9221 19.7517 20.5075 45.9217 22.2478 34.6196 295.769 37.6995 36.1159 21.8933 87.1639 78.9477 282.559 28.3315 29.506 18.1043 28.4349 70.8736
internal_count=4000 1597 2403 672 560 1843 452 925 338 495 272 409 243 263 355 406 265 89 109 1600 166 153 134 100 106 230 114 173 1559 188 189 110 430 389 1490 141 147 94 149 349
is_linear=0
shrinkage=0.00333333


Tree=7
num_leaves=34
num_cat=0
split_feature=0 0 190 196 37 2 0 37 71 0 2 174 66 145 119 30 174 30 93 169 188 2 2 11 196 174 134 11 33 197 71 134 71
split_gain=967.842 144.021 60.2029 24.9784 21.9677 19.8834 19.6838 16.6532 14.2284 13.9081 12.3425 11.6876 10.0067 11.5796 9.69563 9.36808 14.1635 8.65935 8.65195 7.64755 5.35058 5.29479 4.72399 4.57328 4.31936 3.91815 3.52778 3.32133 3.01306 2.79183 2.50423 1.76232 0.70759
threshold=0.65720114111900341 0.47604571282863622 0.23145604395604399 0.26505161045327447 0.32385811209678655 0.43029388785362249 0.30685834586620336 0.46743194758892065 0.1364526301622391 0.77639496326446544 0.051162123680114753 0.0016860631294548514 0.29308240488171583 0.006213236367329956 0.0013063868391327562 0.033275097608566291 0.0056302614975720653 0.061759317293763168 0.0049620661884546289 0.0026870217407122259 0.2237693756257699 0.0073136305436491975 0.0084934160113334673 0.15740475058555606 0.21921913529508472 0.0095801721327006834 1.0014535188674929 0.22609868645668033 1.0022637844085696 0.22580819925969683 0.091541599482297911 1.0056738853454592 0.24643562734127047
decision_type=2 2 2 2 2 2 2 2 2 2 2 2 2 2 2 2 2 2 2 2 2 2 2 2 2 2 2 2 2 2 2 2 2
left_child=1 6 23 5 14 15 -1 11 -9 10 25 -8 13 18 -5 19 -17 -10 -6 -4 -12 -16 -13 26 -22 31 -3 -11 -23 -24 -21 32 -2
right_child=9 2 3 4 12 -7 7 8 17 27 20 22 -14 -15 21 16 -18 -19 -20 30 24 28 29 -25 -26 -27 -28 -29 -30 -31 -32 -33 -34
leaf_value=0.010510376217418857 -0.0055015536382011882 -0.0046482285724097723 0.0017792332359249687 0.0018336083566197058 0.0062086931770494076 0.0063860201528969235 0.0031160123508969162 -0.00011826221866263417 0.0022070192206215789 -0.005865943108720139 -0.0036296530658344543 0.0046440214698914876 0.006148719535773106 -0.0018407203814572405 0.0041670292885245029 -0.0023161903030016278 0.004982792543708172 0.0090920744338930104 0.00015864440925396892 -0.00080583702312234887 -0.0021835928599596194 0.0044035512301038226 0.0094014397926862614 2.8599067183931692e-05 0.0017607010586201391 -0.0012367677661550168 -0.00077652088623170711 -0.0027986275398164278 0.009688191135383821 0.004585961602179861 -0.0043022931317464068 -0.0025987709296108508 -0.0026460714167506894
leaf_weight=60.188047900795937 57.181508228182793 20.021498858928684 8.1727489084005374 8.5774944722652418 8.978064954280855 11.000781714916227 13.463451832532881 13.483298361301424 9.1936516612768191 252.79149284958839 9.5339816361665743 13.494517728686331 9.7726169079542142 15.162994071841238 13.306836768984793 8.0369593799114245 12.645736798644064 8.4289779365062696 9.8957094401121122 7.9101994484663036 7.7773720920085934 8.2111671566963178 67.188818395137787 9.5143033564090711 13.909338414669035 8.721281558275221 7.8777183741331092 13.512150987982748 27.377079084515572 8.8664817214012128 13.012182548642157 12.802811250090597 7.8512293547391883
leaf_count=297 301 105 42 43 45 55 67 69 46 1339 49 68 49 77 67 41 64 42 50 41 40 41 332 49 71 45 41 70 136 44 66 67 41
internal_value=0 0.00526539 0.00244287 0.00366863 0.0050696 0.0012469 0.00810854 0.00689209 0.00355509 -0.00511964 -0.00366171 0.00781283 0.00241962 0.00106709 0.00694028 -9.16215e-05 0.00219236 0.00609124 0.00335575 -0.00175182 -0.00105966 0.00772886 0.00843547 -0.00278336 0.000281226 -0.00455513 -0.00368009 -0.00573233 0.00876808 0.00897195 -0.00316604 -0.00488664 -0.00524606
internal_weight=0 393.781 199.474 162.061 101.282 60.7786 194.307 134.119 31.1059 384.081 117.778 103.013 43.8094 34.0368 57.4726 49.7778 20.6827 17.6226 18.8738 29.0951 31.2207 48.8951 89.5498 37.4135 21.6867 86.5568 27.8992 266.304 35.5882 76.0553 20.9224 77.8355 65.0327
internal_count=4000 1977 1012 817 508 309 965 668 157 2023 614 511 221 172 287 254 105 88 95 149 160 244 444 195 111 454 146 1409 177 376 107 409 342
is_linear=0
shrinkage=0.00466667


Tree=8
num_leaves=36
num_cat=0
split_feature=0 0 191 21 21 7 3 70 7 0 196 1 161 100 172 21 104 7 111 123 1 36 172 0 21 191 203 3 191 6 70 15 104 3 0
split_gain=949.681 139.219 65.5183 46.2503 29.815 29.6447 23.1203 22.9399 17.4264 15.6606 15.1234 11.711 10.6357 10.3968 7.99567 7.54419 7.41798 7.39077 7.16784 8.05716 7.34734 6.24087 5.96205 5.32339 5.17319 4.98176 4.75384 3.32266 3.09489 2.93957 2.74503 2.67318 2.3425 1.19077 0.237056
threshold=0.65720114111900341 0.47604571282863622 0.30930584192439869 0.0099840797483921068 1.0001556277275088 0.21889397501945498 0.20936927944421771 0.30923748016357427 0.066064450889825835 0.33011114597320562 0.26780493899137975 0.0032686555059626703 0.28655198216438299 0.0011559055419638755 0.0099699585698544996 1.0035701394081118 0.0069703368935734042 0.0094553795643150824 0.0020597066031768922 0.0025792595697566871 0.0066088698804378518 0.0081441816873848456 0.0028832163661718373 0.56672140955924999 0.0031909043900668625 0.28461085100299771 0.74425987797479898 0.051902556791901595 0.28646626818645177 0.005854903021827341 0.30848471820354467 0.64399665594100963 0.0031648256117478017 1.0061711668968203 0.75243124365806591
decision_type=2 2 2 2 2 2 2 2 2 2 2 2 2 2 2 2 2 2 2 2 2 2 2 2 2 2 2 2 2 2 2 2 2 2 2
left_child=1 3 4 6 5 12 26 18 14 -8 -9 21 -3 -13 31 24 29 33 -6 -20 -21 -5 -15 -14 -10 -16 -1 -26 32 -7 -23 34 -12 -4 -2
right_child=8 2 17 11 7 16 9 10 15 -11 28 13 23 22 25 -17 -18 -19 19 20 -22 30 -24 -25 27 -27 -28 -29 -30 -31 -32 -33 -34 -35 -36
leaf_value=0.0048579063432210362 -0.0065534876621237814 0.0033813982361308847 -0.0071490873962187316 0.0027515329069584139 0.0082695750542375063 0.0044524692990904596 0.006626815223583645 0.0035937794628685613 -6.666068916653324e-06 -0.0036506037086926147 0.0051653166407493734 0.0068091401302001267 -0.00039526269303943146 0.0089019354865877143 0.00053672673312653643 0.0013036108192411894 0.00078139456542215022 0.00064734561616288332 0.0065489224923911526 0.0034079637461276384 -0.0028288928533532504 0.0049087055379193395 0.015568901518151771 -0.0064172975227996375 -0.0017157838222535871 -0.0054357943100067675 0.011599145163414737 -0.0072136920364625195 0.015301275333914351 0.010807835738012628 0.01163935903239556 -0.0034615895175368217 0.010780805436278722 -0.0028539632139702792 -0.008211471631219467
leaf_weight=12.39095075428486 59.284545749425888 7.9397968202829352 18.258492186665539 8.3106610476970655 8.0215563476085645 10.927497506141668 7.8858070224523571 15.39091734588146 8.1218848377466184 14.12549179792404 11.112263515591623 12.988086760044096 9.3324354887008685 16.257272288203239 8.185475558042528 11.199770137667654 8.5232266932725889 8.1064958274364454 9.1586996465921384 12.541085511446001 14.854018077254294 8.0996746718883532 83.904395624995232 16.937756791710854 7.7962405830621746 15.193154275417326 14.523974999785422 18.620905578136444 13.031003057956694 9.0163784623146039 17.222007408738136 10.054461821913717 19.08560611307621 7.6341260671615592 243.58612938225269
leaf_count=62 313 41 96 41 40 55 40 77 42 73 55 64 48 80 42 57 43 42 46 63 75 40 409 88 40 79 72 97 64 45 84 53 94 40 1300
internal_value=0 0.00715318 0.00332904 0.0109855 0.00499083 0.00142938 0.0052668 0.00708563 -0.00702108 0.000276661 0.00969227 0.0127952 -0.00255173 0.0139125 -0.00753161 -0.00310904 0.00606709 -0.00460519 0.00338869 0.00194416 6.38419e-05 0.00846645 0.0146822 -0.00445731 -0.00453296 -0.00346713 0.00904635 -0.00582612 0.0116086 0.00804886 0.0100034 -0.00781132 0.00916363 -0.00617819 -0.00793206
internal_weight=0 395.58 199.871 195.708 165.872 62.6771 48.9262 103.195 382.043 22.0113 58.6198 146.782 34.21 113.15 336.304 45.7388 28.4671 33.9991 44.5754 36.5538 27.3951 33.6323 100.162 26.2702 34.539 23.3786 26.9149 26.4171 43.2289 19.9439 25.3217 312.925 30.1979 25.8926 302.871
internal_count=4000 1977 1012 965 834 320 247 514 2023 113 290 718 177 553 1787 236 143 178 224 184 138 165 489 136 179 121 134 137 213 100 124 1666 149 136 1613
is_linear=0
shrinkage=0.00642857


Tree=9
num_leaves=39
num_cat=0
split_feature=0 0 191 16 97 5 11 0 34 46 207 15 191 100 152 40 191 191 16 207 194 193 64 0 100 40 64 5 67 11 6 64 194 100 40 108 100 131
split_gain=945.486 137.563 65.3633 28.0933 20.8356 19.6296 16.768 13.9665 13.5134 13.3729 13.4114 13.0065 12.3546 11.6212 10.6101 9.88838 15.2711 8.59139 7.80252 6.20421 6.27391 5.9459 5.68883 5.44784 4.97248 4.85465 4.83859 4.31106 3.57721 3.36781 2.52321 2.37777 2.09294 1.15672 0.856242 0.667638 0.588984 0.453198
threshold=0.65720114111900341 0.47604571282863622 0.30930584192439869 0.51841005682945263 0.0090498970821499842 0.17644392699003222 0.097976598888635649 0.77639496326446544 0.0016583304386585953 0.10654685273766519 0.90443085573018056 0.46760837733745581 0.081989247311827967 0.0036350014852359895 0.0044215722009539613 0.061194414272904403 0.28367609792786902 0.28122569074338355 0.42874357104301458 0.9049230341023845 0.23055455091165214 0.14650483201894857 0.0053539876826107511 0.39430309832096105 0.0034334798110648994 0.067573424428701415 0.0023629534989595418 0.17281435430049899 0.0041747645009309062 0.22609868645668033 0.0013897680910304191 0.00469107460230589 0.47298283685145004 0.0014552553184330466 0.0039448472671210775 0.0034591752337291841 0.0019244196591898801 0.97544348239898693
decision_type=2 2 2 2 2 2 2 2 2 2 2 2 2 2 2 2 2 2 2 2 2 2 2 2 2 2 2 2 2 2 2 2 2 2 2 2 2 2
left_child=1 3 4 5 6 15 22 17 -6 11 -11 -8 -5 21 -12 19 -17 18 24 -1 -21 -10 -3 -14 -2 -16 -15 -28 -4 -9 -7 -26 33 -19 -32 -30 -36 -20
right_child=7 2 28 12 8 30 9 29 13 10 14 -13 23 26 25 16 -18 32 37 20 -22 -23 -24 -25 31 -27 27 -29 35 -31 34 -33 -34 -35 36 -37 -38 -39
leaf_value=0.0071649140530377345 0.0013840831710132215 -0.0022606709934318548 -0.00060647185618463017 0.0048855986236528383 0.00018105242894215536 0.0040100726006874988 -0.0026430725584686752 -0.0040052135840024095 -0.0002648014621465445 -0.00031956801529286799 0.00089488565895500893 0.0019561360937933288 0.0021162614290798662 0.0025261167083822193 0.0062724542301639125 0.0039753223823989076 -0.001243608415312656 -0.0019150232220454028 -0.0033699149262974154 0.0047932787617860359 0.00112673901536162 0.0031561386820297571 0.0008952694945964213 -0.0011115920605154013 7.091631282308117e-05 0.0024370180869503024 0.0024760914620087868 0.0061055809005959912 -0.001531600435962302 -0.0018929115882022854 0.0038475438086912716 -0.0022427411772071577 -0.0011806718230568678 -0.003642695071073065 0.004664247137181372 -0.0034366666115750785 0.0075351071749424738 -0.0015191205678223528
leaf_weight=12.234976723790167 10.680412188172342 12.955767303705217 10.696903482079504 8.532936558127405 10.362045705318449 12.62797090411186 8.6164812892675418 251.00449277460575 8.5931492894887942 8.7575055062770826 9.3256445378065091 13.477952674031256 8.1693567335605639 12.615400597453116 14.665453568100931 13.496229752898218 7.9017037898302069 12.446515679359434 10.527893975377085 15.209872558712961 8.7428408265113813 10.155908674001692 8.1857333630323392 9.4642271399497968 7.9424950927495983 9.1156644970178586 8.1230679899454099 30.956603482365608 8.0182169228792208 13.428672939538954 8.3129264116287214 8.2833333760499936 7.7961002439260474 51.516659691929817 13.673676863312719 15.262870907783507 77.731681272387505 7.9067732542753211
leaf_count=60 55 67 56 42 52 62 44 1339 43 44 47 68 41 63 73 67 40 66 55 75 43 51 42 48 41 46 41 153 42 70 41 43 40 273 67 80 379 41
internal_value=0 0.00354997 0.00165679 0.0054435 0.00248264 0.00592159 0.00133003 -0.00349069 0.00363505 0.00213068 0.00315337 9.19935e-05 0.00213861 0.00412409 0.00403792 0.00412646 0.00210653 -0.00248742 -0.00131122 0.00514797 0.00364495 0.00171383 -0.00106695 0.000447048 -0.000166275 0.00510539 0.00490186 0.00550845 -0.0022895 -0.00391296 0.00675345 -0.00122669 -0.00317488 -0.00337477 0.00701519 -0.00295363 0.00721471 -0.00280248
internal_weight=0 395.983 199.884 196.098 165.906 169.932 85.1002 381.533 80.8062 63.9587 41.8643 22.0944 26.1665 70.4441 33.1068 57.5856 21.3979 117.1 45.3409 36.1877 23.9527 18.7491 21.1415 17.6336 26.9062 23.7811 51.6951 39.0797 33.978 264.433 112.346 16.2258 71.7593 63.9632 99.7183 23.2811 91.4054 18.4347
internal_count=4000 1977 1012 965 834 834 431 2023 403 322 210 112 131 351 166 285 107 614 235 178 118 94 109 89 139 119 257 194 178 1409 549 84 379 339 487 122 446 96
is_linear=0
shrinkage=0.0032


Tree=10
num_leaves=43
num_cat=1
split_feature=17 65 153 191 17 70 28 50 49 191 70 74 70 195 57 97 50 57 50 97 48 101 190 70 190 83 83 50 191 186 70 17 95 134 74 208 57 50 45 186 27 83
split_gain=532.179 176.608 67.5223 63.9711 52.911 30.4409 30.252 25.9963 21.0543 16.9612 21.5054 15.6048 15.2593 18.9533 14.2161 13.1548 10.9697 9.73311 8.66763 8.44082 8.02487 6.57167 6.4444 5.96857 5.98757 5.82289 5.54349 5.30117 4.99957 4.62955 4.29999 12.9969 4.04496 3.62928 3.30425 3.27287 2.15756 1.97971 1.69633 1.45157 1.2405 0.463989
threshold=0.37918759882450109 0.032013921067118652 0 0.21213858771198224 0.75997513532638561 0.50813734531402599 0.2673193365335465 0.1229539103806019 0.52339431643486034 0.28122569074338355 0.3024460375308991 0.21485161781311038 0.30848471820354467 0.14546246509904376 0.33618664741516119 0.0028171502053737645 0.026709788478910926 0.0015046831103973093 0.081750623881816878 0.0051850632298737773 0.15169436484575274 0.0063012312166392812 0.47194325676974586 0.30016790330410009 0.46934300035803805 0.007914861664175989 0.0092131588608026522 0.057505466043949134 0.1991762227780475 0.39559011161327368 0.3048823773860932 0.6945612132549287 0.30805124342441564 1.0046189427375796 0.21738848835229876 0.33079477782867622 0.0051434237975627193 0.11402917653322221 0.34004920721054083 0.0016051091370172801 0.55743131041526806 0.036211472470313318
decision_type=2 2 1 2 2 2 2 2 2 2 2 2 2 2 2 2 2 2 2 2 2 2 2 2 2 2 2 2 2 2 2 2 2 2 2 2 2 2 2 2 2 2
left_child=1 3 4 5 9 14 12 -8 17 10 32 28 18 -14 20 -12 -5 -4 -3 -16 23 -15 -17 -1 33 40 -10 -13 -6 30 31 -19 -2 38 35 41 -9 -37 -25 -32 -11 -18
right_child=2 6 8 16 11 -7 7 36 26 25 15 27 13 21 19 22 34 29 -20 -21 -22 -23 -24 24 -26 -27 -28 -29 -30 -31 39 -33 -34 -35 -36 37 -38 -39 -40 -41 -42 -43
leaf_value=-0.0046240309161512255 0.00049892610780334146 0.0042516705175498987 0.0025440087951836962 -0.00027496005923833444 0.0040648872396558695 0.005440656586906502 0.0046197588083687312 -0.0013578115573656064 0.00061629331777476816 -0.001513925689935526 -0.00064218222529835033 0.008425156818497424 0.0089298552998826226 0.0044425425593025026 -0.0012581615684492252 0.0028937565627256481 -0.005296032601774912 0.0020589681871094152 -0.00053907972689378576 0.0036531999911012516 0.00077870294151000075 -5.3836117713328767e-05 0.0079728122666867431 -0.0043993531052094253 0.0010922724568328498 0.00056964292933685279 0.0048334955176930882 0.0032292986790814614 -0.00022577536777558844 0.0032396326300081274 0.0046197069231117618 0.0078202996357108531 -0.0032139400520992531 -0.00017347016619057506 -0.0017872751904683538 -0.0011362717582678705 -0.0045378509248145448 -0.0039172795093257301 -0.0014159721261084481 0.0088370250327705104 -0.0042467206049640709 -0.0026674241118933152
leaf_weight=25.779182344675064 7.8882837593555477 9.1817707717418688 9.9007643759250623 9.4247728586196882 8.4972014278173464 9.8889834582805616 8.3820253461599368 8.4280077815055865 13.550585180521013 7.827546685934073 8.4639640748500842 24.341855838894844 16.940814882516861 14.265007287263872 10.832028076052667 14.320032700896265 225.75957745313644 13.365181893110277 15.52744586765766 10.344718441367148 10.174221083521841 8.7822978645563108 8.5515329390764219 13.725090608000761 8.2644097954034788 8.5219038724899274 8.1243594288825971 8.0810065567493421 8.444797605276106 8.0678863227367383 8.7312136888504011 18.163286209106445 10.815388441085814 7.690875992178916 8.5527173429727537 7.970130741596221 11.707153141498564 24.457205876708031 7.614960551261901 73.206184566020966 12.013586714863775 7.4276594072580329
leaf_count=136 40 46 49 49 42 50 42 44 68 41 43 119 83 71 55 72 1211 67 79 52 53 44 42 72 42 44 40 40 43 40 43 89 55 40 45 42 61 130 40 358 63 39
internal_value=0 -0.00251786 0.00473595 -0.00376229 0.00242575 -0.000927429 0.00263101 -0.000930552 0.00660764 0.00024851 0.00169829 0.00573935 0.00418171 0.00573534 -0.00169336 0.00373871 -0.00479125 0.00724241 0.00142618 0.00124921 -0.00255468 0.00286167 0.00528121 -0.00309978 -0.00186446 -0.00225262 0.00247182 0.00739303 0.00212815 0.00757778 0.00782478 0.00564654 -0.00175109 -0.00272234 -0.00494338 -0.00503089 -0.00344975 -0.00333948 -0.00354734 0.00850842 -0.00340598 -0.0052357
internal_weight=0 481.121 280.877 387.907 127.767 104.314 93.2145 28.5172 153.109 78.4022 50.0392 49.3649 64.6973 39.9881 94.4255 31.3355 283.592 131.435 24.7092 21.1767 73.2487 23.0473 22.8716 63.0745 37.2953 28.363 21.6749 32.4229 16.942 121.534 113.466 31.5285 18.7037 29.0309 274.167 265.615 20.1352 32.4273 21.3401 81.9374 19.8411 233.187
internal_count=3924 2526 1398 2056 644 540 470 147 754 400 252 244 323 198 490 157 1516 646 125 107 383 115 114 330 194 148 108 159 85 597 557 156 95 152 1467 1422 105 172 112 401 104 1250
cat_boundaries=0 1
cat_threshold=2
is_linear=0
shrinkage=0.0042


Tree=11
num_leaves=42
num_cat=0
split_feature=0 0 171 28 21 95 57 79 25 28 192 25 95 35 79 196 35 23 12 36 204 105 23 139 6 35 84 95 0 117 35 35 192 25 25 36 95 171 196 36 117
split_gain=864.814 132.351 57.3474 32.1157 26.881 22.0512 21.861 19.8266 21.5196 18.4324 17.4121 16.3408 14.6442 14.5798 14.387 14.085 10.0949 9.8212 9.73424 9.47627 8.77349 7.42409 7.24598 7.13855 6.96385 6.86415 5.63586 5.28292 5.08811 5.04152 4.55361 3.27695 3.22033 2.69996 2.49499 2.26796 1.777 1.76576 1.18688 0.908771 0.701307
threshold=0.65720114111900341 0.4819216281175614 0.0099856555461883562 0.11641217023134233 0.0061338157393038282 0.11116364225745202 0.28504380583763128 0.14890611916780475 0.2084724307060242 0.047638304531574256 0.17798171018792955 0.20227815955877307 0.041919892653822906 0.13735124468803409 0.045870287343859679 0.48206412394426817 0.123875480145216 0.33554801344871527 0.25536918640136724 0.027195753529667858 0.34878815206297281 0.0027845788281410937 0.0067883555311709651 0.0088875717483460921 0.24421662837266925 0.17710914462804797 0.0038470283616334204 0.24689629673957827 0.77639496326446544 0.0086716990917921084 0.20439913123846057 0.19047912955284121 0.3276605027663288 0.10860233381390573 0.15500910952687266 0.011359240394085647 0.04429511912167073 1.0010701417922976 0.48762187761166315 0.013507054187357427 1.0024690032005312
decision_type=2 2 2 2 2 2 2 2 2 2 2 2 2 2 2 2 2 2 2 2 2 2 2 2 2 2 2 2 2 2 2 2 2 2 2 2 2 2 2 2 2
left_child=1 4 3 10 5 -1 14 13 9 22 17 12 35 -4 25 -15 -12 26 -8 29 34 -18 -9 31 28 -2 -3 -28 32 -14 -7 -13 37 36 -5 -6 -34 -16 -17 -23 -31
right_child=6 2 7 20 11 30 18 8 -10 -11 16 23 19 15 24 38 21 -19 -20 -21 -22 39 -24 -25 -26 -27 27 -29 -30 40 -32 -33 33 -35 -36 -37 -38 -39 -40 -41 -42
leaf_value=-0.0013464708389308365 -0.0017702941965966651 -0.00077799215458446776 0.00083930202850516361 -0.0026738858931185309 0.00040931438789771772 0.0013051271895276495 0.00187570196990572 0.0031775363837273913 0.0044238534084617837 -0.0018998428527140314 4.2126488178966187e-05 0.0039289721666304483 0.0055474185005757312 0.0057881642787078642 -0.0028141892699533109 0.0011791467774915335 0.00082370596476844622 -0.0020232206903375506 -0.0014000563571874508 0.0020492577048156612 0.00047994870300227402 0.0021287070999747412 2.5401768113807296e-05 0.002481679573308017 -0.00061054727293440817 0.0011503169535904364 1.8628933365086393e-05 0.0025652148850552263 -0.0031458967016142316 0.0018839715000918732 0.0041465481395039456 0.0063334891039651692 -0.0024462244263541437 -8.6269456759815216e-05 -0.00082233549442736569 0.0022277144550380606 -0.00069570450452752838 -0.0011935084444654651 0.0029965815355524313 0.0044903116834825122 0.0038636277584997709
leaf_weight=8.5861627757549304 8.5414791107177752 10.035310581326486 9.5338800400495511 22.434167459607128 9.4550886303186434 8.3830823898315447 7.8083410859107998 8.8298428356647545 8.3953792899847013 12.593406841158865 10.059380963444708 18.788207992911339 29.083375573158264 22.220617368817329 52.582783162593842 8.0814733058214205 8.9720215052366274 10.148202136158941 11.437093079090117 15.104771405458449 8.6982586085796338 8.1923551708459872 7.9266460835933676 8.7779794633388502 9.5285822749137861 7.7474837750196448 9.4361664205789584 9.1337787806987745 239.64738830924034 9.9830735325813311 11.058430239558218 50.700087681412697 10.966220974922186 7.6610185354948035 8.4648257493972761 8.0076584517955762 8.014788091182707 9.1593540012836439 9.1078652739524824 10.818763032555578 8.1269577443599683
leaf_count=44 45 51 48 118 47 42 40 44 42 65 51 92 141 110 278 40 45 52 59 75 44 41 40 43 50 40 48 46 1282 49 55 246 58 40 44 40 42 48 45 54 40
internal_value=0 0.00269629 0.00128146 0.000125257 0.00421056 0.00177985 -0.0026168 0.002796 0.00133166 0.000221347 0.00106141 0.00461404 0.00362241 0.00382867 -0.00275715 0.00447638 0.00221772 -0.000126812 -1.95295e-05 0.00418656 -0.00165408 0.00294482 0.00184814 0.00550916 -0.00286748 -0.000407272 0.000634211 0.00139883 -0.00292894 0.00475949 0.00315738 0.00581147 -0.00228409 -0.00137978 -0.00224749 0.0013864 -0.00184385 -0.00261876 0.00235409 0.00377215 0.00306826
internal_weight=0 389.137 203.082 116.393 186.055 28.0277 373.095 86.6891 37.7453 29.3499 76.796 158.027 79.7609 48.9438 353.849 39.41 38.0425 38.7535 19.2454 62.2982 39.5973 27.9831 16.7565 78.2663 337.56 16.289 28.6053 18.5699 328.032 47.1934 19.4415 69.4883 88.3842 26.642 30.899 17.4627 18.981 61.7421 17.1893 19.0111 18.11
internal_count=3924 1942 1028 594 914 141 1982 434 191 149 388 773 392 243 1883 195 191 197 99 305 206 140 84 381 1798 85 145 94 1748 230 97 338 466 140 162 87 100 326 85 95 89
is_linear=0
shrinkage=0.0025


Tree=12
num_leaves=44
num_cat=0
split_feature=47 8 50 2 142 4 130 13 198 130 13 4 130 36 7 31 50 174 8 8 163 139 142 130 4 118 81 83 113 36 197 2 163 81 31 163 209 83 209 163 46 163 187
split_gain=482.682 157.543 93.5156 76.691 64.2628 49.7912 36.5258 34.0425 33.7024 19.8235 17.5293 16.8653 14.4469 13.5769 13.1003 12.7845 11.5678 13.1082 11.5255 13.7378 9.33873 9.27495 8.8547 8.46887 7.19421 7.17383 7.16548 5.89358 5.04309 4.41399 4.23672 4.2283 3.47525 2.88033 2.44466 2.44357 2.1266 1.72719 1.57677 1.39481 0.909135 0.302449 0.118437
threshold=0.43520288169384008 0.19567889720201495 0.17934571951627734 0.059583812952041633 0.025264230556786064 0.009960230905562641 0.086779192090034499 0.032494489103555686 0.44779987112215786 0.96991884708404552 0.03083484806120396 0.0098905684426426905 0.95224130153656017 0.080074120312929167 0.04621251858770848 0.086868025362491622 0.17934571951627734 0.0046399100683629521 0.036715708673000343 0.18010509759187701 0.18878432363271716 0.0074534115847200164 1.003185033798218 0.9641256332397462 0.0098486477509140986 0.0084379226900637167 0.006592649733647705 0.0061222934164106855 0.0083908960223197954 0.0092634679749608057 0.18083215701493677 0.067875087261199965 0.31856375932693487 0.0050589975435286769 0.037325322628021247 0.4640157967805863 0.17227117849752308 0.0082736704498529452 0.076468752294925488 0.59796577692031871 0.44062800705432897 0.13694830983877185 0.0062332840170711288
decision_type=2 2 2 2 2 2 2 2 2 2 2 2 2 2 2 2 2 2 2 2 2 2 2 2 2 2 2 2 2 2 2 2 2 2 2 2 2 2 2 2 2 2 2
left_child=1 3 4 8 36 6 26 12 14 32 34 16 20 -11 24 37 17 22 -10 -20 -8 30 -5 29 38 28 42 -25 35 -19 33 -15 -9 -22 -7 41 -2 -4 39 -1 -18 -14 -6
right_child=2 -3 15 11 5 10 7 9 18 13 -12 -13 25 31 -16 -17 40 23 19 -21 21 -23 -24 27 -26 -27 -28 -29 -30 -31 -32 -33 -34 -35 -36 -37 -38 -39 -40 -41 -42 -43 -44
leaf_value=-0.0044088003041014767 0.011392817198329481 0.0084441336442014469 -0.0046937270954830294 0.00093401035149590973 -0.0020580916529554872 0.0054552849895680442 0.00029328601493686297 -0.0045752702152158237 -0.003598352307315303 0.0058384358214866152 0.0026378649408363816 0.0054223248726894347 0.0049759356624801149 0.0019811722014022141 -0.00064835850401842934 0.0015755940471137188 -0.0015840741412976415 -0.0021706374264539824 0.004760920956241978 -0.0017991310823843615 0.0033111470158684814 0.00094518217315538308 -0.004072923174392405 0.0010411550589290689 -0.00069553043366466568 0.0023773404556320832 0.001248377166708463 0.0063831398596990337 0.0030083331272006716 0.0019866180183988804 0.002564692581226716 -0.0021419869397691638 -0.00063503046976025887 0.0076399941351805185 0.010632608398206695 0.0040668425374059082 0.0068134259830807328 -0.0015876171698249481 -0.0054524937356589618 -0.0017543346321269009 -0.004248033715327993 0.0094645884377393408 -0.0043267357579324043
leaf_weight=46.838004246354103 27.116320937871933 21.256551265716553 17.978525012731556 11.772060289978983 7.742413282394411 9.7346829175949079 15.050728559494017 9.2973758727312106 10.144062533974649 12.708665281534197 11.021973788738249 9.0376019477844221 8.2163030058145505 7.7991877645254117 14.367249593138693 10.546797350049017 7.8034706115722683 7.8926139473915127 11.310647472739221 10.450787246227263 9.5645700544118899 13.471718698740004 13.185373440384863 7.8287263363599804 7.8231144696474066 9.2974917590618116 8.174999073147772 9.2960812002420408 8.0550715923309308 8.2963688075542432 12.163583874702452 7.8565907180309296 8.4892050772905332 16.524864941835403 27.112352132797241 8.2981353849172574 16.282763063907623 7.7255433797836295 223.24804955720901 8.2741932272911054 10.201524391770361 24.815515011548996 7.7193231582641602
leaf_count=250 131 104 95 60 40 48 75 48 52 63 55 45 40 40 75 53 41 40 56 55 47 67 68 40 41 46 42 47 40 42 61 40 44 81 131 41 79 40 1202 44 54 121 40
internal_value=0 -0.00285805 0.00428178 -0.00347061 0.00512979 0.00417653 0.0031221 0.00383173 -0.00443012 0.000536362 0.00817958 0.000284277 0.00501653 0.00277222 -0.00488828 -0.00233839 -0.000447489 0.000536478 -8.0467e-05 0.00172422 0.00342816 0.00429545 -0.00181713 0.00230278 -0.00509515 0.00665139 -0.00192698 0.00430531 0.00733219 -5.59614e-05 0.00536973 -9.61932e-05 -0.00294897 0.00640178 0.00961609 0.00799713 0.0100505 -0.00394219 -0.00521296 -0.00408567 -0.00336728 0.00869592 -0.00355659
internal_weight=0 439.026 322.765 417.77 286.514 243.115 195.246 171.609 332.456 46.151 47.869 85.3138 125.458 28.3644 300.551 36.2509 76.2762 58.2712 31.9055 21.7614 66.7755 51.7247 24.9574 33.3138 286.183 58.6825 23.6367 17.1248 49.385 16.189 38.253 15.6558 17.7866 26.0894 36.847 41.33 43.3991 25.7041 278.36 55.1122 18.005 33.0318 15.4617
internal_count=3924 2316 1608 2212 1420 1210 976 854 1775 235 234 437 619 143 1612 188 392 297 163 111 331 256 128 169 1537 288 122 87 242 82 189 80 92 128 179 202 210 135 1496 294 95 161 80
is_linear=0
shrinkage=0.00444444


Tree=13
num_leaves=47
num_cat=0
split_feature=50 21 28 21 117 16 25 149 83 71 131 163 26 59 25 71 150 133 32 117 128 16 59 80 71 71 116 25 71 117 105 133 116 207 26 59 116 26 188 128 209 150 16 26 121 133
split_gain=443.673 110.353 110.132 92.4856 52.2694 32.3137 32.2114 32.0812 21.7155 25.6295 21.5094 18.9887 17.1697 14.2385 13.9968 12.8844 12.5218 11.7455 11.2738 10.5661 10.4698 9.90366 9.75313 9.36577 8.70163 8.4739 8.24446 8.11313 6.83687 6.02794 5.06442 4.70743 4.91675 4.52004 4.17803 4.12419 3.75983 3.57288 3.01459 2.75332 2.44336 1.86116 1.2753 3.02213 1.02035 0.0175304
threshold=0.074836783111095442 0.0099840797483921068 0.27842098474502569 0.0099840797483921068 0.0091319284401834028 0.32772772014141088 0.20886711031198504 0.014697359409183266 0.0088770193979144114 0.41226662695407873 0.97015422582626354 0.29782201349735266 0.057037174701690681 0.24370716512203219 0.40196831524372106 0.24278552830219272 0.21401651948690417 0.0074052056297659883 0.003454474033787847 1.0026709437370303 0.95134463906288158 0.41216343641281133 0.0040432098321616658 0.0084225996397435682 0.22930227220058444 0.058182137086987502 0.0038012611912563448 0.1018636040389538 0.07347766682505609 0.0068420791067183026 0.0057401142548769721 0.0053218158427625903 0.0022297386312857275 0.90546130820889847 0.11147782579064371 0.12185448408126832 0.005958026973530651 0.039800791069865234 0.22592820927608068 0.94317549467086803 0.17109705351234342 0.004506732104346157 0.20776457339525226 0.098612032830715193 0.0080799707211554068 0.60099050402641307
decision_type=2 2 2 2 2 2 2 2 2 2 2 2 2 2 2 2 2 2 2 2 2 2 2 2 2 2 2 2 2 2 2 2 2 2 2 2 2 2 2 2 2 2 2 2 2 2
left_child=1 4 3 7 10 11 8 13 9 12 36 20 25 -2 37 34 35 -13 -17 33 -5 -20 -8 -18 40 -3 -14 -28 -24 -11 -25 -10 -33 -7 -12 45 -1 -4 -37 -27 -6 -19 43 -39 -21 -9
right_child=2 6 14 5 24 19 22 16 31 29 15 17 26 -15 -16 18 23 41 21 44 -22 -23 28 30 -26 39 27 -29 -30 -31 -32 32 -34 -35 -36 38 -38 42 -40 -41 -42 -43 -44 -45 -46 -47
leaf_value=0.0028227573072060709 -0.00083778692626085456 5.5897158029270331e-05 -0.001336657826764385 -0.00122983967558679 -0.0010565899981184769 0.0025035550676855999 0.0034318038482249826 -0.0040619146322901714 0.0027939800586148232 0.0072370046592977466 0.00048208743767053487 0.001129005137833834 0.0015630232104512261 0.0039950768342073084 0.00053275543537386857 -0.0007430812449391558 -0.0030913250268545288 0.0031073984546234352 0.005702266131633227 -0.0032991464699946181 0.0029475910109501369 0.00090603145065441338 0.0035927202859886657 -0.00096488182494466077 -3.8652834738113045e-05 0.0018496155580555187 -0.0035127368500711886 0.00043982922050587764 0.0079306316422359732 0.0026204313293759635 0.0024364114209895456 0.002945640484990646 0.006566029405017753 -0.00067277700356051847 -0.0026069826695429015 -0.002961209493809922 0.0071041692409052025 -0.00092569107741691638 -0.00040121355696568568 0.0050277938609243388 -0.0036035709993673297 0.0060796707275289248 -0.0041614889120825654 -0.0035780209633260438 -0.0011594270807267688 -0.0023709026936910246
leaf_weight=8.6399275809526461 15.069468677043917 7.8909856528043774 8.3118377774953824 12.914227679371836 7.5041578114032772 8.6989399045705813 15.164361715316771 59.706216499209404 13.518368273973463 10.467424958944322 8.4143606722354907 10.620734632015226 12.983360230922697 9.5460435003042203 7.7110915929079047 8.1628196984529513 9.2957410663366336 10.780608832836149 10.161409854888918 8.3768321573734266 10.226884245872496 9.3584802448749524 10.012170791625975 7.9920874983072263 14.885721400380133 8.1338374018669146 9.9666687250137347 10.380771592259405 42.101210728287697 8.8489168435335142 7.8691684305667877 10.602349460124968 30.807989850640297 8.0500336885452253 8.0462575405836088 10.470578715205194 8.1406319439411146 9.0272624641656893 9.8858686387538892 13.003806829452513 24.365312173962593 23.67021419107914 168.18270230293274 15.512260630726812 7.5835303813219062 10.411236971616743
leaf_count=43 79 40 44 67 40 44 74 322 66 50 43 53 65 48 40 41 49 53 50 44 51 47 49 41 77 40 51 52 201 43 40 52 150 41 42 55 40 48 51 63 130 116 912 82 39 56
internal_value=0 0.00317392 -0.00198654 -0.000444348 0.000431145 0.00196659 0.00460424 -0.00218253 0.00357938 0.00239279 0.00243139 0.00324341 0.0012673 0.00119578 -0.00374714 0.00110346 -0.00290981 0.00446194 0.00242858 -0.000729558 0.000703923 0.00370072 0.00652175 -0.000755409 -0.00216807 0.00305309 -0.000372772 -0.00163732 0.00726081 0.00556643 0.000806429 0.00519771 0.00581752 0.00106798 -0.00114674 -0.00347957 0.00543514 -0.00391493 -0.0018651 0.00407043 -0.00310166 0.00537111 -0.00401126 -0.00274562 -0.00252481 -0.00388355
internal_weight=0 311.561 449.914 241.168 107.679 100.922 203.882 140.246 136.604 81.6758 60.9239 68.2127 62.3594 24.6155 208.745 44.1433 115.631 45.0716 27.6827 32.7093 23.1411 19.5199 67.2777 25.157 46.7552 29.0286 33.3308 20.3474 52.1134 19.3163 15.8613 54.9287 41.4103 16.749 16.4606 90.4739 16.7806 201.034 20.3564 21.1376 31.8695 34.4508 192.722 24.5395 15.9604 70.1175
internal_count=3924 1549 2375 1249 553 508 996 741 672 404 306 340 311 127 1126 223 614 222 138 168 118 97 324 130 247 143 168 103 250 93 81 268 202 85 85 484 83 1086 106 103 170 169 1042 130 83 378
is_linear=0
shrinkage=0.00333333


Tree=14
num_leaves=45
num_cat=0
split_feature=20 79 21 8 129 129 8 21 192 74 70 74 192 70 9 74 205 80 204 79 191 191 161 70 190 160 20 21 192 64 204 78 1 20 9 191 190 64 129 192 1 1 19 9
split_gain=435.107 189.951 116.3 56.9406 37.9243 35.7449 28.3649 27.8288 22.5189 20.9069 19.0105 20.5287 14.341 13.6925 13.6267 12.2816 12.2469 12.4853 11.9672 11.8722 11.0201 10.9211 9.63364 10.0439 8.46285 7.79719 7.15459 6.86592 6.80626 6.3328 5.8526 5.25624 5.12087 6.58422 4.92923 4.19225 3.40072 3.5703 2.6992 1.50847 1.24931 1.08711 0.805059 0.284658
threshold=0.11877917498350145 0.053982080891728408 0.009583848528563978 0.059990929439663894 0.14079710096120837 0.14079710096120837 0.20259664952754977 0.0099840797483921068 0.17230781819882168 0.21696107089519504 0.50752410292625438 0.1467268839478493 0.32806408531200987 0.30056624114513403 0.15564184635877612 0.28868499398231512 0.22283206672564457 0.052313044667243964 0.15646684401490565 0.23071835935115817 0.20459834974602201 0.28376396843108748 0.14859037101268771 0.50397971272468578 0.28908139353676915 0.34278264641761785 0.066707491874694838 0.0048823049291968354 0.1731366261695215 0.0062542736995965251 0.16761728236417436 0.0056851722765713939 0.092932529747486128 0.27950495481491094 0.197627067565918 0.20769297239879278 0.3009873139212656 0.0061790491454303273 0.13690596073865893 0.47888467166636184 0.00986674288287759 0.0027873364742845301 0.18648374825716021 0.15564184635877612
decision_type=2 2 2 2 2 2 2 2 2 2 2 2 2 2 2 2 2 2 2 2 2 2 2 2 2 2 2 2 2 2 2 2 2 2 2 2 2 2 2 2 2 2 2 2
left_child=1 6 4 21 8 7 13 35 14 12 11 25 34 -1 18 20 41 30 -2 22 31 -4 -14 24 -24 -5 29 -17 -27 -15 -18 -10 -20 -34 40 36 37 -3 -19 -30 -9 -13 -42 -37
right_child=2 5 3 10 -6 -7 -8 9 15 -11 -12 16 19 26 -16 27 17 38 32 -21 -22 -23 23 -25 -26 28 -28 -29 39 -31 -32 -33 33 -35 -36 43 -38 -39 -40 -41 42 -43 -44 -45
leaf_value=-0.0026544322976258081 0.0032068286391632008 -0.0052847523326691077 0.0042681925650889891 0.00018930757899938652 0.011460004789407948 0.005495591137181708 0.013690459498526158 -0.0083657454777383896 0.0067775533619864456 0.0063256463862776963 0.016161015402381202 0.0081076572496903612 -0.0054797415961355574 0.0064528663959140739 0.0034875335579398845 0.012003787636442512 0.0068782996340206876 0.0075055239901706382 -0.0074590184811326229 -0.0066307476670738694 -0.0056831530347472283 -0.0045783561011170527 -0.0047066059272509262 0.00852340719553666 0.0038402192288349065 0.0011933408128055804 0.010758706836622643 0.0029658689099561399 0.011303204650122243 -0.0015787437428691617 -0.00028087176534124408 -0.00058862203056991359 -0.0063537535649116073 0.0016019725337824238 -0.0014385242397452192 -0.0087063971082545193 -0.0073959942311513267 0.00044983532867995277 0.01419633929416696 0.0050070447224254437 -0.0022888720143681832 0.015611629987189013 -0.0062497075545981714 -0.0058072267053437109
leaf_weight=11.946824014186857 7.7847591936588278 10.885982841253282 11.949074864387514 11.926885709166525 13.898379832506178 11.416352629661558 21.024956941604614 39.725905269384384 8.6637933403253609 8.0204854607582075 36.955831333994865 8.5103651881217939 7.8140950947999945 8.8138292878866249 12.386342793703077 8.0320943892002123 12.275113195180895 15.350344300270082 29.702473774552345 14.316833287477492 8.4768919348716718 12.549301356077192 9.2697007507085853 7.995947688817977 10.437147870659826 8.174294978380205 8.9439590871334058 10.633694767951964 10.653396502137186 8.1447113156318647 9.5871040076017362 8.6633041501045209 8.2312047928571719 9.716226711869238 9.0337770730257017 184.21041320264339 20.26697713136673 9.2050920277833921 15.247386097908018 8.8237112760543805 8.4004681557416934 35.911283150315285 8.3278999328613263 18.839151248335838
leaf_count=62 40 58 59 59 68 58 101 213 44 40 176 41 41 44 63 40 60 74 155 76 45 63 49 40 53 41 44 53 52 41 47 44 43 49 47 1005 108 49 73 43 44 172 45 102
internal_value=0 -0.00436977 0.00652236 0.00991212 0.00113418 -0.00622942 0.0073875 -0.00662223 -0.000322027 -0.00376538 0.0113368 0.0098157 -0.00456307 0.00337485 -0.002881 0.00353669 0.0116005 0.00863034 -0.00437589 -0.001583 0.000232145 -0.000266953 0.000696738 0.00269062 -0.000243239 0.00509878 0.00614666 0.00764034 0.00706076 0.00283585 0.00397839 0.00341474 -0.00569401 -0.00231793 -0.00671666 -0.0080274 -0.00537667 -0.00285446 0.0115061 0.00918278 -0.00748314 0.0145853 -0.00471757 -0.00849668
internal_weight=0 437.041 324.103 197.914 126.189 378.166 58.8743 366.75 112.291 123.342 173.416 136.46 115.322 37.8493 67.821 44.4698 96.8816 52.4599 55.4347 49.8337 25.804 24.4984 35.5169 27.7028 19.7068 39.5783 25.9025 18.6658 27.6514 16.9585 21.8622 17.3271 47.6499 17.9474 65.4881 243.408 40.3581 20.0911 30.5977 19.4771 56.4543 44.4216 16.7284 203.05
internal_count=3924 2320 1604 960 644 2028 292 1970 576 648 838 662 608 191 350 226 467 254 287 259 133 122 183 142 102 195 129 93 136 85 107 88 247 92 349 1322 215 107 147 95 302 213 89 1107
is_linear=0
shrinkage=0.00714286


Tree=15
num_leaves=42
num_cat=0
split_feature=47 12 79 31 38 35 75 35 12 75 38 196 172 35 15 91 69 46 31 112 12 47 127 35 75 122 38 79 14 105 133 41 112 127 15 15 41 196 171 46 171
split_gain=457.464 143.293 140.423 67.4025 40.9648 27.2853 23.8422 20.8159 18.9528 18.8454 18.01 17.9647 16.7534 15.4654 15.0097 14.8239 14.5649 11.29 10.8385 10.4307 9.66808 7.81853 6.92142 6.72028 6.35341 6.03864 5.7207 5.6933 5.61879 5.55509 5.07466 3.44691 3.25452 2.84888 2.82943 2.78072 2.56934 1.67085 1.3943 1.23802 0.416218
threshold=0.43520288169384008 0.14875987917184832 0.053982080891728408 0.054228702560067184 0.55861234664917003 0.154939740896225 0.20325224846601489 0.17710914462804797 0.014405233785510065 0.1405177786946297 0.099377322942018523 0.26819319774470685 0.00972123956307769 0.36943712830543524 0.44134519994258886 0.0068539236672222623 0.0092375385574996489 0.13511750847101214 0.029852171428501609 0.0036294555757194762 0.092747308313846602 0.17839948832988742 0.0042494067456573257 0.27500499784946447 0.072322297841310515 0.0029506082646548752 0.052066490054130561 0.086853455752134337 0.0052763312123715886 0.004889360861852766 0.18100380897521975 0.005014857044443489 0.004669424146413804 0.0035974711645394568 0.45585787296295172 0.59791144728660595 0.0054726796224713334 0.48077595011557278 1.0004563927650454 0.0060462481342256078 1.0040077567100527
decision_type=2 2 2 2 2 2 2 2 2 2 2 2 2 2 2 2 2 2 2 2 2 2 2 2 2 2 2 2 2 2 2 2 2 2 2 2 2 2 2 2 2
left_child=2 6 5 8 16 -1 11 17 26 -6 24 18 23 35 -9 19 27 30 28 -11 -12 -15 -21 -7 -5 -13 -4 -3 -2 -22 -8 -29 -33 -14 -17 38 37 -27 -10 -16 -40
right_child=1 4 3 10 9 12 7 14 13 15 20 25 33 21 39 34 -18 -19 -20 22 29 -23 -24 -25 -26 36 -28 31 -30 -31 -32 32 -34 -35 -36 -37 -38 -39 40 -41 -42
leaf_value=-0.00066297861077286733 -0.0015291761797776859 0.00024630476247159647 -0.0011443068697355946 -0.0021623845167748051 -0.0011598112295237901 -0.00061815303564734573 8.1510148461186647e-05 0.0016658041978563271 -0.0028157138818308315 -0.00067590855234072288 0.002600789220426363 0.0015499850719543854 0.0021360296425264602 -0.001927531434896103 0.0027852432738015281 0.0018015599254388986 0.0015588921093180707 0.0037591257637998123 0.0022081688847542125 0.0001616593406689651 -0.00088023304032739356 0.00090397518867319383 0.0027150307747536057 0.0021100433808409003 0.00012070251176455886 0.0032848118686674308 0.0011220668370961529 -0.0024146279618063871 0.00087990515037199399 0.0011805985542091397 0.0022325715397700872 -3.2433772609789554e-05 -0.0017269781057037716 0.0047078277090970115 0.0044054514831461857 -0.001219306981037188 0.0046580776365077866 0.0013051844061634354 -0.0010437174092781136 0.0053426237915374158 -0.0021626855305479126
leaf_weight=15.378162726759909 8.8765645027160698 8.0764325410127622 12.746273919939997 14.386450156569483 10.568900808691977 7.7866280823946026 11.714397698640825 10.107446789741514 239.58932873606682 11.557726994156836 13.788954585790632 13.780737921595572 9.0650864988565463 7.4148289114236858 8.252019450068472 8.0452438443899172 8.1190061122179014 17.96052448451519 13.995157942175863 8.8276942521333712 11.021721795201303 9.9108281284570676 15.480387330055235 8.3074105829000455 10.524048164486883 8.5121307373046928 8.0849729180335981 23.684445932507515 8.109168127179144 13.307879731059073 10.120554253458975 10.511761799454691 12.640676289796827 15.611554116010664 11.247557908296583 11.312961518764494 14.8312990963459 8.5105193406343442 9.0484639555215853 62.272675573825836 17.687190607190132
leaf_count=79 45 42 66 76 55 40 57 49 1309 58 68 67 44 40 40 40 41 86 68 44 57 52 77 41 54 41 41 125 41 68 49 55 67 75 55 61 71 41 49 294 96
internal_value=0 0.00215523 -0.00146245 -0.00196882 0.000248359 0.00190418 0.00338627 0.00404583 -0.00240258 0.00150497 0.000211474 0.00227301 0.0028582 -0.0025524 0.00474523 0.00203828 -0.00106796 0.00246946 0.000836331 0.00105759 0.00118833 -0.000381879 0.00187054 0.000867646 -0.00126054 0.00317228 -0.000243439 -0.00149748 -0.000407508 0.000251051 0.00118222 -0.00179595 -0.00102138 0.00399405 0.00359083 -0.00268414 0.00374108 0.00253639 -0.00273681 0.00512845 -0.00188299
internal_weight=0 325.803 434.973 378.824 128.76 56.1488 197.043 120.428 315.795 65.7275 63.0291 76.6156 40.7707 294.964 80.6321 55.1586 63.0323 39.7955 30.9809 35.8658 38.1186 17.3257 24.3081 16.094 24.9105 45.6347 20.8312 54.9133 16.9857 24.3296 21.835 46.8369 23.1524 24.6766 19.2928 277.638 31.8539 17.0227 266.325 70.5247 26.7357
internal_count=3924 1608 2316 2037 659 279 949 575 1714 329 323 374 200 1607 383 274 330 192 154 179 193 92 121 81 130 220 107 289 86 125 106 247 122 119 95 1515 153 82 1454 334 145
is_linear=0
shrinkage=0.00231481


Tree=16
num_leaves=44
num_cat=0
split_feature=50 21 73 117 117 5 5 5 4 16 129 40 129 163 192 19 19 129 27 71 21 50 6 192 71 117 117 181 23 94 19 201 73 6 19 5 55 16 27 5 117 79 5
split_gain=434.985 106.228 98.9555 90.3199 51.636 46.8797 32.7327 30.0084 21.3644 21.1327 18.8368 16.9837 16.3704 15.929 15.2561 14.6809 13.8085 13.2632 12.5383 11.6637 11.1079 10.7255 10.4199 9.8121 8.66615 7.56062 6.92257 6.8274 6.55374 5.62764 4.04487 4.00275 3.11483 3.08739 2.79624 2.65387 2.48816 2.97169 2.23319 2.15256 2.12935 1.21061 0.766289
threshold=0.074836783111095442 0.0099840797483921068 0.95584282279014599 0.0099405422806739824 0.0091319284401834028 0.17312633991241458 0.219964474439621 0.15489976108074191 0.25050728023052221 0.33070783317089086 0.13995493203401568 0.0024052194785326724 0.14050248265266421 0.45470702648162847 0.3248029237094564 0.047168292105197913 0.038702201098203666 0.14054381102323535 0.61998382210731517 0.056216847151517875 1.004056513309479 0.23006281256675723 0.094037648290395751 0.17230781819882168 0.22930227220058444 1.0063475966453554 1.0014946460723879 0.0099969618022441881 0.0057024771813303241 1.0002050995826723 0.020837012678384784 0.70490543414967288 0.95702359080314647 0.0012370628537610175 0.17943245172500613 0.23993187397718432 0.0060965018346905717 0.50434550642967235 0.60679772496223461 0.18215104192495349 1.0028941631317141 0.10166278481483461 0.29872857034206396
decision_type=2 2 2 2 2 2 2 2 2 2 2 2 2 2 2 2 2 2 2 2 2 2 2 2 2 2 2 2 2 2 2 2 2 2 2 2 2 2 2 2 2 2 2
left_child=1 4 3 8 7 10 21 31 12 34 13 -7 20 14 -3 23 -16 18 -9 27 22 26 30 38 40 33 -4 -13 -28 -17 -2 -1 -18 -21 42 -27 37 -31 -5 -32 -6 -38 -8
right_child=2 5 6 15 24 11 9 17 -10 -11 -12 19 -14 -15 16 29 32 -19 -20 25 -22 -23 -24 -25 -26 35 28 -29 -30 36 39 -33 -34 -35 -36 -37 41 -39 -40 -41 -42 -43 -44
leaf_value=0.00062195784149726057 -0.00052500983189966309 -0.00198214247574053 0.0022162765569587808 -0.0007736670464926446 -0.0011464950134905561 0.0012398867744240153 0.002922219137755614 0.0038288724719383275 0.0032543834528100416 -0.00068328077624618135 0.0048727344396978234 0.00058985945619881655 0.0030153934571644412 0.0037786660373810106 0.0035509385883675084 -0.00083065811139441427 -0.0014230867265534798 0.0060113145185199356 0.00024866025278852898 0.0029509708613325233 0.0015925455502407856 -0.0026182920438955048 0.00097515875374657628 0.0010499793640531127 -2.3572686742530407e-05 0.0016577642870369161 0.00099698007870934781 0.0040925479600313584 -0.0021250198887811512 -0.00055146274675206357 -0.003113571826256805 -0.0017834121355890325 0.00080652602758292868 0.0060979665530397666 0.00219888819716757 0.0043377078826919418 -0.0016098550692521508 -0.0029862085898768086 -0.0029842440756950072 -0.00098668615953612202 -0.003131393886411267 -0.0034668468460778614 0.0060022521105487486
leaf_weight=8.513545826077463 11.248980328440664 15.120647698640822 9.44787545502186 7.9676098972559037 9.4106029272079486 11.545152291655539 8.2099253088235908 15.878168895840647 14.5131728798151 8.3233703523874265 11.39871960878372 9.1752103865146655 8.1654920876026136 11.15936268866062 11.455360502004625 9.1787991970777494 8.0396929979324359 10.478026106953619 14.9668081253767 8.5293185859918577 10.287662357091902 11.485895931720732 10.213987365365027 10.602694571018217 14.859966456890104 10.003843858838083 9.4042078554630297 8.8444069325923902 8.8133180737495405 9.1343357563018817 20.772931188344959 11.13782201707363 8.5728534609079343 82.743290930986404 8.9666931331157667 8.5040994286537153 8.002226382493971 7.5513906478881827 10.411245286464689 7.6601986885070792 22.318680971860886 228.00754421949387 10.173152282834051
leaf_count=43 57 76 47 42 50 57 40 79 72 42 55 46 41 55 55 49 41 51 76 41 52 61 53 55 77 49 47 43 45 49 110 57 42 395 44 41 43 41 55 40 120 1241 49
internal_value=0 0.0026865 -0.00169146 -0.00229025 0.000375664 0.00388312 0.00128105 0.00207689 0.0003356 0.00318431 0.00181702 0.00481845 -0.000359067 0.00102592 0.000178878 -0.00303552 0.00139747 0.00340886 0.00221259 0.00511765 -0.000899163 -0.0005236 -0.00145449 -0.00101729 -0.00184468 0.00548662 0.000463938 0.00254617 -0.000574178 -0.00324947 -0.00209666 -0.00078013 -0.000309457 0.00587347 0.0043277 0.00319211 -0.00333012 -0.00185505 -0.00219591 -0.00264307 -0.00264559 -0.00341794 0.00504842
internal_weight=0 312.656 448.543 373.718 107.564 205.092 74.8244 60.9744 82.8624 35.6731 65.7466 139.345 68.3493 54.3479 43.1886 290.856 28.0679 41.323 30.845 127.8 60.1838 39.1513 49.8961 28.9815 46.5893 109.781 27.6654 18.0196 18.2175 261.874 39.6821 19.6514 16.6125 91.2726 27.3498 18.5079 252.695 16.6857 18.3789 28.4331 31.7293 236.01 18.3831
internal_count=3924 1549 2375 2000 553 996 375 306 425 175 324 672 353 269 214 1575 138 206 155 615 312 200 260 152 247 526 139 89 92 1423 207 100 83 436 133 90 1374 90 97 150 170 1284 89
is_linear=0
shrinkage=0.00285714


Tree=17
num_leaves=47
num_cat=0
split_feature=71 194 192 117 191 133 38 38 38 192 56 118 201 175 14 152 133 205 14 191 117 93 38 154 45 71 118 189 89 202 71 191 160 40 145 154 154 112 136 124 53 53 105 53 185 168
split_gain=395.193 139.018 85.0091 56.7704 47.9321 28.4622 21.1171 20.542 20.099 18.7528 18.2088 13.5955 13.3239 13.5456 12.1206 12.5329 10.1196 9.58345 8.59881 8.28841 7.86406 7.17852 6.86143 6.84507 6.54836 5.80623 5.31987 5.26463 4.91347 5.51248 4.82506 4.66702 4.57251 3.88639 3.10165 2.86025 2.70736 2.14629 2.09432 2.07882 1.6964 1.60428 1.17757 0.884481 0.614149 0.127833
threshold=0.085237670689821257 0.33908045977011497 0.30079365079365084 0.009819669649004938 0.193875795095272 0.0074052056297659883 0.44345170259475714 0.31520919501781469 0.13752106577157977 0.32497993058528513 0.52860608696937572 0.0057798994239419707 0.6964656741336821 0.008574578911066057 0.0060583476442843684 0.0060248814988881358 0.0053218158427625903 0.2278060801263915 0.0097082769498229044 0.066917913539735821 0.0071069332771003255 0.0042949456255882987 0.059362541884183891 0.06235353276133538 0.39928257465362554 0.15327299386262896 0.0077329601626843223 0.87460338434175655 0.0042461813427507886 0.28238237758389995 0.25650475919246679 0.28666315289272276 0.057830853387713439 0.0090571865439414995 0.0055879417341202506 0.21590805798769 0.16059629619121554 0.0071630799211561689 0.080506365746259703 0.0048279669135808953 0.0043408039491623649 0.0023854004684835677 0.00032211332290899014 0.0046207336708903321 0.0085424366407096403 1.0027027130126955
decision_type=2 2 2 2 2 2 2 2 2 2 2 2 2 2 2 2 2 2 2 2 2 2 2 2 2 2 2 2 2 2 2 2 2 2 2 2 2 2 2 2 2 2 2 2 2 2
left_child=1 3 4 8 11 34 23 18 36 45 17 16 13 25 24 -16 -2 28 32 43 21 -10 27 -6 35 -12 -13 -7 29 -4 -19 -27 -5 -14 -3 -8 -1 44 -34 -28 -24 -30 -40 -18 -25 -9
right_child=2 5 10 7 6 22 14 9 20 -11 12 26 33 -15 15 -17 19 30 -20 -21 -22 -23 40 37 -26 31 39 -29 41 -31 -32 -33 38 -35 -36 -37 -38 -39 42 -41 -42 -43 -44 -45 -46 -47
leaf_value=-0.0050117380191920047 0.0014133763065459139 0.00055238269037899727 0.0029040987708120981 -0.0015154838433235247 0.00062683502207521325 0.0053114289853208327 0.00010961080826883456 -0.0044868680901780332 -0.0023696484768624395 0.0045886753460821815 0.0094781876547341166 -0.00061326746135051651 -0.0015066229638912162 -0.00027136306040651881 -0.00033230746837308598 0.0073828099082099289 0.0054995024558577577 0.0009094415920083193 -0.00059375740726615406 0.0027515514078482084 0.0063065434978352933 0.003050047667812375 0.0045113480981038897 -0.005532861867029149 0.0026161646846081686 0.0063031298519367288 0.0013684788614129659 0.00051707395245379558 0.0059496585325529931 0.007838583288789433 0.0059233084551124889 0.0019289134377138196 -0.0029133925058812127 0.0025467484518896496 -0.0035117825205748339 -0.0035660933091948193 -0.0011460395560532743 -0.0018113836007738193 -0.0027318991254499099 0.0051608391913053053 0.0099159755952923472 0.010345250349586561 -0.0059367545654369844 0.011127858227886606 -0.0025905935473472981 -0.0021098332153133255
leaf_weight=9.0132014304399508 8.5580853819847089 7.9157985746860495 12.960933700203897 8.2995753735303861 9.266562953591345 15.393924549221994 8.5322129577398353 8.6359713673591667 7.88868220150471 8.8184049874544126 13.930880010128019 11.961576104164125 8.9933416992425936 8.2017802596092206 8.5023259371519107 11.147296294569967 8.2685777693986946 8.6546010524034518 9.2822259664535505 8.1470527499914152 9.616264268755911 14.524610653519629 8.2770049721002596 17.531835272908214 8.9222701340913755 19.565953359007839 8.6694366782903689 9.2364664673805219 12.878152087330816 17.681230142712593 11.779765322804449 11.852147981524466 12.360540390014647 11.104288175702093 8.0657557845115644 11.455370888113974 10.341257229447363 11.862589225172995 7.8810713440179816 8.1762143820524198 10.588598042726515 45.146969929337502 242.21017463505268 12.484282866120337 8.4422617107629758 7.4986374080181113
leaf_count=48 42 40 63 44 48 76 43 46 41 45 67 59 46 40 43 55 40 43 50 40 48 74 40 92 45 94 43 46 62 85 57 58 67 56 41 59 55 62 43 40 51 216 1327 60 44 40
internal_value=0 -0.00308407 0.00413698 -0.00426428 0.00147141 0.00389603 -0.000797101 -0.00507865 0.000578577 -0.000672303 0.00645734 0.00467372 0.00433177 0.00559633 0.00148973 0.00432218 0.00660184 0.00778838 -0.00546374 0.00794734 0.00294528 0.00110463 0.00592117 -0.00311929 -0.00059053 0.00662421 0.00190074 0.00368741 0.00853659 0.00605724 0.00407019 0.00486722 -0.00562512 0.000760715 -0.0016612 -0.00212975 -0.00324707 -0.00402217 -0.00574263 0.00356152 0.0082045 0.00960044 -0.00585824 0.0095659 -0.00483015 -0.00373668
internal_weight=0 415.848 344.678 356.371 161.928 59.4775 95.6627 304.987 51.384 24.953 182.75 66.2652 73.6484 53.5508 48.5595 19.6496 37.458 109.102 280.034 28.8999 32.0296 22.4133 43.496 47.1032 28.9099 45.349 28.8072 24.6304 88.6673 30.6422 20.4344 31.4181 270.751 20.0976 15.9816 19.9876 19.3545 37.8367 262.452 16.8457 18.8656 58.0251 250.091 20.7529 25.9741 16.1346
internal_count=3924 2222 1702 1928 815 294 491 1662 266 131 887 324 361 259 245 98 182 526 1531 140 163 115 213 246 147 219 142 122 426 148 100 152 1481 102 81 102 103 198 1437 83 91 278 1370 100 136 86
is_linear=0
shrinkage=0.005


Tree=18
num_leaves=44
num_cat=0
split_feature=21 19 19 5 79 129 19 16 27 158 5 65 5 15 19 15 190 80 112 136 80 129 114 16 88 15 207 201 129 163 91 19 163 16 79 163 174 79 135 16 163 16 27
split_gain=356.784 166.57 141.259 104.874 57.3656 37.9114 25.9479 21.8248 19.0781 16.8704 17.5294 14.412 14.3414 13.6413 10.8334 10.6561 13.1094 10.0964 8.66476 8.12056 7.87332 7.80219 7.15963 6.25251 7.98076 5.72549 5.55729 5.49489 5.12551 3.07959 3.02916 2.57522 2.4755 3.6671 2.40103 2.11447 1.78677 1.35815 0.929278 0.381454 0.282277 0.1756 0.0378428
threshold=0.0099840797483921068 0.18648374825716021 0.043017007410526283 0.22841868549585345 0.22266478091478351 0.14079710096120837 0.028963813558220867 0.36032223701477056 0.61767953634262096 0.26734387874603277 0.17463260143995288 0.032013921067118652 0.23620194941759112 0.43951390683650976 0.016278424300253395 0.44469511508941656 0.31810989643268128 0.059596445411443717 0.0025523959193378691 0.26737736165523535 0.0078385500237345713 0.13743316382169726 0.0072454907931387433 0.53563562035560619 0.0057255716528743514 0.48865009844303137 0.90548829997069069 0.09941597985773909 0.14062430709600451 0.29782201349735266 0.0057347887195646772 0.057571981102228172 0.0933363512158394 0.43138787150383001 0.10619111731648447 0.68811795115470897 0.0017705666250549259 0.20681564509868625 0.0096091898158192652 0.1993551775813103 0.22997725009918216 0.46334265172481542 0.81004127860069286
decision_type=2 2 2 2 2 2 2 2 2 2 2 2 2 2 2 2 2 2 2 2 2 2 2 2 2 2 2 2 2 2 2 2 2 2 2 2 2 2 2 2 2 2 2
left_child=2 3 5 4 6 8 15 9 12 17 27 28 14 -5 26 -2 29 22 -12 -3 -10 37 30 24 -22 -16 -1 -11 31 -17 -8 41 -15 36 -21 39 -34 -9 -6 -33 -18 -4 -41
right_child=1 19 11 13 38 -7 7 21 20 10 18 -13 -14 32 25 16 40 -19 -20 34 23 -23 -24 -25 -26 -27 -28 -29 -30 -31 -32 35 33 -35 -36 -37 -38 -39 -40 42 -42 -43 -44
leaf_value=0.0029891922798664736 0.0010599232234951379 -0.00014726893540267205 -0.0010987693856986795 0.0017273288165861997 -0.0014646109129513496 0.0052823756080059171 -0.002858686028429609 -0.0010295625809893531 -0.0030644009268650124 0.0027084117047638926 0.0018026101217965343 8.5171772058871534e-05 0.0039817330440127243 0.0036784012485250972 -0.0030554969739095095 0.0007275310063643522 0.0039769795385122923 0.0027178853269102456 0.0061607846760132834 -0.0011613858946075506 -0.0011037801928137636 0.001257721263359031 0.0017605945860413132 -0.0021838601328322375 0.0026059560517027176 0.00013464976429885948 -0.00020317900759377132 -0.00041145252077314301 -0.00098223656535166744 0.0034259582290699672 -0.00017529008323180384 -0.0020334044935669273 0.0040492206625652553 0.0032365845172327638 -0.0036237759071524249 -0.0020191485268023809 0.0072990269952204982 -0.0032788928328696108 -0.0034602471615307975 -0.0040822328630906908 0.0069962273208219504 -0.0024754715082711126 -0.0022564729737078815
leaf_weight=14.564155951142313 11.240936174988745 11.590107038617132 7.5715973228216154 9.3532970696687681 8.8000378310680407 15.641697213053702 9.3291791528463417 8.0897725522518211 18.317700415849686 10.131286695599558 9.1423018276691455 11.69138044118881 14.195678770542143 11.810233965516089 8.9464607685804385 8.3680058568716067 11.3011392056942 14.178400844335554 22.150925531983376 7.6688089221715918 12.273148566484453 8.693851098418234 7.8650984913110724 11.815484970808027 9.9259493798017484 14.199402585625647 9.173048868775366 12.051025897264479 9.2005604058504087 14.702637806534765 8.4304596632719022 7.3436937332153311 10.831992313265799 8.4197155088186246 38.602199286222458 12.868515342473982 67.781636148691177 7.9264350533485404 13.703139334917067 194.13253025710583 20.568058803677559 7.6356042921543121 8.2911848425865156
leaf_count=73 55 61 40 46 47 76 48 41 96 50 44 62 71 57 47 41 54 70 107 40 63 44 40 61 50 73 46 60 49 71 43 40 52 41 209 70 322 41 73 1067 97 41 45
internal_value=0 0.00245001 -0.00210515 0.00340348 0.00197929 0.000736694 0.00259537 0.00161338 2.90726e-05 0.00234128 0.00353218 -0.0035174 0.00127562 0.00603859 0.000326848 0.0042474 0.00483943 0.000648856 0.00507233 -0.00267894 -0.00141921 -0.00110392 -0.000609833 -0.00041225 0.000633236 -0.00124336 0.00183559 0.00111961 -0.0036872 0.00258334 -0.00173157 -0.00378278 0.0064042 0.00668314 -0.0032807 -0.00388586 0.00696282 -0.00238319 -0.0028631 -0.00398022 0.00622365 -0.00199742 -0.00403026
internal_weight=0 372.731 387.788 314.87 206.673 129.053 184.17 117.989 113.411 93.2787 53.4755 258.735 61.0787 108.197 46.8831 66.1808 54.9398 39.8031 31.2932 57.8611 52.3323 24.7101 25.6247 34.0146 22.1991 23.1459 23.7372 22.1823 247.044 23.0706 17.7596 237.843 98.8436 87.0333 46.271 222.636 78.6136 16.0162 22.5032 209.767 31.8692 15.2072 202.424
internal_count=3924 1854 2070 1544 1026 656 906 588 580 462 261 1414 310 518 239 318 263 201 151 310 270 126 131 174 113 120 119 110 1352 112 91 1303 472 415 249 1222 374 82 120 1152 151 81 1112
is_linear=0
shrinkage=0.00333333


Tree=19
num_leaves=42
num_cat=0
split_feature=17 73 66 35 10 17 73 66 56 49 17 56 88 80 10 56 35 119 138 35 30 80 62 200 35 185 35 80 35 196 130 35 80 196 183 73 20 10 41 119 138
split_gain=494.257 194.65 58.6587 51.8648 40.5236 30.9929 22.4429 19.5449 18.133 16.3056 14.9411 13.4599 9.79903 9.02842 8.57471 8.55233 7.86128 7.78411 7.59736 7.54658 6.75912 6.29369 5.85555 5.70469 5.6122 5.46532 5.26075 5.09418 8.01156 5.02042 4.51749 4.50356 4.05092 2.90743 2.64052 2.3185 2.14135 1.571 1.35254 0.543786 0.339512
threshold=0.37918759882450109 0.93925377726554882 0.29308240488171583 0.33024495840072637 0.13460703194141391 0.11877277120947839 0.0095744868740439432 0.0084956753998994845 0.53200495243072521 0.36249771714210516 0.60825082659721386 0.69463330507278453 0.0065454100258648404 0.0095316660590469855 0.0041106352582573899 0.069346807897090926 0.36943712830543524 0.0049179133493453273 0.6676461696624757 0.10249732062220575 0.0094056837260723131 0.0075927537400275477 0.0071216956712305554 0.37845472591235313 0.13555409759283069 0.0085424366407096403 0.2181959003210068 0.0093620116822421568 0.10879154875874521 0.48206412394426817 0.95602959394454967 0.27210071682929998 0.17849678546190265 0.27594865542338115 0.0032391765853390102 0.96152248978614818 0.20932424068450931 0.12546952813863757 0.0096847000531852263 0.004362137522548438 0.67391344904899608
decision_type=2 2 2 2 2 2 2 2 2 2 2 2 2 2 2 2 2 2 2 2 2 2 2 2 2 2 2 2 2 2 2 2 2 2 2 2 2 2 2 2 2
left_child=1 2 8 4 6 26 7 13 25 14 20 -11 24 34 -7 32 38 -4 27 -15 -6 -5 35 -13 -9 31 -3 -17 -29 33 -18 36 -12 -16 -2 -8 -1 -23 40 -31 -10
right_child=3 5 17 21 10 9 22 12 16 11 15 23 -14 19 29 18 30 -19 -20 -21 -22 37 -24 -25 -26 -27 -28 28 -30 39 -32 -33 -34 -35 -36 -37 -38 -39 -40 -41 -42
