tree
version=v4
num_class=1
num_tree_per_iteration=1
label_index=0
max_feature_idx=209
objective=binary sigmoid:1
feature_names=P_2 D_39 B_1 B_2 R_1 S_3 D_41 B_3 D_42 D_43 D_44 B_4 D_45 B_5 R_2 D_46 D_47 D_48 D_49 B_6 B_7 B_8 D_50 D_51 B_9 R_3 D_52 P_3 B_10 D_53 S_5 B_11 S_6 D_54 R_4 S_7 B_12 S_8 D_55 D_56 B_13 R_5 D_58 S_9 B_14 D_59 D_60 D_61 B_15 S_11 D_62 D_63 D_64 D_65 B_16 B_17 B_18 B_19 D_66 B_20 D_68 S_12 R_6 S_13 B_21 D_69 B_22 D_70 D_71 D_72 S_15 B_23 D_73 P_4 D_74 D_75 D_76 B_24 R_7 D_77 B_25 B_26 D_78 D_79 R_8 R_9 S_16 D_80 R_10 R_11 B_27 D_81 D_82 S_17 R_12 B_28 R_13 D_83 R_14 R_15 D_84 R_16 B_29 B_30 S_18 D_86 D_87 R_17 R_18 D_88 B_31 S_19 R_19 B_32 S_20 R_20 R_21 B_33 D_89 R_22 R_23 D_91 D_92 D_93 D_94 R_24 R_25 D_96 S_22 S_23 S_24 S_25 S_26 D_102 D_103 D_104 D_105 D_106 D_107 B_36 B_37 R_26 R_27 B_38 D_108 D_109 D_110 D_111 B_39 D_112 B_40 S_27 D_113 D_114 D_115 D_116 D_117 D_118 D_119 D_120 D_121 D_122 D_123 D_124 D_125 D_126 D_127 D_128 D_129 B_41 B_42 D_130 D_131 D_132 D_133 R_28 D_134 D_135 D_136 D_137 D_138 D_139 D_140 D_141 D_142 D_143 D_144 D_145 B_30_t_mean B_30_t_count B_38_t_mean B_38_t_count D_114_t_mean D_114_t_count D_116_t_mean D_116_t_count D_117_t_mean D_117_t_count D_120_t_mean D_120_t_count D_126_t_mean D_126_t_count D_63_t_mean D_63_t_count D_64_t_mean D_64_t_count D_66_t_mean D_66_t_count D_68_t_mean D_68_t_count
feature_infos=[-0.26575687527656555:1.009956955909729] [2.421387307549594e-06:5.3313603401184082] [-0.024332312867045403:1.3234111070632935] [2.4175449652830139e-05:1.0099900960922241] [1.3008763062316575e-06:2.255852222442627] [-0.16307240724563599:1.8174711465835571] [1.1270562936260831e-06:3.9402220249176025] [4.3361333155189641e-06:1.2634150981903076] [0.00076402089325711131:2.6851522922515869] [3.3676446037134156e-05:2.9265041351318359] [2.353278659938951e-06:1.8846297264099121] [1.7488104276708327e-05:2.4032225608825684] [1.9086037355009466e-06:1.5479367971420288] [1.4005078128320747e-06:16.135066986083984] [1.0782570143419434e-06:1.0099729299545288] [-1.8857510089874268:2.5301790237426758] [-0.026619922369718552:1.2778600454330444] [-0.0092211142182350159:1.6711122989654541] [0.00098430854268372059:1.3951627016067505] [-0.003223673440515995:20.803367614746094] [-0.015888111665844917:1.2524290084838867] [4.4504931793198921e-06:1.0097918510437012] [-0.22558566927909851:5.4941191673278809] [1.8956023950522649e-06:2.0082287788391113] [3.4348847748333355e-06:3.638730525970459] [1.1668394108710345e-06:3.0094633102416992] [-0.0048779407516121864:1.0099990367889404] [-0.53314864635467529:1.6271718740463257] [-0.0028809262439608574:639.93951416015625] [2.4778068109299056e-05:2.520132303237915] [1.4600733493352891e-06:7.9477543830871582] [3.7951622289256193e-06:1.4668954610824585] [1.0822227523021866e-06:1.0099989175796509] [-0.0019090689020231366:1.009996771812439] [7.297395541172591e-07:1.00996994972229] [-0.13668103516101837:1.5801913738250732] [6.4560640566924121e-06:11.089571952819824] [2.8684853532467969e-06:1.2249835729598999] [3.793136784224771e-05:1.8036304712295532] [-0.011897692456841469:2.1677160263061523] [1.5833072666282533e-06:9.6702184677124023] [6.5335387944287504e-07:8.502842903137207] [5.3879471124673728e-06:1.2554349899291992] [0.00029694254044443369:2.8371627330780029] [-0.041264116764068604:8.5522899627685547] [-0.082131668925285339:1.981742262840271] [2.2795163658884121e-06:1.0099868774414062] [-0.0091707883402705193:8.5587539672851562] [-0.0100107342004776:10.107585906982422] [-0.19961151480674744:1.969182014465332] [-0.0008591505466029048:4.3401188850402832] -1:2:1:3:4:5 -1:1:4:3:2:5 [3.3554463243490318e-06:5.1319499015808105] [9.9926955954288132e-07:1.0099989175796509] [1.4563763215846848e-05:1.0099829435348511] [0.0001677956897765398:1.0099958181381226] [2.0544109702314017e-06:1.0099982023239136] -1:1:2 [3.9690776247880422e-06:1.0099713802337646] -1:1:4:3:5:7:2:6 [-0.36102160811424255:3.9564957618713379] [5.4920286629567272e-07:14.447647094726562] [9.4254509974689427e-08:1.0099930763244629] [8.6991047965057078e-07:74.421134948730469] [8.2969137338295695e-07:146.59089660644531] [1.0052197012555553e-06:2.0036995410919189] [5.1260244617878925e-06:2.5030815601348877] [9.2858630523551255e-05:27.586669921875] [8.7863071485116961e-07:3.0080115795135498] [-0.29780769348144531:2.0082433223724365] [2.385407242400106e-06:1.3801372051239014] [0.00015467603225260973:3.853646993637085] [3.9051724343153182e-06:1.1987053155899048] [2.858425659724162e-06:2.359673023223877] [4.5380329538602382e-06:2.3376061916351318] [5.1656748837558553e-05:1.8995871543884277] [1.3259168554213829e-06:6.2419347763061523] [7.6984116503808764e-07:46.467708587646484] [4.7698755224701017e-05:4.0031170845031738] [-0.065946273505687714:2.4843108654022217] [6.1360589143077959e-07:348.354248046875] [4.9880550250236411e-06:3.5011372566223145] [6.6920495100930566e-07:2.0049674510955811] [3.3655614970484748e-06:7.0091543197631836] [2.391860653006006e-05:1.5046402215957642] [9.5615575901319971e-07:42.882026672363281] [3.0051508019823814e-06:2.6046943664550781] [8.9876033371183439e-07:4.0045866966247559] [2.9821987936884398e-06:2.5005509853363037] [2.076030568787246e-06:0.010508063249289989] [1.2914379965422995e-07:8.0083446502685547] [1.4142268810246605e-05:2.006425142288208] [4.6497202532691517e-08:4.0476236343383789] [-0.090372197329998016:1.0099987983703613] [5.3936721087666228e-05:4.0027308464050293] [3.900915146459738e-07:0.16135740280151367] [4.6028731048863847e-07:9.0073375701904297] [3.2780641845420178e-07:194.49063110351562] [9.4613932333231787e-07:1.0099315643310547] [4.060559604113223e-06:8.0065040588378906] [5.2152955731799011e-07:4.5031266212463379] [1.7699851184715953e-07:2.5810360908508301] -1:1:2:3 [2.8376257432682905e-06:1.0099385976791382] [1.1351246484991862e-06:1.0099996328353882] none [1.2055035192304331e-08:0.31698143482208252] [7.9052341561691719e-07:0.009999515488743782] none none [1.5785871028128895e-06:0.12893213331699371] [9.3947329560251092e-07:1.0096309185028076] [1.656846677633439e-07:1.0098954439163208] [3.5039911381318234e-06:1.0099388360977173] [3.0656851777166594e-06:11.009333610534668] [1.124403070207336e-06:1.0097790956497192] [8.7584303400944918e-06:1.0099989175796509] [1.3413488204605528e-06:0.67462724447250366] [9.1263603962943307e-07:1.0094010829925537] [3.8726770981156733e-06:1.0071895122528076] [1.0865149988603662e-06:2.0081589221954346] [3.6986608620281913e-07:2.0088987350463867] [7.3738397077249829e-07:1.0098602771759033] [2.586670291293558e-07:1.0099880695343018] [8.8524296870673425e-07:1.0098017454147339] [1.3401933074419503e-06:1.0099419355392456] [1.1440444040999864e-06:1.009987473487854] [-73.354606628417969:1.0293631553649902] [-5.0185961723327637:10.204194068908691] [-81.310813903808594:1.0373209714889526] [-2.4523804187774658:1.9316641092300415] [5.6113972277671564e-06:33.566551208496094] [2.1968560304230778e-06:1.089565634727478] [3.9481756175518967e-06:1.0099918842315674] [4.6566410674131475e-06:1.0976026058197021] [-0.013773337006568909:2.3089010715484619] [4.5233704440761358e-05:6.7829012870788574] [7.2082519864125061e-07:2.3420779705047607] [7.2147389573729015e-07:0.51184326410293579] [-0.038643676787614822:1.3277385234832764] [2.2132831873022951e-05:3.2514626979827881] [-0.0097074015066027641:1.0099949836730957] -1:1:2:3:4:5:7:6 none [2.7874200441146968e-06:1.0098358392715454] none none none [2.9517334041884169e-05:1.0099997520446777] [1.2365485417831223e-05:8.1781015396118164] [1.642403844925866e-06:4.5788183212280273] [7.9020253451744793e-07:2.0089056491851807] -1:1:2:3 [8.2599426605156623e-06:1.4374611377716064] -1:1:2 -1:2:6:1:4:3:7:5:8 [3.3438707305322168e-06:1.408516526222229] [4.2269425648555625e-06:1.4193823337554932] -1:1:2:3 [-0.031905565410852432:1.2767821550369263] [0.00011198786523891613:1.5812026262283325] [4.8637360805514618e-08:2.0083878040313721] [-0.045409109443426132:1.6872091293334961] [1.0255977258566418e-06:3.0070858001708984] -1:1:3:2:4 [3.9857100091467146e-06:1.0099629163742065] [9.8425925898482092e-07:1.0109506845474243] [4.6933482735767029e-06:1.0099868774414062] [1.0364697118347976e-06:3.009695291519165] [0.00071016047149896622:2.8853929042816162] [1.4492990203507361e-06:1.0112521648406982] [2.9900078857281187e-07:1.3093833923339844] [0.0010098443599417806:3.903317928314209] [1.2934631286043441e-06:1.5098687410354614] [4.5474012040358502e-06:1.0096790790557861] [-0.0071519268676638603:1.0098015069961548] [7.3481814979459159e-06:1.0085017681121826] [8.1038786447606981e-05:1.258711576461792] [6.086501798563404e-06:1.0066344738006592] [9.3348506197798997e-05:1.5020673274993896] [5.9342670510886819e-07:1.0099974870681763] [1.142754513239197e-06:1.0095466375350952] [1.6386496781706228e-07:1.1623564958572388] [-0.0051443804986774921:1.4283170700073242] [7.4886365553084033e-08:1.0099900960922241] [8.3932002326037036e-07:1.3426934480667114] [7.9306789757538354e-07:4.2736754417419434] [0:1] [0:1] [0:1] [0:1] [0:0.75] [0:1] [0:1] [0:1] [0:1] [0:0.66666666666666663] [0:1] [0:1] [0:1] [0:1] [0:1] [0:0.92307692307692313] [0:1] [0:1] [0:0.5] [0:1] [0:1] [0:1]
tree_sizes=4530 4684 4031 4793 4466 4993 5105 4254 4443 4460 4805 3816 4479 5013 4454 4471 4354 5031 4897 4893 4553 5257 5251 4612 5478 4893 4810 4883 5053 5123 5119 4714 4368 4898 4362 4213 4142 4829 4247 4698 4479 4712 4924 4714 4586 4504 4119 4862 4112 4223 4630 5059 4059 5023 4478 5002 4698 4805 5057 4464 4962 5125 4415 4562 4631 4238 4829 4690 4707 5079 4933 5003 4988 5198 4970 4506 5429 5017 5099

Tree=0
num_leaves=42
num_cat=0
split_feature=24 12 5 47 79 5 12 47 13 5 24 47 7 47 12 209 47 7 186 6 145 196 5 83 3 47 79 3 5 7 12 90 15 201 87 5 100 47 45 87 134
split_gain=592.321 205.211 92.9898 88.562 59.518 42.1825 40.526 38.0709 27.4058 22.721 22.2443 21.6432 18.9961 17.8121 15.0311 14.4209 12.957 12.5006 11.995 11.6628 11.0762 9.45652 8.77598 8.28903 7.70718 7.56717 7.5334 6.93715 6.57754 5.36455 6.83285 4.95895 4.62637 4.02242 3.5979 3.18591 2.46317 3.15922 1.3795 0.382473 0.287071
threshold=0.26727603375911718 0.03553444333374501 0.14281254261732104 0.4556508213281632 0.21930278837680819 0.22742154449224475 0.10029970481991769 0.63332271575927745 0.040996680036187179 0.16984526813030246 0.61759838461875927 0.50099748373031627 0.035079462453722961 0.84255313873291027 0.185196727514267 0.17849483273015418 0.18503920733928683 0.55042853951454174 0.055368078872561462 0.086363792419433608 0.00760928774252534 0.22990519032023757 0.11051854491233827 0.50102961063385021 0.81634163856506359 0.68973931670188915 0.01996986381709576 0.81303036212921154 0.17130465805530551 0.16291205585002902 0.096975542604923262 0.00205124996136874 0.47873379290103918 0.099056945831680079 0.0052940996829420337 0.3555245995521546 0.0011716327862814071 0.3932610303163529 0.56675377488136303 0.40764597058296209 0.23738178377971056
decision_type=2 2 2 2 2 2 2 2 2 2 2 2 2 2 2 2 2 2 2 2 2 2 2 2 2 2 2 2 2 2 2 2 2 2 2 2 2 2 2 2 2
left_child=1 4 11 12 7 13 8 9 18 34 17 -2 35 23 -15 -7 -11 25 24 32 31 -9 -13 29 36 -8 -23 -16 -12 30 -5 -18 40 -33 -1 38 -4 -38 -3 -32 -14
right_child=2 3 6 5 -6 15 10 21 -10 16 28 22 19 14 27 -17 20 -19 -20 -21 -22 26 -24 -25 -26 -27 -28 -29 -30 -31 39 33 -34 -35 -36 -37 37 -39 -40 -41 -42
leaf_value=-0.41646843506189435 -0.42027861798270605 -0.42195450116150102 -0.41071912576082359 -0.41741675099483899 -0.42091906467660095 -0.40933450674128119 -0.41816327334852865 -0.41498203224553559 -0.41494009592154563 -0.4176149726126806 -0.41349015369894027 -0.41758020899613746 -0.42153843014670145 -0.41203820765117988 -0.41539918207380322 -0.41576558033180133 -0.41512620853891591 -0.41121897301634414 -0.41292020727749629 -0.41491724655396039 -0.41659223006829837 -0.41264100797787978 -0.41250441670317628 -0.41581633190207079 -0.41170373540640365 -0.41414341454263531 -0.40752267404275866 -0.4202036270836324 -0.40752353281793929 -0.41716583407285396 -0.4216009134360203 -0.40867450972051267 -0.41706769795690818 -0.41306987884931784 -0.41970632434316996 -0.41903214474114481 -0.41075924367144245 -0.40518696498904694 -0.41915344709824642 -0.41921626383611299 -0.41918093392394873
leaf_weight=8.1780816614627856 14.993149712681769 267.73481629788876 10.51467642188072 10.125243961811064 19.666339233517647 10.125243961811067 14.214284792542459 7.7886492013931266 9.9305277317762357 11.488257572054861 7.9833654314279583 7.9833654314279583 11.29354134202004 9.3463790416717547 7.7886492013931301 12.65655495226383 7.9833654314279547 10.709392651915548 9.5410952717065793 9.3463790416717512 10.51467642188072 13.824852332472803 14.019568562507628 7.7886492013931266 10.904108881950377 13.240703642368315 17.719176933169365 8.7622303515672666 13.045987412333487 9.5410952717065793 33.491191565990448 9.5410952717065829 7.7886492013931266 14.993149712681769 14.409001022577284 11.098825111985205 9.151662811636923 54.71526063978672 7.7886492013931266 7.9833654314279547 9.151662811636923
leaf_count=42 77 1375 54 52 101 52 73 40 51 59 41 41 58 48 40 65 41 55 49 48 54 71 72 40 56 68 91 45 67 49 172 49 40 77 74 57 47 281 40 41 47
internal_value=-0.41682 -0.418996 -0.410891 -0.420343 -0.414636 -0.417297 -0.409586 -0.413523 -0.408042 -0.415265 -0.412517 -0.416749 -0.421439 -0.418506 -0.415682 -0.412534 -0.413869 -0.414574 -0.407373 -0.418586 -0.412879 -0.410349 -0.414256 -0.419569 -0.406856 -0.416175 -0.409383 -0.418033 -0.409303 -0.420064 -0.420567 -0.41176 -0.419846 -0.410875 -0.418601 -0.421798 -0.406298 -0.405777 -0.421893 -0.421273 -0.420788
internal_weight=0 577.918 200.947 441.811 136.107 117.609 163.951 116.44 104.757 77.1076 59.1937 36.9961 324.203 94.8268 25.8973 22.7818 54.5205 38.1644 94.8268 37.5802 43.0323 39.3327 22.0029 68.9295 85.2857 27.455 31.544 16.5509 21.0294 61.1409 51.5998 32.5176 28.2339 24.5342 22.5871 286.622 74.3816 63.8669 275.523 41.4746 20.4452
internal_count=4000 2968 1032 2269 699 604 842 598 538 396 304 190 1665 487 133 117 280 196 487 193 221 202 113 354 438 141 162 85 108 314 265 167 145 126 116 1472 382 328 1415 213 105
is_linear=0
shrinkage=0.408333


Tree=1
num_leaves=42
num_cat=0
split_feature=20 21 54 194 26 37 26 117 27 26 20 204 37 21 174 2 64 118 27 20 63 45 27 37 204 117 204 117 49 204 188 120 194 2 101 27 154 174 204 34 174
split_gain=526.927 199.567 87.9972 83.0993 64.6243 29.9809 27.0329 24.5273 21.9173 21.6724 18.246 15.9358 15.386 13.4903 12.7462 12.5178 12.3533 11.4396 11.3969 10.951 9.68139 11.5709 8.89799 8.22011 11.3209 9.10262 8.30394 7.75501 7.67722 5.74493 5.1685 4.93851 4.89767 3.25413 2.77907 2.67381 2.49193 1.96323 1.71283 0.737746 0.420613
threshold=0.068534333258867278 0.24281329149380329 0.75696411728858959 0.36992481203007527 0.16909448057413104 0.70513975620269786 0.080067627131938948 0.0089232483878731745 0.61509814858436596 0.17966343462467196 0.2551496177911759 0.173397874660665 0.3315452933311463 0.24281329149380329 0.0044311999808996924 0.013510349206626417 0.0045589853543788203 0.0012646243558265271 0.67865765094757091 0.032049179077148444 0.28500229120254522 0.33496183156967169 0.71491438150405895 0.60292136669158947 0.32008314198508242 0.0079055358655750769 0.16196785680221285 1.0001122355461123 0.32783249020576483 0.31037969387399328 0.22921409899654274 0.0054926413577049979 0.22837888299053352 0.037354020401835449 0.5017567276954652 0.52113512158393871 0.15397531539201739 0.0060369239654392013 0.17143936124298664 0.0049497873988002547 0.0036559104919433598
decision_type=2 2 2 2 2 2 2 2 2 2 2 2 2 2 2 2 2 2 2 2 2 2 2 2 2 2 2 2 2 2 2 2 2 2 2 2 2 2 2 2 2
left_child=3 2 20 6 5 7 13 18 17 14 11 -4 15 40 -5 -6 -14 -9 -3 32 35 36 -10 24 25 26 31 29 39 37 -20 -12 -15 -21 -29 -2 -22 -8 -19 -16 -1
right_child=1 4 10 9 12 -7 27 8 22 -11 23 -13 16 19 28 -17 -18 38 30 33 21 -23 -24 -25 -26 -27 -28 34 -30 -31 -32 -33 -34 -35 -36 -37 -38 -39 -40 -41 -42
leaf_value=-0.001324239339703693 -0.0011215278954958756 0.0059981044237482828 -0.0018454532830210852 -0.00066525137010277607 0.00022567021109652576 0.00034175656643093056 -0.0027973744808107281 0.0010116177283579358 -0.00025565718044757502 -0.0022130870111968454 0.00069060454864069368 0.0017026133822986792 -0.0019740359132730265 7.7957280682968444e-05 0.0021201429273433993 0.0035744593980799196 0.0012676775280874085 0.002433563418273289 0.0010978608483270527 0.002395205829441205 -0.00051650647656380797 0.0010471682759406967 0.0026337385759225341 0.00035835048815340866 0.0003816969025575272 0.00076844648890889481 0.0054061965395592812 -0.0031587271401739125 0.00070610167770651449 0.00015453111322002869 0.0041887895246209613 0.0034614849488181576 -0.0023534604281428896 0.00020490041277227718 -0.0012035003272754133 -0.0028326724582351638 -0.0023694901155965863 -0.00098591077972115006 0.0047963538831685363 0.0045414965334219619 -0.002732319880686554
leaf_weight=8.5316155999898928 10.877575471997259 63.244400963187218 13.627408236265184 7.7937659025192252 12.278003871440889 12.492813840508459 13.578152105212217 8.0226847976446134 12.869163930416109 7.9653116911649695 8.2043061852455192 14.0260883718729 13.257360249757768 9.3147058337926882 7.823258236050612 15.079268425703047 12.296541646122931 9.0049688220024091 7.8296862244606045 7.7970922440290442 8.1664848178625125 12.457799538969992 11.130781203508375 11.109461054205893 10.355068683624266 8.0124489814043027 14.086242929100989 231.85503433644772 8.7789813727140409 8.358521416783331 8.4330949038267118 9.1829348951578122 9.3185281008481962 8.1963133811950666 7.9504481106996527 41.312928691506386 14.367623582482336 9.121878966689108 46.035858109593391 8.605007737874983 15.885253161191939
leaf_count=44 56 322 70 40 63 64 70 41 66 41 42 72 68 48 40 77 63 46 40 40 42 64 57 57 53 41 72 1197 45 43 43 47 48 42 41 213 74 47 235 44 82
internal_value=0 0.00191188 -9.98432e-05 -0.00219534 0.00342416 0.00413606 -0.00261102 0.0044132 0.00334705 0.00111787 0.00163655 -5.23773e-05 0.000952017 -0.00103229 0.00200238 0.00218929 -0.000435326 0.00410857 0.00546991 -5.44994e-06 -0.00186167 -0.000781096 0.0011839 0.00238014 0.00279958 0.00338469 0.00396501 -0.00294507 0.00281546 -0.00160147 0.00298388 0.00236016 -0.00124825 0.00142027 -0.0031044 -0.00253059 -0.00179482 -0.00220823 0.00450867 0.00374368 -0.00237783
internal_weight=0 407.761 175.786 370.874 231.975 179.063 329.908 166.571 87.0635 40.9663 88.604 27.6535 52.9112 59.0435 33.001 27.3573 25.5539 63.0635 79.5072 34.6266 87.1824 34.9919 23.9999 60.9505 49.841 39.4859 31.4735 270.864 25.2072 31.0586 16.2628 17.3872 18.6332 15.9934 239.805 52.1905 22.5341 22.7 55.0408 16.4283 24.4169
internal_count=4000 2088 903 1912 1185 914 1702 850 445 210 454 142 271 304 169 140 131 322 405 178 449 180 123 312 255 202 161 1398 129 160 83 89 96 82 1238 269 116 117 281 84 126
is_linear=0
shrinkage=0.0025


Tree=2
num_leaves=36
num_cat=0
split_feature=0 0 0 36 35 24 200 24 133 190 50 140 186 50 35 50 0 133 28 37 154 138 41 38 125 50 86 154 190 6 40 50 24 24 37
split_gain=954.986 111.895 93.525 36.8893 36.5844 25.1305 35.0525 23.0418 22.8781 16.5427 14.0713 13.8727 11.3964 10.4838 10.3882 9.92217 8.93474 10.2045 8.74914 8.74032 8.54573 8.04004 7.37716 6.85092 6.23571 5.85149 5.54414 5.23968 5.54768 4.43831 3.42725 1.0852 0.70482 0.662738 0.620721
threshold=0.58808869123458873 0.6572665572166444 0.46837694942951208 0.039920041337609298 0.10063976794481279 0.44238628447055822 0.43095238095238103 0.26727603375911718 0.035149827599525459 0.48492424242424248 0.15380880981683734 0.018932589329779152 0.0010295592946931722 0.050731303170323379 0.21615314483642581 0.074005652219057097 0.70781609416008007 0.18095967173576358 0.03220168128609658 0.32775922119617468 0.28737239539623266 0.0047468664124608049 0.0040151262655854234 0.30751897394657141 0.0040311694610863933 0.038416111841797836 0.0050391741096973428 0.45593822002410894 0.28409549490057973 0.12390642985701562 0.019322172738611702 0.045066483318805702 0.29491122066974645 0.078031525015831008 0.3258675485849381
decision_type=2 2 2 2 2 2 2 2 2 2 2 2 2 2 2 2 2 2 2 2 2 2 2 2 2 2 2 2 2 2 2 2 2 2 2
left_child=2 5 4 8 -1 6 15 20 11 16 13 -4 -9 -5 24 22 17 31 -11 -8 25 -13 -2 33 -10 34 -23 28 -14 32 -27 -3 -18 -17 -6
right_child=1 9 3 10 7 -7 19 12 14 18 -12 21 27 -15 -16 23 29 -19 -20 -21 -22 26 -24 -25 -26 30 -28 -29 -30 -31 -32 -33 -34 -35 -36
leaf_value=0.00048710745258595208 -0.0021177472261982005 -0.0015163216812267887 -0.0010137166729982747 -0.00097316609687663272 0.0071324011812429599 0.0039360693054180888 0.0043753679042078473 0.0030418168241739345 0.00066342047889418241 0.001752132697940852 -0.0028005515089816599 0.0048447760503438544 0.0039774105336526522 0.0032558654443575735 0.0069218416753168786 -0.003963980905516442 -0.0040657695997661485 -1.0766326856206255e-05 -0.0022174388545919445 0.00038483086234222103 0.0019226507403722437 -0.0003820744328389275 0.0013131735240500802 -0.00018258221790913335 0.0042913864880663021 0.0016402387698865883 0.0028616021526977403 0.0039563971991045648 0.0086925978633533747 -0.0017410713233657234 0.0045925357178127225 -0.0035858600475608664 -0.0021463378121656276 -0.0018420522511087764 0.0037173078729897486
leaf_weight=11.701570749282835 8.9550565183162707 7.7873796522617331 13.030926316976545 10.932887360453607 20.291050821542743 14.529804319143294 12.96688348054886 8.6950710564851743 8.0211973190307635 7.8242127597332027 13.753282174468039 10.811356455087664 7.892959162592887 10.127086609601973 18.711949840188026 19.1437461078167 300.55301252007484 14.762519866228102 12.442805409431456 9.9613330811262113 12.678242728114126 9.8066772222518939 14.242445960640906 8.5394604504108411 15.709750235080717 10.15128928422928 9.4239539355039579 8.6869665086269361 68.546407893300056 13.554596319794653 13.331053361296652 25.339444264769554 9.1234028637409192 7.7789888978004447 8.623920336365698
leaf_count=60 46 40 67 56 103 74 66 44 41 40 71 55 40 52 95 99 1558 76 64 51 65 50 73 44 80 52 48 44 346 70 68 131 47 40 44
internal_value=0 -0.00281797 0.00455716 0.00232001 0.00608993 0.000300953 -0.000425101 0.00649135 0.00343965 -0.00358155 -0.000467754 0.0016642 0.00759116 0.00116644 0.00508547 -0.00174123 -0.0037364 -0.00226616 -0.000665217 0.00281163 0.00472665 0.00281655 -7.42362e-05 -0.00276951 0.00321201 0.00530948 0.0013273 0.00797534 0.00831955 -0.00393895 0.00354519 -0.0032134 -0.00402336 -0.00352066 0.00642024
internal_weight=0 487.505 290.928 120.329 170.599 96.1177 81.5879 158.897 85.5158 391.387 34.8133 43.0729 93.8214 21.06 42.4429 58.6597 371.12 47.8893 20.267 22.9282 65.0756 30.042 23.1975 35.4622 23.7309 52.3973 19.2306 85.1263 76.4394 323.231 23.4823 33.1268 309.676 26.9227 28.915
internal_count=4000 2519 1481 615 866 493 419 806 436 2026 179 220 474 108 216 302 1922 247 104 117 332 153 119 183 121 267 98 430 386 1675 120 171 1605 139 147
is_linear=0
shrinkage=0.00323077


Tree=3
num_leaves=43
num_cat=0
split_feature=24 73 71 12 50 129 12 71 25 20 2 158 7 49 25 12 23 50 57 166 25 23 12 25 34 44 25 175 203 71 129 57 203 25 48 164 92 203 24 50 49 25
split_gain=556.812 188.164 88.5313 82.1014 65.6045 39.2789 32.3109 31.5859 27.8405 20.5493 20.4162 20.0621 17.6336 15.8619 12.5469 12.3344 11.9043 11.8878 10.499 10.3034 9.63469 10.6883 9.22404 9.01406 8.61527 8.54915 7.87216 7.76681 7.55498 6.91201 7.47738 6.05806 5.95788 4.38368 2.79498 3.46954 1.70051 1.68816 1.49359 1.08043 0.943205 0.298003
threshold=0.2354255020618439 0.89603614807128917 0.14353529363870624 0.10029970481991769 0.22014476358890536 0.14067438244819644 0.18847319483757022 0.12555533647537234 0.30713786184787756 0.068534333258867278 0.028273757547140125 0.25080911815166479 0.035079462453722961 0.36854824423789984 0.20791546255350116 0.08995459228754045 0.3365356326103211 0.035891894251108176 0.0094824992120265978 0.00686015677638352 0.0050089675933122644 0.0083422739990055578 0.096975542604923262 0.0098564671352505701 0.0041057006455957898 0.0098045095801353472 0.20525484532117846 0.00606483779847622 0.74701012119096943 0.33793069422245031 0.13467573374509814 0.0024406828451901679 0.74567826703951923 0.10917621105909349 0.0084921563975512999 0.0055308132432401189 0.50907257199287426 0.16951349089047088 0.39087431132793432 0.03061515744775534 0.36492095887660986 0.10027823969721796
decision_type=2 2 2 2 2 2 2 2 2 2 2 2 2 2 2 2 2 2 2 2 2 2 2 2 2 2 2 2 2 2 2 2 2 2 2 2 2 2 2 2 2 2
left_child=1 2 12 9 8 7 11 38 13 26 41 18 14 17 36 -16 31 25 -4 24 -12 -22 -14 29 -19 -3 -2 -10 -25 -9 -31 -11 -15 -33 -24 -36 39 -17 -5 -1 -7 -8
right_child=3 4 6 5 -6 40 10 23 27 16 20 -13 22 32 15 37 -18 19 -20 -21 21 -23 34 28 -26 -27 -28 -29 -30 30 -32 33 -34 -35 35 -37 -38 -39 -40 -41 -42 -43
leaf_value=-0.001947756210835587 -4.3015859820524682e-05 0.0049569523846083085 0.0055996974428616526 -0.0028507864173639916 -0.0027949577104894735 0.0055934149363860743 -0.0029923625101318887 -0.0010124719793003869 0.0058032914115201577 0.0029830414695153394 -0.0015511488968880671 -0.00042427313336385844 0.0011813116912292958 0.00090722190286283153 0.0012990466936724804 -0.0010400013023388257 0.0016550983600259568 3.9635132383708775e-05 0.0012989407399180395 -0.00074879974538121343 0.0027596542793484461 -0.0007190783004775421 -0.0026160913178897953 0.0011565632243129287 0.0032312609647347419 0.0011297367064767023 0.0033812642157190816 0.0021300547289081601 0.0046576047356835419 0.0032736752594900846 0.00022609810087114666 0.004676763536683907 -0.0016872187533650005 0.0067346821502276711 -0.0018756534572833491 0.00040115005369743568 -0.0015669048330503805 -0.0030261214223659006 -0.00096770560503848407 -0.0033641394255758033 0.0027524395362185129 -0.001543887274647115
leaf_weight=13.537973403930662 8.195822402834894 12.463894665241243 9.4541035592556053 11.007180705666544 20.035362273454666 10.890628486871721 18.480287879705433 9.9415712505578977 15.4030808955431 12.325855836272238 10.498328909277914 11.902443096041678 8.3781141042709333 10.165274515748026 8.1453662514686602 8.0869367718696612 7.9061658680438986 9.3997557610273379 8.6420887708663923 12.51892603933811 12.897638007998468 9.6924712955951673 13.316141873598101 10.618240192532541 14.950620800256727 7.8883919864892951 9.2711113393306714 9.8644641637802106 8.4987088590860349 7.9029258638620403 14.343164458870886 42.281322732567787 11.32411929965019 47.588240087032318 8.3059422820806521 7.7583817988634101 9.4101821929216367 10.558143332600592 7.7638185620307913 258.57529039680958 8.7041603326797468 9.2511415928602201
leaf_count=70 42 63 48 57 104 55 96 51 78 62 54 61 43 52 42 42 40 48 44 64 66 50 69 54 76 40 47 50 43 40 73 212 58 238 43 40 49 55 40 1349 44 48
internal_value=0 -0.00144982 -0.00227065 0.00355963 0.00143203 0.00155506 7.24698e-05 0.000568667 0.0022839 0.00492294 -0.00104008 0.00225211 -0.00288243 0.00143446 -0.00309386 -0.00122657 0.00535394 0.00214821 0.0038795 0.00114105 0.000379533 0.00132998 -0.00108717 0.00164182 0.00209576 0.00370738 0.00193517 0.00463068 0.00300673 0.000702698 0.00148949 0.00560283 -0.000487192 0.00588938 -0.00176811 -0.000853369 -0.00326165 -0.0023489 -0.00224012 -0.0033084 0.00470324 -0.00264552
internal_weight=0 560.905 436.891 217.239 124.014 89.6704 90.8185 70.0756 103.979 127.569 60.8199 29.9986 346.072 78.711 308.314 26.7904 110.102 57.2216 18.0962 36.8693 33.0884 22.5901 37.7586 51.3046 24.3504 20.3523 17.4669 25.2675 19.1169 32.1877 22.2461 102.195 21.4894 89.8696 29.3805 16.0643 281.523 18.6451 18.771 272.113 19.5948 27.7314
internal_count=4000 2902 2269 1098 633 457 467 358 529 641 314 153 1802 401 1607 139 552 291 92 188 170 116 195 261 124 103 89 128 97 164 113 512 110 450 152 83 1468 97 97 1419 99 144
is_linear=0
shrinkage=0.00266667


Tree=4
num_leaves=40
num_cat=0
split_feature=10 12 12 57 25 129 10 19 190 202 37 154 11 37 19 171 11 205 149 37 91 205 161 94 129 142 142 101 150 25 203 25 48 12 149 12 203 202 10
split_gain=598.44 191.25 99.2302 86.2127 54.8515 34.8501 32.7441 21.3458 20.7974 16.77 15.4186 18.672 14.0837 13.8567 13.3052 12.3461 12.2068 12.015 11.7371 9.98614 9.7415 9.11507 8.19476 6.93156 6.44785 7.75 6.24634 5.42653 5.22548 5.10795 5.84224 5.03434 3.04326 2.8949 2.8164 2.43653 1.76825 1.39012 0.441262
threshold=0.12735304236412051 0.040203483775258071 0.10029970481991769 0.086084969341754927 0.30619053542613989 0.14067438244819644 0.0094211744144558924 0.038200354203581817 0.30274008557807935 0.28365449990585972 0.70088523626327526 0.41472376883029943 0.15687996149063113 0.32093505561351782 0.012492100708186628 0.0088242702186107653 0.11165824159979822 0.22338252378755516 1.001447916030884 0.32392805814743048 0.0071633725892752418 0.46807158099480867 0.43825820088386541 1.0058121085166933 0.13512583076953891 1.0030055642127993 1.0031986236572268 0.0069537004455924043 0.48036246001720434 0.20575594902038577 0.16794981129994821 0.0095648542046546953 0.0098372744396328943 0.17170333117246631 0.015137084759771826 0.30268457531929022 0.74567826703951923 0.28388581362218884 0.25403328239917761
decision_type=2 2 2 2 2 2 2 2 2 2 2 2 2 2 2 2 2 2 2 2 2 2 2 2 2 2 2 2 2 2 2 2 2 2 2 2 2 2 2
left_child=1 4 10 12 6 8 7 -1 17 14 11 24 29 15 -5 -9 -11 -4 -14 23 -6 -18 31 -8 25 -2 -21 -16 32 34 -31 -10 -19 -20 -3 -7 -15 -35 -27
right_child=2 3 5 9 20 35 19 13 22 16 -12 -13 18 36 27 -17 21 28 33 26 -22 -23 -24 -25 -26 38 -28 -29 -30 30 -32 -33 -34 37 -36 -37 -38 -39 -40
leaf_value=0.0038569675969182399 0.0082750181648345682 -0.0029953978844651022 0.0023157420368219678 0.0027020283516998021 0.0074561463485457117 0.0038270627092373598 0.0022241023773609207 -0.0021776423057946622 0.0023652943978973479 -0.00079619807414113791 0.0022052697912084821 0.0028507426962444205 0.0012032772889379519 -0.0020226344269209046 -0.0038995321386092146 0.0029196326861767631 0.0064202878460730139 -0.0041287968783346157 -0.00099161639632494125 -0.0015164559082392253 0.0018672648032082391 0.00091647303233847544 0.00038097998619411876 0.0068075138023128302 0.0097541228253040443 0.002250949424124482 0.0027080836240043911 -0.00013172707501224248 0.00054384968685748322 0.00022588956009257806 -0.0037760886817049355 0.0063118030597316341 -0.00088881928181591295 -0.004585126715524448 -0.0049966441056847836 0.0085935151527172723 -0.0044248158047171943 -0.0017944934947983788 0.0048014541504932257
leaf_weight=8.9432998299598676 23.233384341001511 22.844208538532257 11.712957993149756 8.0917770415544492 22.436435684561733 8.5508743524551409 13.870761439204218 14.970013529062273 15.148005098104479 9.87421762943268 9.2705813497304899 12.161691576242445 11.06099623441696 13.015006870031355 16.105490580201153 11.173811644315718 11.260441690683367 13.296703398227697 8.5647121071815473 8.9677051603794116 8.1417907774448377 8.4569514542818052 12.168863043189047 10.507159411907194 61.488023638725281 8.1466226875782031 9.0633029639720899 9.1125421822071058 7.8126739710569373 7.7158862054348019 17.618975192308426 10.700626313686369 8.3421449512243253 17.486233532428745 256.59901776909828 9.7512870877981168 22.243019789457321 7.6978437453508368 10.220988765358923
leaf_count=45 116 119 60 41 113 43 70 77 77 51 47 61 57 67 83 57 57 69 44 46 41 43 62 53 306 41 46 47 40 40 92 54 43 91 1346 49 115 40 51
internal_value=0 -0.00225609 0.0053885 -0.00361765 0.00165816 0.00233435 0.000347216 -0.00129829 0.00111929 0.000623503 0.00770481 0.00810202 -0.00437997 -0.00214715 -0.00126873 5.35704e-05 0.00269898 -0.000816796 -0.00216857 0.00301222 0.00617405 0.00436147 0.00315169 0.00456599 0.00865548 0.00665869 0.000665364 -0.00264777 -0.00213067 -0.00468884 -0.0026299 0.00433502 -0.00306063 -0.00327917 -0.00485549 0.00696301 -0.00369427 -0.00392693 0.00400236
internal_weight=0 555.822 222.005 412.489 143.332 97.4841 112.754 70.3452 79.182 62.9014 124.521 115.251 349.588 61.4019 33.3098 26.1438 29.5916 41.1645 44.8098 42.4089 30.5782 19.7174 38.0175 24.3779 103.089 41.601 18.031 25.218 29.4515 304.778 25.3349 25.8486 21.6388 33.7488 279.443 18.3022 35.258 25.1841 18.3676
internal_count=4000 2881 1119 2151 730 497 576 361 405 322 622 575 1829 316 171 134 151 212 232 215 154 100 193 123 514 208 92 130 152 1597 132 131 112 175 1465 92 182 131 92
is_linear=0
shrinkage=0.00395062


Tree=5
num_leaves=45
num_cat=2
split_feature=20 21 7 153 75 25 25 167 23 149 75 25 66 7 57 28 31 57 201 49 7 130 149 140 25 25 153 25 167 25 174 157 21 167 75 164 32 149 7 66 66 57 54 140
split_gain=492.379 180.719 86.1729 80.4656 65.2225 35.882 33.8606 26.4006 25.8978 24.899 33.1475 19.3088 18.84 16.0665 14.358 13.0262 12.3714 11.6231 11.0186 10.5118 9.84327 8.09628 7.55339 7.18365 6.99464 6.7043 8.56158 4.99252 4.7826 4.6859 4.43242 3.85935 3.84398 3.6436 3.72824 2.7917 2.62916 2.20648 2.63613 1.80353 1.31423 1.26261 1.42743 1.21147
threshold=0.068534333258867278 0.24281329149380329 0.047319587320089347 0 0.20125775039196017 0.30619053542613989 0.40333276987075811 0.9994625747203828 0.33638650178909307 1.0000565648078921 0.34197452664375311 0.10884884744882585 0.0089707965962588804 0.072851654142141356 0.75522726774215709 0.24616730213165286 0.0063969253096729526 0.12411826848983766 0.7053276782816833 0.44741383194923406 0.49989645183086401 0.96747365593910228 0.010656466707587244 0.045642999932169921 0.20004663616418841 0.2075900733470917 1 0.0064863031730055818 0.0083987289108335989 0.10309347137808801 0.0076218408066779384 0.014591160230338575 0.006323892157524825 0.30137136811390525 0.27405753731727606 0.007359762443229557 0.0079653509892523306 0.024186409078538421 0.015242666937410833 0.0022279062541201715 0.0044218702241778382 0.0083362939767539519 0.17618677765130999 0.079538296908140196
decision_type=2 2 2 1 2 2 2 2 2 2 2 2 2 2 2 2 2 2 2 2 2 2 2 2 2 2 1 2 2 2 2 2 2 2 2 2 2 2 2 2 2 2 2 2
left_child=3 2 22 15 5 7 13 12 11 19 14 17 21 25 28 16 -1 18 23 32 29 24 -2 -6 27 37 -27 -3 -11 -12 -17 -24 -4 -13 -35 -19 -9 38 -5 -33 -30 -39 -43 -7
right_child=1 4 9 6 8 43 -8 36 -10 10 20 33 -14 -15 -16 30 -18 35 -20 -21 -22 -23 31 -25 -26 26 -28 -29 40 -31 -32 39 -34 34 -36 -37 -38 41 -40 -41 -42 42 -44 -45
leaf_value=0.00030926004756673625 0.00023691044680824671 0.0013327261474250377 0.0099196573010207501 -0.0049253294673843291 0.0044548722751157222 0.0052670150762503185 0.0020220685296766399 -0.0010998065719369416 0.0012079824966660549 4.2884903252583905e-05 -0.00018275324794351074 0.013404456428148279 0.007665986539004712 9.0049420412121272e-05 0.0025402837426812402 -0.0031068151475256872 0.0077348661862983283 0.010316987864403927 0.0080195027078153007 0.0011380899704418134 0.0081943724922428768 0.0044271397242170388 -0.0012089267605284999 -0.00098275445686868022 0.0032814197203699974 -0.0052809787658905996 0.00081810066076530542 -0.0032097704933507715 -0.0019716521597757299 0.0046585700337598403 0.0012992817394150056 -0.0030207663669118653 0.003908357772173938 0.0054300669041810442 0.010531670618978551 0.004964271306614575 -0.0051628256073589836 -0.006372128675315056 -0.0012664987164546851 -0.0059695926016346702 -0.0052136919454913808 -0.005172883034588795 -0.002083038752045672 0.010636605703332214
leaf_weight=9.6779550462961215 7.7600053995847693 8.2427352070808464 13.103654652833944 19.420798137784008 10.692182675004007 9.3987483382225054 14.823541685938833 8.2340973466634768 11.467504993081091 8.0073365122079831 9.8220324367284828 29.839296221733093 14.741133347153662 12.359087243676184 13.272264912724493 8.5047555416822433 11.934409856796263 22.2463812828064 10.984416469931601 7.8619627207517615 12.164843007922171 12.487874194979666 7.6645557731389991 10.510292947292326 8.710675120353697 10.705839738249779 9.6616323292255402 14.155004844069479 8.1115453392267245 7.8798566311597815 10.759851738810539 13.754418537020682 8.096661761403082 13.676887869834898 21.658042341470718 9.6649243682622892 9.3419657200574857 203.97114607691765 8.6561192572116834 42.006122753024101 16.113665476441383 36.18636479973793 8.4157655835151655 10.723706558346747
leaf_count=49 40 42 66 102 54 47 76 42 58 41 50 147 74 64 67 44 60 110 55 40 61 63 40 53 44 56 50 72 42 40 55 72 41 68 107 48 48 1076 45 220 83 191 44 53
internal_value=0 0.00365448 -0.000193469 -0.00429778 0.00648626 0.00321294 -0.00512861 0.00153514 0.00864354 0.00268051 0.00109584 0.00927468 0.00313937 -0.00548202 -0.00158194 0.00222346 0.00471756 0.0069054 0.00434015 0.00645507 0.00501895 0.00133966 -0.00436784 0.001907 -9.22991e-05 -0.00571293 -0.00257331 -0.00156583 -0.0033286 0.00222644 -0.000755113 -0.00492126 0.00815872 0.0113299 0.0089537 0.00908423 -0.00356622 -0.00592394 -0.00395655 -0.005372 -0.0043613 -0.00611281 -0.0047043 0.00883152
internal_weight=0 412.395 175.619 365.077 236.776 96.0359 324.2 75.9135 140.74 104.434 75.3715 129.272 58.3374 309.377 45.5048 40.877 21.6124 64.0982 32.1869 29.0623 29.8667 43.5963 71.1851 21.2025 31.1084 297.018 20.3675 22.3977 32.2325 17.7019 19.2646 63.4251 21.2003 65.1742 35.3349 31.9113 17.5761 276.65 28.0769 55.7605 24.2252 248.573 44.6021 20.1225
internal_count=4000 2088 903 1912 1185 485 1704 385 700 531 384 642 295 1628 233 208 109 320 162 147 151 221 372 107 158 1564 106 114 166 90 99 332 107 322 175 158 90 1458 147 292 125 1311 235 100
cat_boundaries=0 1 2
cat_threshold=8 2
is_linear=0
shrinkage=0.005


Tree=6
num_leaves=46
num_cat=0
split_feature=10 12 12 66 79 7 75 70 12 35 134 35 9 75 12 35 17 2 35 1 9 7 75 88 66 1 74 17 7 12 17 75 70 122 86 86 57 75 7 43 79 75 1 88 75
split_gain=587.265 188.845 95.3251 91.601 55.1722 41.7346 27.8759 26.9126 21.1812 20.1228 19.6271 19.3451 13.8288 13.6611 13.6187 12.0941 10.9418 9.90343 9.68052 8.91229 7.76581 18.9621 7.05985 6.82859 6.21311 6.01063 5.46295 5.28621 5.6151 5.16172 4.94205 3.83221 2.71615 2.26045 2.16513 5.69823 2.15646 2.8912 2.11747 1.04131 0.967605 0.954671 0.487164 0.473499 0.136898
threshold=0.12735304236412051 0.040203483775258071 0.10029970481991769 0.0099528944119811075 0.22231831401586535 0.047319587320089347 0.200602762401104 0.20913327485322955 0.16556884348392489 0.10063976794481279 0.0080887945368886011 0.18366534262895587 0.19164597243070605 0.075029626488685622 0.017978675663471225 0.16683665663003924 0.60590535402297985 0.47727869451045996 0.4533707201480866 0.00775087345391512 0.096348904073238387 0.080346331000328078 0.13977003842592242 0.0049590177368372687 0.0060386743862181911 0.0042984369210898885 0.0075763401109725246 0.39898198843002325 0.0090498458594083803 0.26291079819202429 0.76917594671249401 0.20125775039196017 0.50089934468269359 0.0028515389421954755 0.0037197322817519311 0.0066746838856488475 0.0061732996255159387 0.26988682150840765 0.076977781951427474 0.028784225694835189 0.083131328225135817 0.008971053175628187 0.0068391368258744487 0.005716779502108694 0.071818217635154738
decision_type=2 2 2 2 2 2 2 2 2 2 2 2 2 2 2 2 2 2 2 2 2 2 2 2 2 2 2 2 2 2 2 2 2 2 2 2 2 2 2 2 2 2 2 2 2
left_child=1 4 9 6 7 16 18 13 23 -2 19 17 14 26 24 22 42 30 27 -9 21 -11 -5 -8 34 -13 -1 38 -29 -17 -7 44 -26 -27 -12 -36 -10 -38 40 -33 -3 -6 -4 -40 -22
right_child=2 3 5 15 41 11 8 10 36 20 12 25 -14 -15 -16 29 -18 -19 -20 -21 31 -23 -24 -25 32 33 -28 28 -30 -31 -32 39 -34 -35 35 -37 37 -39 43 -41 -42 -43 -44 -45 -46
leaf_value=-0.00028442521748227615 0.0013059878406291973 -0.0026685811373150436 -0.0036455382310240743 -0.0019623611031354769 -0.0039146486073257814 -0.0012601289676671054 -0.00031215340871400206 -0.0015943230958605523 -0.0035476229337659945 1.9525348717534219e-05 0.0037298579849756033 0.0019466082143306887 0.0074982125500942902 0.0021869913435131087 -0.00025875323768583507 0.0056765826085185623 0.00097261251162069197 0.0038713799726730856 -0.00037418343083154708 0.0024441530818931976 0.0062798546350622307 0.0062994078654429924 0.00180153326044855 0.0037547770515001183 0.0027744124611131498 0.003134674230658707 -0.0036772013619354423 -0.0033317166347009656 8.1429823702790948e-05 0.0015517333506582982 0.0016794501638810052 0.0044695369796212449 0.006397610454955239 0.0065230002188728974 -0.00045700028023585063 0.0031265480374573747 -0.0025946228451464524 -3.0493544498225912e-06 -0.0029414494545201 0.0082683728302729905 -0.0042366017058667865 -0.001695738793460572 -0.0016251570027347264 -0.0012019137265986397 0.0036666958428275957
leaf_weight=11.106058061122896 9.1589990705251676 17.690556794404984 8.6125515848398262 7.9921193271875408 13.581720069050791 12.924759253859525 8.0179498046636564 11.195751890540125 14.552133053541182 7.9464946538209942 9.925214350223543 9.1076578348875028 10.040673986077307 12.657795175909994 10.202268585562704 7.977230533957484 12.388258650898932 8.936197102069853 9.0509469062089902 9.2791875898838025 12.617994442582132 14.382133349776266 10.430858165025709 7.9028941094875327 8.7493614703416842 9.5436104983091372 8.7142151743173581 11.613243862986566 8.6746522933244687 8.2294278144836408 9.0667372792959195 8.8980884850025159 12.776322081685064 18.913817435503006 8.3109189122915286 8.7067113965749723 9.651641860604288 8.1223452836275083 7.9408457875251752 58.060069620609283 265.22165593504906 8.2997533529996854 8.076335668563841 7.750042587518692 14.415929421782492
leaf_count=57 46 93 45 41 71 66 41 57 76 40 50 46 50 64 52 40 64 45 47 47 63 71 53 40 44 48 45 61 45 42 46 44 64 95 42 44 50 42 41 286 1399 43 42 40 72
internal_value=0 -0.00189111 0.00449032 -0.00303734 0.00138597 0.0019612 -0.00351456 0.00226569 -0.00109316 0.00639527 0.00319406 0.00335278 0.00402658 -0.000321061 0.00320486 0.00205562 -0.00132155 0.00127908 -0.00386201 0.000290521 0.00676714 0.00424982 0.000136421 0.00190034 0.0039153 0.00490911 -0.00197644 -0.00395805 -0.00199597 0.00398262 -9.20136e-06 0.00726415 0.005286 0.00566714 0.00253058 0.00151242 -0.00259231 -0.00153044 -0.0040772 0.00790782 -0.00415798 -0.00328552 -0.00294637 -0.00231529 0.00523496
internal_weight=0 554.364 223.05 410.819 143.546 97.5699 376.189 121.664 48.247 125.48 89.1864 68.4928 68.7115 32.4781 58.6708 34.6296 29.0771 30.9277 327.942 20.4749 116.321 22.3286 18.423 15.9208 48.4685 37.5651 19.8203 318.891 20.2879 16.2067 21.9915 93.9921 21.5257 28.4574 26.9428 17.0176 32.3261 17.774 298.603 66.9582 282.912 21.8815 16.6889 15.6909 27.0339
internal_count=4000 2881 1119 2151 730 497 1975 616 249 622 450 346 346 166 296 176 151 157 1726 104 576 111 94 81 244 189 102 1679 106 82 112 465 108 143 136 86 168 92 1573 330 1492 114 87 81 135
is_linear=0
shrinkage=0.00333333


Tree=7
num_leaves=38
num_cat=0
split_feature=0 0 0 190 2 208 117 188 117 134 37 37 149 190 190 37 98 199 134 185 134 30 101 0 208 82 196 33 185 101 114 11 174 196 196 11 30
split_gain=895.747 107.788 85.0284 29.4787 22.9929 22.9803 23.0444 16.6669 16.6469 14.7905 11.2596 11.2141 11.1333 10.4087 9.8574 8.74473 7.12366 6.98498 6.88537 6.13399 6.90782 5.59593 5.42363 4.976 7.93072 4.60354 4.58461 3.59258 3.09676 3.08132 2.91096 2.54916 2.44572 1.92943 0.191257 0.339472 0.169576
threshold=0.58808869123458873 0.6572665572166444 0.46837694942951208 0.11324786324786326 0.0083106812089681643 0.45368782161234994 1.0002934932708742 0.22600085682983526 0.0093742408789694327 0.0070999471936374911 0.32361643016338354 0.70088523626327526 0.012937568593770267 0.48492424242424248 0.30198160659189288 0.32253232598304754 0.0017428288119845094 0.7831459259069754 0.0094802938401699084 0.0011359850177541377 0.0017748964019119742 0.00734594650566578 0.0049219529610127219 0.70781609416008007 0.35824886263867833 0.0055713318288326272 0.22888085937976518 1.0059525370597842 1.0071801543235781 0.0044087539426982411 0.005829351721331478 0.10550288856029512 0.0032691155793145303 0.48362486987697767 0.4871223038038382 0.31375165283679968 0.24340026080608371
decision_type=2 2 2 2 2 2 2 2 2 2 2 2 2 2 2 2 2 2 2 2 2 2 2 2 2 2 2 2 2 2 2 2 2 2 2 2 2
left_child=2 5 4 27 18 6 14 9 12 30 33 19 -3 36 -2 21 -9 -16 -1 -6 -21 -11 -12 24 -10 -17 -18 -4 31 -28 -5 -22 -8 -7 35 -25 -14
right_child=1 8 3 7 11 10 32 16 23 15 22 -13 13 -15 17 25 26 -19 -20 20 28 -23 -24 34 -26 -27 29 -29 -30 -31 -32 -33 -34 -35 -36 -37 -38
leaf_value=0.00021642046262747313 -0.0014070137554114388 0.00088454894738788611 0.00013611066692354517 -0.0025666778402667497 0.0041300017166847848 0.0060938950683677188 -0.0013511528482656576 0.0015247893228521471 -0.0041317354414228914 0.0019923619636216029 -0.0019726681226942674 0.003144182767301554 -0.0045950700027982206 -0.00012100845427461234 0.0056174595999650316 0.0028557213623483526 0.0033629740050425769 0.00035842640918589297 0.0049543725393029646 0.003643475043183238 0.0070128221564085295 0.0071064148120128928 0.0021048770771687248 -0.0052441623904849405 0.0003861168389701189 -0.00095749088502651645 0.0038121007030437761 -0.0032244002619337413 0.0051440299560817698 0.008513197465065769 0.00060192543433569177 0.0099290061653825642 -0.0044088554242808654 0.0024960184750583495 -0.0027530280724573702 -0.0027205439811060152 -0.0023709237860748316
leaf_weight=9.7938771545887011 11.45475870370865 12.443743392825125 10.040269777178766 8.3878352940082568 11.312811911106108 10.554724290966989 8.4442054927349108 8.1652428656816465 28.606538057327271 8.10921658575535 7.8226845711469677 11.032810121774672 33.95745462179184 13.513308823108671 8.1576284766197222 10.484658464789392 12.954569637775419 8.1042963266372663 9.9519080817699415 8.4788763821125013 33.687489449977875 10.834414571523665 11.193229496479033 264.82184360921383 8.1418305635452253 8.2912268042564374 8.7700699865818041 9.6395885646343213 12.348954558372496 17.429401308298111 8.4148185402154905 77.874527469277382 21.584511265158653 8.9788273274898511 7.7162269353866568 7.6648815423250189 7.8812152594327918
leaf_count=50 59 64 52 43 56 53 44 41 150 41 40 56 177 69 41 53 65 41 50 42 168 54 57 1403 42 42 44 50 61 87 43 383 113 45 40 40 41
internal_value=0 -0.00355381 0.00559117 0.00285876 0.00744025 0.000365859 -0.00127778 0.00374619 -0.00453164 0.00206563 0.00276956 0.0079835 -0.0025468 -0.00332216 0.00140496 0.00345289 0.00552027 0.00332288 0.00284042 0.00830678 0.00859691 0.00531657 0.000399355 -0.00493756 -0.0031625 0.00124175 0.00623889 -0.00165552 0.00887259 0.00732153 -0.00108457 0.00918745 -0.00368709 0.00482554 -0.0051463 -0.00519352 -0.00430339
internal_weight=0 481.042 296.003 121.521 174.481 96.2949 57.7454 101.841 384.747 54.5222 38.5495 154.735 67.7957 55.352 27.7167 37.7195 47.3193 16.2619 19.7458 143.703 132.39 18.9436 19.0159 316.951 36.7484 18.7759 39.154 19.6799 123.911 26.1995 16.8027 111.562 30.0287 19.5336 280.203 272.487 41.8387
internal_count=4000 2519 1481 615 866 493 298 513 2026 276 195 766 351 287 141 190 237 82 100 710 654 95 97 1675 192 95 196 102 612 131 86 551 157 98 1483 1443 218
is_linear=0
shrinkage=0.00414815


Tree=8
num_leaves=40
num_cat=0
split_feature=0 0 0 36 35 21 21 135 36 7 7 100 35 64 3 21 6 6 135 20 70 0 191 0 21 193 1 1 3 100 135 135 21 191 64 172 100 196 20
split_gain=877.396 106.693 82.013 33.7178 33.0783 24.7602 24.5071 21.9129 21.2736 20.9165 18.0349 16.3144 12.7261 12.0816 15.9214 11.4992 9.71557 8.75582 8.44254 7.69834 7.03596 7.00033 6.9073 6.82319 4.29047 3.85627 3.80226 3.288 2.589 2.36041 2.32324 2.18055 3.30976 5.94352 3.12631 1.79153 1.39585 1.21976 0.203048
threshold=0.58808869123458873 0.6572665572166444 0.46837694942951208 0.039920041337609298 0.10063976794481279 1.0004141926765444 0.0030228740070015196 0.95253300666809093 0.010682491119951011 0.45442505180835729 0.047319587320089347 0.0014549546176567676 0.11215069517493249 0.0016703003202565017 0.29817317426204687 0.0095209344290196913 0.29546421766281133 0.0047038455959409484 0.0013783174799755218 0.05918396636843682 0.30460755527019506 0.53076842427253734 0.28581082256842932 0.80573314428329479 1.0054114460945132 0.14674158368828025 0.0065318315755575904 0.0081286719068884867 0.81674981117248546 0.0036710343556478624 0.0065641489345580348 0.97136616706848156 1.0036090016365053 0.30464592268693852 0.0049355840310454377 0.0013435651781037452 0.00083329467452131223 0.31169876178492628 0.11260466277599336
decision_type=2 2 2 2 2 2 2 2 2 2 2 2 2 2 2 2 2 2 2 2 2 2 2 2 2 2 2 2 2 2 2 2 2 2 2 2 2 2 2
left_child=2 5 4 7 -1 10 -6 11 20 16 38 -4 -5 14 -8 -9 23 27 -15 -10 -7 -14 30 25 -21 -3 -22 -13 36 -30 -19 32 35 -34 -33 -27 -20 -37 -2
right_child=1 9 3 12 6 8 13 15 19 -11 -12 17 21 18 -16 -17 -18 22 28 24 26 -23 -24 -25 -26 31 -28 -29 29 -31 -32 34 33 -35 -36 37 -38 -39 -40
leaf_value=0.00066774586894098001 -0.0059664484780404797 -0.0013315660706214527 -0.002816270539959813 -0.0041431484450773137 0.0016627375374914655 0.0012546892730177549 0.010048842105940235 0.0031757056259202675 -0.0038550444221295689 0.0023011046601248688 0.0017475223981118413 -0.00083100153296188648 0.0045738602258307438 0.004651265137708002 0.0018416355011430133 0.010396371517667787 -0.00027944332333747327 0.0042241180737397068 0.0065583576934782313 -0.0011085499059898286 0.0040523657337590002 -0.0012612038478717366 0.0016581523762997398 -0.006660235209781388 0.0038075066053848521 -0.0027697790003361556 0.0098446869797361169 0.0033545557784549346 0.004070194220702086 0.0095503846251600907 0.01019654033469526 -0.0047815053711481471 -0.0009189398055318924 -0.0057857787663617155 -0.00043287271890907122 -0.0067591857722014313 0.012591128230472468 -0.0034867272114750981 -0.0031230396603246068
leaf_weight=11.840042173862455 15.68840701878071 9.5024339705705625 9.6461873501539213 15.059197515249251 10.282173231244085 8.4312733262777346 13.344505548477175 11.044080302119253 10.39540868997574 7.8390890806913367 15.505851417779921 9.2979022264480609 10.409521922469141 8.895807668566702 13.433685034513472 24.369962990283966 8.5195674300193769 7.9765753149986329 8.1430354267358762 8.1009327024221438 11.382025957107546 9.3400144726037961 7.917708531022071 230.53769689798355 8.3586235046386701 8.6769424825906736 9.0058091878890973 8.3188711255788785 8.0733384788036364 13.875226050615309 8.4674469679594022 8.7399966865777987 14.686859264969828 13.079851314425467 8.8117161244153959 61.62963829934597 87.886958077549934 10.687134355306624 9.439051538705824
leaf_count=60 83 49 49 78 52 43 65 56 54 40 79 47 53 44 67 120 44 40 40 41 57 48 40 1228 42 46 45 42 40 69 42 46 76 69 46 326 429 56 49
internal_value=0 -0.00449345 0.00700543 0.00359396 0.00930323 0.000462368 0.00991135 0.00531594 0.00270701 -0.00573648 -0.00259585 0.00294169 -0.000766705 0.0104349 0.00634572 0.00843471 -0.00591587 0.00433272 0.0111861 -0.000677239 0.00569993 0.00195208 0.00627122 -0.00604472 0.00152997 -0.00491842 0.0072619 0.00128595 0.011593 0.00804288 0.00807169 -0.00516329 -0.00547559 -0.00344625 -0.00286594 -0.00607148 0.0122238 -0.00638243 -0.00520735
internal_weight=0 479.018 297.622 121.847 175.775 96.3074 163.935 87.0387 55.6741 382.711 40.6333 51.6247 34.8087 153.653 26.7782 35.414 374.872 41.9785 126.874 26.855 28.8191 19.7495 24.3617 366.352 16.4596 135.815 20.3878 17.6168 117.979 21.9486 16.444 126.312 108.76 27.7667 17.5517 80.9937 96.03 72.3168 25.1275
internal_count=4000 2519 1481 615 866 493 806 436 282 2026 211 260 179 754 132 176 1986 211 622 137 145 101 122 1942 83 714 102 89 578 109 82 665 573 145 92 428 469 382 132
is_linear=0
shrinkage=0.00527473


Tree=9
num_leaves=40
num_cat=0
split_feature=0 0 0 35 191 16 5 15 11 191 6 131 64 191 0 135 16 67 46 191 135 194 34 35 112 193 100 5 67 100 11 0 98 16 5 11 16 135 97
split_gain=872.535 106.597 80.9121 32.5595 30.8435 29.5982 20.4239 19.2358 18.174 16.373 14.8985 14.5821 12.28 14.5528 11.2685 10.5001 9.65662 8.93186 8.24804 7.72342 7.60064 7.99985 6.93039 6.46571 6.24206 5.65283 4.62605 4.58883 4.1531 3.97333 4.28979 3.39927 3.11211 2.83088 1.68678 1.65902 1.25738 0.480779 0.257385
threshold=0.58808869123458873 0.6572665572166444 0.46837694942951208 0.10063976794481279 0.30464592268693852 0.0048785577528178701 0.29358489811420446 0.46466530859470373 0.093853082507848754 0.066762483336978914 0.34342731535434728 0.97624719142913829 0.0016703003202565017 0.067032152084368621 0.80573314428329479 0.0011051350156776609 0.36205333471298223 0.054606394376605756 0.0075707845389842996 0.048609374565863693 0.0064890228677541026 0.22988699187935488 0.00504749151878059 0.19934222847223285 0.0055181323550641545 0.32892506786746684 0.0052018419373780498 0.1758958846330643 0.054606394376605756 0.0037153948796913032 0.031770253553986556 0.70167219638824474 0.004153541289269925 0.26494321227073675 0.27719387412071234 0.27312533557415014 -0.021320644766092297 0.9569811522960664 0.005311905639246107
decision_type=2 2 2 2 2 2 2 2 2 2 2 2 2 2 2 2 2 2 2 2 2 2 2 2 2 2 2 2 2 2 2 2 2 2 2 2 2 2 2
left_child=2 5 3 -1 6 23 7 22 25 -9 14 20 13 -5 19 -14 24 -15 -17 -3 -11 -22 -4 -2 -10 -7 -18 -6 34 33 -31 -30 -8 -20 37 -16 -25 -21 -33
right_child=1 10 4 12 27 8 32 9 16 11 -12 -13 15 17 35 18 26 -19 29 28 21 -23 -24 36 -26 -27 -28 -29 31 30 -32 38 -34 -35 -36 -37 -38 -39 -40
leaf_value=0.00036731058743479875 0.00070681736340588296 0.00015017290804346289 0.0012060607030651654 0.0057764603717334823 -0.0022404837969160307 -0.00037827726900159796 0.0024520935440405659 0.0050288351127011936 0.00024922309885573102 1.2228572948583367e-05 0.00061919526698185287 -0.0014054088643225006 0.0019120182228430467 -0.00068091279370272539 -0.0036331303022753927 0.0027570756049953129 -0.0019865749683884155 0.003009817346163686 0.0056988288804877855 -0.0033097632771261244 0.0009234644157712457 0.0044520065057623804 -0.0017660589069954972 0.0019948479111296202 0.0034777408189645698 -0.0030176621416655208 0.00056345835096369796 0.00040485232201951596 -0.00037346024447065839 0.0033249807561024974 0.0070879188028080357 -0.0012661195355287193 0.0055676849603881681 0.0032973403123250197 -0.0014005366607930982 -0.0016028409678973945 0.0045984693316760226 -0.0022568729694953655 -0.0027402269422558672
leaf_weight=11.827237650752066 10.212110579013826 8.3988850265741331 9.5259241908788699 9.2809312194585818 11.700347676873209 9.9640195965766925 9.02320344746113 14.715763807296751 9.471491605043413 8.0260747820138949 7.9679603129625312 9.0899565964937192 8.0727832913398725 8.3348133414983767 224.71197439730167 11.056816831231115 9.6977321356534976 10.14290441572666 24.633342981338501 65.079348400235176 9.6479794383049029 13.848894476890562 12.370154485106466 7.97554484009743 8.691021189093588 21.673329144716263 9.9805304855108243 7.7905961573123923 13.304850190877916 8.0722402334213239 65.679561764001846 7.6416397988796261 16.151967123150826 19.058045968413353 10.512522011995314 7.8276931941509238 8.5934592783451063 26.579885601997375 10.165896236896513
leaf_count=60 52 43 48 45 61 51 45 73 48 41 41 46 40 42 1199 55 50 50 120 345 49 69 63 40 44 114 51 40 69 40 320 40 80 94 55 41 43 140 53
internal_value=0 -0.00241891 0.00376346 0.00499232 0.00193557 0.000252735 0.00255298 0.00174739 -0.000733258 0.00261499 -0.0030896 0.00154537 0.00531677 0.00318142 -0.00317144 0.0056986 0.000591152 0.0014411 0.00590354 -0.00246196 0.00242935 0.00318926 -0.0004803 0.0026839 0.00198586 -0.00225833 -0.000760559 -0.00124384 -0.00262635 0.00614863 0.00677472 -0.00154809 0.00471366 0.0048415 -0.00291867 -0.00357904 0.00369506 -0.00305916 -0.00229938
internal_weight=0 478.45 298.05 176.159 121.891 96.2592 102.4 77.2247 69.4781 55.3287 382.191 40.6129 164.331 27.7586 374.223 136.573 37.8408 18.4777 128.5 141.683 31.5229 23.4969 21.8961 26.7811 18.1625 31.6373 19.6783 19.4909 133.284 117.443 73.7518 31.1124 25.1752 43.6914 102.172 232.54 16.569 91.6592 17.8075
internal_count=4000 2519 1481 866 615 493 514 389 358 278 2026 205 806 137 1985 669 193 92 629 745 159 118 111 135 92 165 101 101 702 574 360 162 125 214 540 1240 83 485 93
is_linear=0
shrinkage=0.00284444


Tree=10
num_leaves=43
num_cat=1
split_feature=17 65 191 153 28 20 50 70 191 17 70 83 50 168 190 70 50 28 199 208 27 19 74 28 94 50 54 94 134 134 94 50 45 186 61 48 27 50 65 74 27 54
split_gain=578.19 175.304 65.5393 49.3377 37.5658 29.5209 28.5585 19.741 18.6769 16.4731 13.7348 12.9027 12.7438 12.6739 11.4026 13.3418 10.5703 10.0451 7.93293 7.76744 7.54374 7.40059 6.93148 10.6684 7.9087 6.88776 6.63015 5.51278 5.07261 4.49081 4.4801 3.56005 2.67838 2.58435 2.50194 1.85591 1.5164 0.917026 0.605813 0.29044 0.127621 0.270364
threshold=0.44735006988048559 0.0099700307473540323 0.20627269176804133 0 0.24616730213165286 0.080331537872552886 0.066505886614322676 0.30794844031333929 0.28270790268943929 0.11529752239584924 0.30250553786754614 0.0081146503798663634 0.032439926639199264 0.0097453538328409212 0.32372021457978134 0.30150809884071356 0.14315077662467959 0.030995207838714126 0.14679907658905952 0.47216443723324114 0.54495850205421459 0.10524293780326845 0.077982384711503996 0.056021051481366164 1.005771338939667 0.032991267740726478 1.0026454329490664 1.0013239383697512 1.0002848505973818 0.0067230476997792729 1.0018581151962282 0.082238703966140761 0.63159659504890453 0.0078805848024785536 0.24586200714111331 0.0063279543537646541 0.81937995553016674 0.049946183338761337 0.0046091414988040933 0.075981825590133681 0.39055460691452032 0.34215569496154791
decision_type=2 2 2 1 2 2 2 2 2 2 2 2 2 2 2 2 2 2 2 2 2 2 2 2 2 2 2 2 2 2 2 2 2 2 2 2 2 2 2 2 2 2
left_child=1 2 5 6 9 27 8 17 10 -3 26 21 -4 31 15 25 -6 -7 -17 37 -20 -11 -8 24 -24 -5 -2 -1 -22 -12 -16 -9 36 -31 39 -18 40 -13 -19 -29 -14 -42
right_child=3 4 12 14 16 7 22 13 -10 11 29 19 32 -15 30 18 35 38 20 -21 28 -23 23 -25 -26 -27 -28 34 -30 33 -32 -33 -34 -35 -36 -37 -38 -39 -40 -41 41 -43
leaf_value=-0.00012347466471992913 0.003635577180037956 -0.00075472493560079694 -0.0006362206013844204 0.0041335277397842578 0.0012979744564231548 0.0011314479991103665 -0.0022090429208345072 0.0021658775309113493 0.00020558145468170357 0.0030249575928316952 0.0028219335900943245 0.0077327458688539056 -0.0023413616341230489 -0.00018328080527771882 0.0038218317681581329 0.0073029479584294961 -0.0039002790976307485 -0.0036058875577957656 0.006284669306390692 0.0023815846718936136 0.0010693457725890134 -0.0010590027282158057 0.001288374795979483 0.0039175652287318586 -0.0024580253138054143 0.00042464112071717705 -0.00028622908951408932 -0.0042827689020981221 0.0043873948198435223 0.0074960096534646813 0.0079539460018432685 0.0055750183553112155 -0.0015254339300447976 0.0034864942590547036 -0.0011617250399355474 -0.0011991152156095616 -0.0024511854766834833 0.0044922710220340334 -0.0015855183859977951 -0.0023531494536053309 -0.004382935148785707 -0.0023038341751457892
leaf_weight=7.6604385823011389 10.672898411750795 9.9539450705051404 14.000810623168944 10.338755980134012 9.8891817480325717 10.832477480173113 8.7667568176984769 12.374127492308618 13.930292934179304 10.797609612345697 9.279122591018675 9.8845278173685092 7.9502461403608313 14.516647219657896 9.908613368868826 25.165943965315819 9.7019741535186785 9.4500833600759524 12.684967756271361 14.374594286084173 14.424258708953859 8.0629697144031507 15.058271422982218 8.7183934301137906 9.6168704479932767 13.224723547697065 8.5856482386589033 21.490429073572159 9.6472547203302366 21.072261646389965 38.689958393573761 9.0066387802362424 7.5853546708822241 8.3514167219400388 7.5883749574422827 7.6475909054279319 14.827766686677931 18.934786841273308 8.7302350699901563 10.88271816074848 248.82562406361103 7.7744559794664374
leaf_count=40 53 51 73 51 50 55 46 62 71 54 46 49 42 74 48 123 51 49 63 72 72 41 76 44 49 67 43 114 48 103 188 45 40 41 40 40 79 95 45 57 1333 41
internal_value=0 -0.00214978 -0.00314993 0.0043368 0.00199707 -0.000851863 0.00257486 0.000682794 0.00388662 0.0032966 0.00473493 0.00394974 -0.0039979 0.00236078 0.00577564 0.00476437 -0.00142885 -0.00141172 0.00562161 0.00497728 0.00415299 0.00134489 0.000263321 0.00100055 -0.00024655 0.00224805 0.00202474 -0.00288687 0.0026337 0.00591777 0.00729583 0.00395604 -0.00415637 0.00665232 -0.00338545 -0.00295665 -0.00421645 0.0060334 -0.00288901 -0.00380877 -0.00429626 -0.00433825
internal_weight=0 512.744 413.496 248.136 99.2472 112.532 114.052 64.9102 71.8916 72.0084 57.9613 62.0545 300.964 35.8974 134.084 85.4859 27.2387 29.0128 61.9224 43.1939 36.7565 18.8606 42.1603 33.3935 24.6751 23.5635 19.2585 47.622 24.0715 38.7028 48.5986 21.3808 286.963 29.4237 39.9615 17.3496 279.378 28.8193 18.1803 32.3731 264.55 256.6
internal_count=3924 2692 2189 1232 503 581 572 330 357 362 286 311 1608 181 660 424 141 149 306 216 183 95 215 169 125 118 96 251 120 190 236 107 1535 144 211 91 1495 144 94 171 1416 1374
cat_boundaries=0 1
cat_threshold=2
is_linear=0
shrinkage=0.0035


Tree=11
num_leaves=34
num_cat=0
split_feature=0 0 12 117 28 35 23 25 21 3 117 28 35 157 21 6 40 23 79 36 23 28 12 0 12 196 64 28 171 57 95 79 105
split_gain=923.772 137.475 62.7404 38.2455 28.1678 24.0184 18.559 18.4899 13.6862 16.9125 13.6439 9.7805 10.5974 9.47385 8.20168 8.14167 7.03032 6.24068 5.67671 5.35172 4.88891 4.80851 10.7376 4.48467 4.81445 4.3049 3.41125 3.00879 2.74959 2.32222 2.10765 0.280202 0.050932
threshold=0.6572665572166444 0.51316821575164806 0.032891117036342628 1.0002934932708742 0.18675346672534945 0.1760404780507088 0.3360272496938706 0.10786687955260278 0.0024722450179979209 1.0016124248504641 0.0087907183915376681 0.069018609821796431 0.10110303759574892 0.0096286442130804079 1.0033520460128786 0.0096184439025819319 0.0025662517873570327 0.0091372206807136553 0.068020254373550429 0.032222762703895576 0.0059940419159829625 0.10261252894997598 0.22967312484979632 0.70781609416008007 0.034313501790165908 0.48299582584192879 0.0056537042837589988 0.027922357432544235 0.0074550008866935977 0.0045587571803480395 0.025744968093931678 0.039391109719872482 0.002504981704987586
decision_type=2 2 2 2 2 2 2 2 2 2 2 2 2 2 2 2 2 2 2 2 2 2 2 2 2 2 2 2 2 2 2 2 2
left_child=1 4 5 11 6 20 8 -6 -1 16 13 12 -4 -2 19 27 -10 30 25 28 -3 22 -5 24 -12 -7 -19 -15 -14 -9 -18 -25 -23
right_child=10 2 3 21 7 18 -8 29 9 -11 23 -13 14 15 -16 -17 17 26 -20 -21 -22 32 -24 31 -26 -27 -28 -29 -30 -31 -32 -33 -34
leaf_value=0.0013295225259367738 0.00075631084459392589 0.001453985621465891 -0.00052858583735437641 0.0010224075986303618 -0.00072009328809169556 0.0054779752902200827 0.0014731015285970551 0.0014583094874629973 0.0020245253965144633 0.0010501490436023529 -0.00012111044776221829 -0.00098109292726549576 0.0013019953810455539 -0.001017516002820166 0.0042268830586639945 -0.00022745355520191468 0.0027946155524899109 0.001396702392567829 0.0021299519471426904 0.0026579227582599532 -0.0010111829339089782 -0.0013426687940826941 -0.0021964740774194627 -0.0016610829518113517 -0.0024049923380071517 0.0027413373446099195 0.0040217120187170646 -0.0029697190571799066 -0.00054558947905603147 0.0036956723317516718 0.0055225131003287901 -0.003154004629816699 -0.0026236918372242392
leaf_weight=9.3774032294750196 8.0909561514854413 8.1028524339199084 9.8555697947740537 10.227947637438776 11.702516004443167 16.665832340717319 15.085204645991324 8.5720016360282916 8.3293524384498578 8.4060693830251676 7.7272448688745525 9.1066833883523923 8.3890023529529625 9.2863634377717954 8.6470446139574033 12.784358590841292 8.2770728617906553 8.1228562593460101 15.793417379260061 10.634877964854239 8.0817201882600767 7.5679200440645245 12.256866797804831 7.8217665553092948 23.641896218061447 14.030973762273787 11.22443477809429 28.144724011421204 8.144217297434805 13.274429008364676 114.99184617400169 277.94319646060467 20.870470076799393
leaf_count=47 42 41 50 52 60 83 75 43 41 42 40 47 42 48 43 66 41 40 79 54 41 40 64 41 125 70 55 148 41 66 561 1486 110
internal_value=0 0.00268895 0.000976324 -0.000206591 0.0039946 0.002916 0.00438217 0.00174406 0.00462195 0.00479682 -0.00280532 0.00122257 0.00168471 -0.00160408 0.00228952 -0.00199881 0.004989 0.00513175 0.00379658 0.00142534 0.00024717 -0.00173203 -0.000768339 -0.00301473 -0.00188338 0.00447131 0.00315374 -0.00256157 0.000431204 0.00301373 0.00538689 -0.00312497 -0.00239342
internal_weight=0 385.739 168.375 105.701 217.363 62.6748 183.814 33.5489 168.729 159.352 375.441 54.7774 45.6707 58.3064 35.8151 50.2154 150.946 142.616 46.4902 27.1681 16.1846 50.9232 22.4848 317.134 31.3691 30.6968 19.3473 37.4311 16.5332 21.8464 123.269 285.765 28.4384
internal_count=3924 1928 857 543 1071 314 902 169 827 780 1996 277 230 304 180 262 738 697 232 137 82 266 116 1692 165 153 95 196 83 109 602 1527 150
is_linear=0
shrinkage=0.0025


Tree=12
num_leaves=40
num_cat=1
split_feature=47 8 50 7 8 8 142 2 8 7 13 197 155 142 42 47 83 46 157 47 130 197 112 13 209 83 157 50 47 157 209 81 13 36 81 130 50 198 187
split_gain=498.675 147.671 105.991 71.3082 55.3969 73.7222 53.6056 41.0541 28.0172 37.8789 20.7982 18.3473 12.0306 11.9479 11.443 11.2683 10.4662 9.82357 9.13922 8.95897 8.06379 7.88591 7.46092 7.02551 5.47965 4.87514 4.89168 4.74678 3.64306 3.44413 3.32127 3.26443 2.96296 2.75933 2.50589 1.26128 3.03441 0.705962 0.488168
threshold=0.44927389919757849 0.19442018866539004 0.032439926639199264 0.17712356150150302 0.18880786001682284 0.036008534952998168 0.026523716747760776 0.050729457288980491 0.20486824214458468 0.02115572709590197 0.032484268769621856 0.14173031848671175 0 0.029164753854274753 0.30344918370246893 0.74655476212501537 0.007427631877362729 0.10985878482460977 0.51602518558502208 0.35391139984130865 0.086732424795627608 0.17990784870628804 0.0026469229487702255 0.011872972827404739 0.44344819494406951 0.0057657295837998399 0.16635677218437198 0.060893917456269271 0.27328126132488256 0.29097454249858862 0.4405303676306766 0.010860095266252758 0.007994879502803089 0.015618259552866222 0.0075941430404782304 0.9776979684829713 0.21322932839393618 0.42313484708063026 0.0048939811531454333
decision_type=2 2 2 2 2 2 2 2 2 2 2 2 9 2 2 2 2 2 2 2 2 2 2 2 2 2 2 2 2 2 2 2 2 2 2 2 2 2 2
left_child=1 3 8 4 5 -1 -4 12 9 11 17 -2 15 -6 31 34 -7 23 22 -5 -17 -13 33 -9 -22 26 -19 -12 -3 -29 -16 35 -18 -11 38 37 -37 -15 -8
right_child=2 28 6 19 13 16 7 10 -10 18 27 21 -14 14 30 20 32 25 -20 -21 24 -23 -24 -25 -26 -27 -28 29 -30 -31 -32 -33 -34 -35 -36 36 -38 -39 -40
leaf_value=-0.0042208655068879412 -0.0028161426596709799 0.0088150216274834325 0.0079382403405382235 0.00039709830499460051 0.00027902271868233963 0.00046218203712502961 -0.002291558832562185 0.0033597502461184892 0.009786857031897564 0.0055771966148953529 0.0018855410306876275 0.0048267223648401697 0.002603897940467813 -0.0047927897092506916 0.00065220084766205028 -0.0027765405550349781 0.0062950319556739215 0.0048372636689722331 0.0024168640437750625 0.004669508640723216 0.0028162064634336321 0.00048678379569250241 0.0081545541755480549 -0.00084159529060069942 -0.0010407858099545399 0.0065578536245209521 0.00062148201313489944 0.00045667752435815093 0.0042310239886780504 -0.0028374584210572396 -0.0025689714649287784 -0.0015894927783462801 0.0024629059248838683 0.001869291642480483 -0.00096089414192860548 -0.0015424288448446365 -0.0044674118541639472 -0.0028974129093518844 -0.004424705181702091
leaf_weight=34.831552073359489 8.4434555917978269 9.1367773264646548 16.530673205852509 14.784456357359888 8.3697175383567792 11.24292568862438 10.836591035127642 12.958457201719286 28.210791230201721 9.8878629207611102 8.5849480479955691 16.098284587264065 9.0627668052911741 257.46468433737755 8.3070305287838 8.585615888237955 13.237091794610025 8.1389053761959094 9.30611804127693 13.780773773789404 12.198837742209436 10.495212301611899 47.832872703671455 8.9644313305616361 7.7958139330148688 19.968639507889748 8.2103660702705366 7.8952374309301403 13.611390635371206 8.5991439372301084 7.7895225882530204 8.2799778431653959 8.7954093068838102 8.0437752753496152 7.6879502534866324 13.58538803458214 12.677027910947798 14.21634805202484 16.102347373962402
leaf_count=182 43 45 81 75 44 57 57 64 136 48 43 79 45 1386 43 45 66 40 46 69 62 53 232 45 40 98 41 40 67 44 41 43 44 40 40 72 68 75 85
internal_value=0 -0.00264157 0.00374741 -0.00316401 -0.00359 -0.000382746 0.00167915 0.000921841 0.00626051 0.00519853 0.00275304 0.00172875 -0.00120664 -0.00424428 -0.00436273 -0.00181611 0.00364638 0.0039921 0.00673106 0.00262893 1.30589e-05 0.00326781 0.00725219 0.00171504 0.00135447 0.00520535 0.00301868 -0.000206673 0.00663578 -0.00138179 -0.00101822 -0.00453079 0.00509753 0.00426839 -0.00324415 -0.00460138 -0.00317057 -0.00471551 -0.0037843
internal_weight=0 450.11 310.439 427.362 398.797 68.107 172.121 155.59 138.318 110.108 83.3201 35.037 72.2699 330.69 322.32 63.2072 33.2754 58.2408 75.0706 28.5652 28.5803 26.5935 65.7645 21.9229 19.9947 36.3179 16.3493 25.0793 22.7482 16.4944 16.0966 306.223 22.0325 17.9316 34.6269 297.943 26.2624 271.681 26.9389
internal_count=3924 2377 1547 2265 2121 349 870 789 677 541 415 175 374 1772 1728 329 167 288 366 144 147 132 320 109 102 179 81 127 112 84 84 1644 110 88 182 1601 140 1461 142
cat_boundaries=0 1
cat_threshold=2
is_linear=0
shrinkage=0.00388889


Tree=13
num_leaves=45
num_cat=0
split_feature=50 28 21 21 59 71 26 117 128 25 83 91 149 26 117 16 50 16 9 26 16 71 9 71 41 128 71 25 26 157 128 26 187 150 25 9 25 149 150 128 131 41 162 157
split_gain=437.414 134.867 95.0946 90.6481 46.2613 38.1521 27.9332 27.4673 24.4189 23.1559 19.0432 17.3104 13.2289 13.0763 12.1881 12.1789 11.6889 11.6588 11.2167 11.1743 9.9341 9.81414 9.78458 9.57142 9.37617 7.91625 7.17325 7.90385 6.38342 6.17458 5.97435 5.43318 5.18621 4.4536 3.06599 2.85028 2.73712 2.44734 1.87199 1.63356 1.42165 0.896766 0.843004 0.269646
threshold=0.057160612195730216 0.24616730213165286 0.24281329149380329 0.24281329149380329 0.35741646587848669 0.19683491438627246 0.17653194814920428 0.0085083669982850569 0.33607320487499243 0.40226946771144872 0.0086177797056734579 0.0013684382429346444 1.0026729702949526 0.052850859239697463 0.0073850043118000039 0.32532504200935369 0.1839706748723984 0.22429614514112475 0.17691669613122943 0.077405966818332686 0.34429214894771581 0.24149992316961291 0.14748520404100421 0.21014542877674106 0.0044317212887108335 0.91874322295188915 0.061766374856233604 0.10917621105909349 0.069232635200023665 0.23131603002548221 0.96705743670463573 0.21088021248579028 0.0086452295072376745 0.10903136804699899 0.10326865315437318 0.22569035738706592 0.0058345601428300151 0.0098534151911735552 0.19590857625007632 0.95466589927673351 0.97323533892631542 0.0020920785609632735 0.0067266579717397698 0.17020352929830554
decision_type=2 2 2 2 2 2 2 2 2 2 2 2 2 2 2 2 2 2 2 2 2 2 2 2 2 2 2 2 2 2 2 2 2 2 2 2 2 2 2 2 2 2 2 2
left_child=2 3 5 4 18 19 8 26 -5 35 13 -10 24 25 32 -8 22 41 30 -1 23 -14 -13 -15 -6 -9 -4 34 -19 -16 38 -20 42 -17 43 37 -24 -3 -2 -21 -40 -12 -7 -28
right_child=1 9 7 6 12 14 15 10 11 -11 17 16 21 20 29 33 -18 28 31 39 -22 -23 36 -25 -26 -27 27 -29 -30 -31 -32 -33 -34 -35 -36 -37 -38 -39 40 -41 -42 -43 -44 -45
leaf_value=0.00072308201372560344 -0.0040951364863996993 -0.0016759679487149365 0.002437810438256781 -0.00074279416956262042 0.00013418976373467186 0.0053757222165504142 0.0016407197622603795 0.00096921464161616659 -0.00064637692668663806 0.0011010981102114808 0.0033459912356391848 0.0018660101730232665 -0.0032574687486359504 -0.00024806179591397822 0.0020624655746058081 -0.0035195857029324523 0.00067928426283616911 0.0038553646527517511 0.001374700005100666 -0.0038106713796587682 -0.0021828449688142191 0.0010922877487150589 0.0029399064673265056 0.0038589712154896536 0.004661999710439459 0.0054163571588966859 0.0063395973907691399 0.0079286966154782541 -7.4100485297299483e-05 -0.0015098898616266207 -0.00094237950464128603 -0.0021424368874793332 0.001210932241263738 -0.00025542490501869006 0.0022722592749104945 -0.0014184153621328815 0.0064143084733250862 -0.0041264128450489712 -0.00092044513928670629 -0.0014834704596457787 -0.0031013172578822534 0.0063731391750838536 0.0025239469796932328 0.0035086028117939758
leaf_weight=10.494182348251341 65.681044980883598 8.4337252825498563 8.2621671706438047 15.253505975008009 8.4561836570501345 11.559887006878858 13.347612977027895 8.0035331249237078 7.9289961308240882 9.6762719601392728 9.1521384716033918 11.290914803743361 8.011817544698717 13.277834251523023 7.9071371555328396 10.681523725390436 8.637489974498747 8.4475700259208697 8.0440188944339734 17.24655289947987 8.8316505849361402 11.925438344478605 8.4667633175849897 9.6306758970022184 11.211178675293921 12.115408331155775 15.406086564064028 35.505472362041473 8.0654654353857023 9.7666489183902723 10.871995538473127 7.5718540400266638 9.279205456376074 7.856729343533515 8.4330927282571775 7.5191490650176993 30.13048230111599 203.51704199612141 7.9990022182464626 8.6759531050920469 9.4432960748672468 29.016365766525269 8.1175038963556272 10.918448001146315
leaf_count=54 354 45 41 78 43 57 67 40 40 50 45 57 42 68 40 56 44 41 42 92 45 60 42 47 56 59 74 169 40 50 57 40 46 40 41 40 148 1102 42 45 50 142 40 53
internal_value=0 -0.00189002 0.00338561 -0.000254544 -0.00195148 0.000406954 0.00196973 0.00470362 0.0029825 -0.00374733 0.00348366 0.0038343 0.00109582 0.00192351 0.00235976 -0.00064836 0.00444265 0.0048432 -0.00305244 -0.00208621 0.000517132 -0.000793274 0.00504292 0.00164973 0.00290732 0.00389485 0.00623119 0.00659743 0.00213541 0.000135533 -0.0034792 -0.000380296 0.00362085 -0.0022958 0.00488009 -0.00396911 0.00583455 -0.00404549 -0.00378106 -0.00319384 -0.00229876 0.00585003 0.0045407 0.00549607
internal_weight=0 491.956 268.113 262.81 149.216 83.0471 113.594 185.066 81.7082 229.146 106.541 66.4546 39.6046 51.8591 46.6304 31.8859 58.5257 54.6815 109.611 36.4167 31.7402 19.9373 49.8882 22.9085 19.6674 20.1189 78.5253 70.2631 16.513 17.6738 93.9953 15.6159 28.9566 18.5383 34.7576 219.47 38.5972 211.951 83.1233 25.9225 17.4423 38.1685 19.6774 26.3245
internal_count=3924 2595 1329 1358 786 424 572 905 409 1237 527 331 201 259 233 163 291 268 585 191 160 102 247 115 99 99 378 337 81 90 503 82 143 96 168 1187 190 1147 446 137 92 187 97 127
is_linear=0
shrinkage=0.00333333


Tree=14
num_leaves=40
num_cat=0
split_feature=20 8 21 8 80 79 70 8 190 9 191 8 9 77 9 205 204 1 20 108 74 122 129 161 77 19 191 19 108 1 70 36 205 74 126 70 166 160 77
split_gain=449.878 163.291 143.528 93.7941 59.614 47.534 29.1882 28.3058 25.559 21.9733 17.0668 14.5326 14.0095 13.9292 12.1395 19.074 11.8622 10.6335 9.54516 9.45812 9.0331 8.90874 7.87734 10.8815 6.55922 6.1476 5.7826 5.51745 4.87881 5.81366 4.54458 4.14305 4.13993 3.9571 3.03538 2.39694 1.83428 0.570361 0.126569
threshold=0.07692784816026689 0.19266391545534137 0.24281329149380329 0.036008534952998168 0.037531737238168723 0.064148522913455977 0.30662752687931066 0.18887659162282947 0.30888451254463073 0.15850295871496203 0.28724887692420786 0.18880786001682284 0.20211079716682437 0.0070860921405255803 0.18296573311090472 0.22480891819240076 0.31529312563795325 0.090191282331943526 0.24102970212697986 0.0042469147592782983 0.15029499679803851 0.0052533042617142209 0.14071844518184665 0.57299548387527477 0.0097619611769914644 0.17731066048145297 0.20230838350127864 0.01157826976850629 0.0060145766474306592 0.0040595380123704681 0.20615340769290927 0.013465277384966614 0.16517657309118816 0.073481190949678435 0.005499863764271141 0.40426145493984228 0.0030835722573101525 0.13422306627035144 0.0052439090795815
decision_type=2 2 2 2 2 2 2 2 2 2 2 2 2 2 2 2 2 2 2 2 2 2 2 2 2 2 2 2 2 2 2 2 2 2 2 2 2 2 2
left_child=1 5 4 38 12 11 18 8 10 20 14 21 17 35 15 32 33 36 -6 -17 24 -1 23 31 37 -9 -19 34 29 -29 -20 -8 -5 -11 -10 -12 -2 -7 -4
right_child=2 -3 3 7 6 9 22 25 27 16 13 -13 -14 -15 -16 19 -18 26 30 -21 -22 -23 -24 -25 -26 -27 -28 28 -30 -31 -32 -33 -34 -35 -36 -37 -38 -39 -40
leaf_value=0.0064589976732608474 -0.0027667900178228052 0.0095899398189251191 -0.0027623903614071637 0.0027589949339569195 -0.0034816452464115481 -0.0036062195582339516 0.008571540630920322 0.01181993783821398 0.012545398807494501 -0.0048184634275809275 -0.0036778675228278544 -0.0027256604334898408 0.0020259130346221106 0.0052674891819527048 0.0089964559364197408 -0.0029679931883474231 0.0023036497039655864 0.001536989376236639 -0.00059844345067925167 0.0033154408287990596 -0.0003881388369654157 1.4927199879248462e-05 0.010134901376541928 0.00010061799636890073 -0.0016521198527519937 0.0050895201088782226 -0.0033316825896995057 0.00078429450248831815 0.0088624520164394538 0.0060834952872933961 0.0039942877906542166 0.0034762843047877363 0.0079148111953645153 -0.00042993064036829666 0.0065946237279501203 -2.9781133483657235e-06 -0.0056843575285279524 -0.0061732856601363325 -0.0055626505958292711
leaf_weight=9.8980447947978991 13.995222777128218 19.717629984021187 8.6359693706035632 8.7069795131683367 12.668584436178209 12.090251982212065 10.19901102781296 38.508688896894455 16.069197177886966 15.683854952454569 8.4721997380256706 15.01033742725849 11.460295036435125 8.2011029273271543 17.970480695366859 10.335611850023271 12.231139630079268 12.180676862597467 9.7258427888155001 10.090002700686453 7.9979277104139319 10.131884649395941 8.473025828599928 10.710186779499052 10.61902543902397 8.6683865338563901 9.1772832572460157 8.1527444869279879 17.180459931492805 17.391622200608253 9.3907454460859281 13.348236992955206 18.09558767080307 8.0380226075649244 12.575245589017866 7.9677027016878119 34.28136171400547 257.12580581009388 8.4026538133621198
leaf_count=49 74 96 44 43 66 65 50 183 76 84 43 79 59 41 87 52 64 62 49 50 42 51 41 54 57 42 48 40 83 84 47 67 88 42 60 40 182 1397 43
internal_value=0 -0.00392334 0.00382625 0.00638234 8.93697e-05 -0.00471494 0.00330327 0.00731394 0.00616168 -0.00531619 0.00421297 0.000827913 -0.00287221 0.000570104 0.0055318 0.00390153 -0.00149504 -0.0037124 -0.000372653 0.000154786 -0.00577988 0.00349665 0.00593203 0.0043908 -0.00593013 0.0108406 -0.00066115 0.008433 0.00661643 0.00457197 0.00182227 0.00618147 0.00654781 -0.00348051 0.0105339 -0.00209033 -0.00498228 -0.00608545 -0.00458266
internal_weight=0 378.544 381.035 225.425 155.61 358.826 74.5156 208.386 161.209 323.786 89.8397 35.0403 81.0948 24.641 65.1987 47.2282 35.953 69.6345 31.7852 20.4256 287.833 20.0299 42.7305 34.2574 279.835 47.1771 21.358 71.3693 42.7248 25.5444 19.1166 23.5472 26.8026 23.7219 28.6444 16.4399 48.2766 269.216 17.0386
internal_count=3924 2026 1898 1099 799 1930 374 1012 787 1751 444 179 425 124 320 233 190 366 162 102 1561 100 212 171 1519 225 110 343 207 124 96 117 131 126 136 83 256 1462 87
is_linear=0
shrinkage=0.00504808


Tree=15
num_leaves=40
num_cat=0
split_feature=47 12 12 79 31 31 15 35 31 47 35 35 46 35 47 35 172 75 13 171 13 15 38 38 127 12 75 12 75 208 41 122 33 38 208 47 13 75 183
split_gain=473.469 142.954 133.757 53.9414 50.4376 43.2123 35.3803 30.0718 22.5689 19.369 17.7027 17.2492 16.0693 15.6243 15.5367 13.0062 13.1898 10.0384 9.76445 9.5703 8.74321 6.87054 6.47022 6.07074 5.90024 5.67751 4.97136 4.4054 4.40273 4.36826 4.10982 3.17797 2.94125 2.36311 1.82255 1.6855 1.5426 1.27552 0.310359
threshold=0.44927389919757849 0.031980723142623908 0.13783009350299838 0.14131796360015872 0.082972150295972838 0.052723849192261703 0.42580275237560278 0.17033169418573382 0.0083651524037122744 0.27414561808109289 0.22495271265506747 0.10063976794481279 1.0007327198982241 0.37265741825103765 0.80583420395851146 0.17208391427993777 0.0057138230185955772 0.13758732378482821 0.0064226055983453998 0.0090122721157968062 0.018786964006721977 0.58976185321807872 0.30428615212440496 0.83560612797737133 0.0057979184202849874 0.21231868863105777 0.072524491697549834 0.0081181018613278883 0.200602762401104 0.16991844865125069 0.007718555862084032 0.0051616381388157615 1.0001515150070193 0.079461116343736662 0.24121051954232151 0.77353164553642284 0.031074818223714832 0.20417402684688571 0.0057035011705011138
decision_type=2 2 2 2 2 2 2 2 2 2 2 2 2 2 2 2 2 2 2 2 2 2 2 2 2 2 2 2 2 2 2 2 2 2 2 2 2 2 2
left_child=1 3 6 15 13 10 19 23 18 33 21 -10 17 22 20 -1 -17 -6 -8 -2 -9 30 32 29 -11 -19 -15 -18 31 -7 -4 -13 -3 -5 -24 -20 -30 -34 -16
right_child=2 4 5 9 12 7 8 14 11 24 -12 28 -14 26 38 16 27 25 35 -21 -22 -23 34 -25 -26 -27 -28 -29 36 -31 -32 -33 37 -35 -36 -37 -38 -39 -40
leaf_value=0.00022029013662238218 -0.0010481370521554152 -0.00099535071159904324 -0.002646458495569849 -0.0026648664446687394 -0.0020232710526334767 -0.0017495917168938136 0.0030742111484963271 0.0025138710891858106 0.0011402760636280576 0.0017368022249063405 0.00098075211860048717 0.0041150043370243201 0.0028020915938612519 -0.0013548577542743744 0.0052485094851657263 0.00064130303032177848 0.004371172416833196 0.0017023230463990083 -9.1040566840799162e-05 0.001980828934379899 -0.00056068177224012704 4.5463712860258787e-05 -0.001754750642264677 0.0013120461446132275 -0.00067386934476941311 -0.00064733936935153702 0.00085097623711016617 0.0019244116606776036 0.0050078011257723657 0.00025427679018139005 -0.0006748957491000756 0.0022185122122896565 -0.0028623572740110168 -0.00084690793274268597 -0.00026169915692235353 0.0012402627244466917 0.0027830118991326635 -0.0013334909994497566 0.0028286121230108926
leaf_weight=12.095441311597822 10.608338773250582 7.6274726986885062 27.430529803037643 17.999341994524006 12.30110912024975 10.725713029503828 16.207472041249275 8.3703207969665545 11.135749354958532 10.999678596854212 15.196337088942526 18.6148422062397 7.9447995722293845 10.979159325361254 8.2743468433618563 11.064802497625349 20.710445687174801 8.698343753814699 9.6732761710882205 8.1100680828094465 8.3499984592199308 8.7598266750574094 9.6685999333858508 8.0934135317802411 7.9062053561210623 9.7471852600574476 7.699211671948432 10.928533047437666 74.825142294168472 9.9341991394758207 9.1119683831930143 19.475404739379883 255.1048070192337 7.8459956198930731 8.3230405002832395 8.202642619609831 10.543860122561453 8.0865867584943754 11.643498077988623
leaf_count=61 53 41 146 96 65 55 79 41 55 55 78 90 40 59 40 55 101 43 48 40 42 46 52 40 40 50 40 54 353 50 48 95 1397 41 44 40 51 43 57
internal_value=0 -0.00154563 0.00215749 0.000885304 -0.00224576 0.000303115 0.00338688 0.00158473 0.00371841 -0.000978201 -0.00108852 0.0041516 0.000234413 -0.00255734 0.00291898 0.00238798 0.00296463 -0.000559673 0.00187246 0.000328733 0.00108259 -0.00179477 -0.00268951 -0.000194669 0.000760654 0.000518812 -0.000451239 0.0036907 0.0044007 -0.000848634 -0.00221538 0.00330439 -0.00278192 -0.00221346 -0.00115935 0.000583167 0.00480302 -0.00282579 0.0042211
internal_weight=0 445.731 313.287 99.5504 346.18 125.89 187.397 65.3915 168.678 44.7512 60.4987 134.595 38.6914 307.489 36.6382 54.7992 42.7038 30.7466 34.0834 18.7184 16.7203 45.3023 288.811 28.7533 18.9059 18.4455 18.6784 31.639 123.459 20.6599 36.5425 38.0902 270.819 25.8453 17.9916 17.8759 85.369 263.191 19.9178
internal_count=3924 2377 1547 503 1874 643 904 325 811 232 318 644 198 1676 180 271 210 158 167 93 83 240 1577 145 95 93 99 155 589 105 194 185 1481 137 96 88 404 1440 97
is_linear=0
shrinkage=0.00231481


Tree=16
num_leaves=39
num_cat=0
split_feature=50 73 117 21 79 71 5 129 19 23 5 188 19 19 71 193 117 117 73 27 97 71 5 23 77 192 71 6 4 6 93 16 201 45 27 21 16 6
split_gain=428.838 119.333 126.115 91.7779 37.8077 37.66 32.4526 29.6056 26.1283 22.4798 22.3539 22.0698 17.3545 13.5681 13.3913 19.3167 11.3565 9.2704 15.6002 9.04313 9.00601 8.8952 10.247 8.62005 6.67715 6.49511 5.16013 4.19353 3.55099 2.88517 2.46303 2.17447 2.09083 1.98701 1.576 1.0435 0.907619 0.890354
threshold=0.057160612195730216 0.9530283808708192 0.0099508035928010958 0.24281329149380329 0.13890968263149264 0.19683491438627246 0.23348286002874377 0.35113371908664709 0.10768547281622888 0.33338072896003729 0.24540320038795474 0.22855561111070263 0.17895518243312838 0.072216428816318526 0.098850157111883177 0.52316671404507342 0.0062168824952095756 1.0005262494087221 0.95929762721061718 0.56694063544273388 0.0072774610016494998 0.25478006899356848 0.1817131116986275 0.0072113415226340303 0.0097619611769914644 0.33616893620421168 0.042918112128973014 0.00847023678943515 0.0067385018337517985 0.0097111808136105555 0.0066121926065534362 0.43833105266094213 0.14718103990504691 0.27556958794593817 0.67865765094757091 1.0007339715957644 0.40322899818420416 0.0070584581699222335
decision_type=2 2 2 2 2 2 2 2 2 2 2 2 2 2 2 2 2 2 2 2 2 2 2 2 2 2 2 2 2 2 2 2 2 2 2 2 2 2
left_child=3 2 7 5 21 20 9 11 -6 12 16 14 17 19 29 -16 28 34 25 -4 37 22 -3 -13 -15 -19 -8 36 -7 35 -10 -18 -24 -28 -5 -2 -21 -1
right_child=1 4 13 6 8 10 26 -9 30 -11 -12 23 -14 24 15 -17 31 18 -20 27 -22 -23 32 -25 -26 -27 33 -29 -30 -31 -32 -33 -34 -35 -36 -37 -38 -39
leaf_value=-0.0032027566835209549 -0.0031851684061734286 0.0012061133929372084 0.00025380374854903275 0.005205796058029415 0.0027230279410920847 0.00060890575046759733 0.0024638006393176903 0.0048957489300050592 -0.0029111343799779949 -0.00048920252758152989 0.0047539910431752871 0.0033230695698302885 0.0003941987868197347 -0.0035120339450241955 0.0028464525222639384 -0.0016211599371003609 4.4278543999669149e-05 -0.00023234557198737165 0.004537514284286559 -0.0017517126556438152 0.00028677823381188317 0.00019511983807226469 0.0050994260236862845 0.00014387940885608559 -0.00081148972232839012 0.0027073886515783397 0.0033256171787521575 -0.00038738160905336081 0.0033002006766990133 -0.00056951983299248336 -0.00095468143232650855 -0.0019526865359465245 0.0023414208007708466 0.006124633440045598 0.0026536069490588174 -0.0013026298895495989 -0.0034072214531292557 -0.0014754860858373566
leaf_weight=15.044322535395624 14.935094982385641 13.381206780672072 13.781479224562643 35.234291762113571 10.694207459688185 8.4673908501863497 8.5831877142190915 9.5131058841943723 15.55085548758507 13.435880139470099 14.256195202469824 15.529257580637934 14.238203585147856 247.1223331540823 12.656651526689531 15.232616618275641 7.8977906703948957 14.818647205829622 17.287838891148567 12.675369009375574 11.548741996288298 8.1032324433326703 19.259059354662899 11.861833631992338 9.1390812844037992 8.1396255344152433 10.676122307777403 7.6420486420392981 8.1109129935502988 8.1992621272802335 11.484614878892897 7.94870825111866 8.7306613773107511 54.243085727095604 9.4644698500633222 7.788641393184661 17.182647481560707 9.7020003050565702
leaf_count=80 80 67 72 169 53 42 43 47 82 67 70 77 71 1346 64 78 40 75 84 67 60 40 94 60 49 40 51 40 40 43 60 41 43 259 46 41 92 51
internal_value=0 -0.00160867 -0.00226243 0.00286589 0.00139745 0.000353816 0.00397015 0.000592451 -0.000739994 0.00291548 0.00201384 1.73083e-05 0.00337726 -0.00314904 -0.000965574 0.000461114 0.000602866 0.0038567 0.00262895 -0.00170409 -0.00177489 0.00299291 0.00350664 0.00204979 -0.00342276 0.00094333 0.00546605 -0.00240005 0.00213916 -0.00220215 -0.00220305 -0.00106397 0.00445267 0.00577748 0.0048022 -0.0026975 -0.00285852 -0.00268655
internal_weight=0 490.463 403.259 269.097 87.2038 82.9761 186.121 95.7165 37.7297 112.619 46.681 86.2034 99.1831 307.543 58.8123 27.8893 32.4248 84.9449 40.2461 51.2815 36.2951 49.4742 41.3709 27.3911 256.261 22.9583 73.5024 37.5001 16.5783 30.923 27.0355 15.8465 27.9897 64.9192 44.6988 22.7237 29.858 24.7463
internal_count=3924 2595 2156 1329 439 424 905 490 195 552 233 443 485 1666 306 142 163 414 199 271 191 244 204 137 1395 115 353 199 82 164 142 81 137 310 215 121 159 131
is_linear=0
shrinkage=0.00285714


Tree=17
num_leaves=45
num_cat=0
split_feature=71 192 192 117 56 38 202 152 71 45 133 192 38 38 117 48 53 76 124 191 183 161 145 53 117 48 93 118 56 38 117 56 124 202 201 160 112 161 136 205 89 117 117 154
split_gain=404.834 119.863 88.2082 63.1202 35.1033 32.0012 24.2353 22.0071 15.9185 15.7286 15.5418 14.3474 11.1327 10.8445 10.253 9.48793 10.27 9.16105 8.5536 8.39419 8.35424 7.79807 7.14961 6.46548 5.90676 5.45073 9.95581 5.41497 5.12474 4.94562 4.92676 4.31593 4.00785 5.7401 3.87494 3.54161 2.99425 2.98561 2.87481 2.50338 2.13591 1.81326 1.41588 0.471206
threshold=0.056488340720534332 0.36754385964912284 0.21525096525096529 0.0099508035928010958 0.47673718631267553 0.29447445273399359 0.18396600054996701 0.082488396205008044 0.19683491438627246 0.19725384563207629 0.009985932148993017 0.25378787878787884 0.14340129494667056 0.21145500987768176 1.0000420212745669 0.0021928009809926157 0.0057059230748564014 0.036038905382156379 0.0074980021454393872 0.19998743876397443 0.0047582627739757308 0.43479761481285101 0.0012407980975694957 0.0063268260564655074 1.0029835104942324 0.0042398332152515658 0.0061723545659333476 0.0069001044612377891 0.64787703752517711 0.54517069458961498 1.0036326646804812 0.066513996571302428 0.002510163933038712 0.28928179803740423 0.70338831988881856 0.46864520013332372 0.0050612043123692283 0.28846846520900732 0.083593357354402556 0.16989135618285031 0.50042685866355907 0.0037193108582869176 0.0073850043118000039 0.17861466109752658
decision_type=2 2 2 2 2 2 2 2 2 2 2 2 2 2 2 2 2 2 2 2 2 2 2 2 2 2 2 2 2 2 2 2 2 2 2 2 2 2 2 2 2 2 2 2
left_child=1 5 3 9 6 14 -4 24 37 -2 30 28 -8 -11 27 -9 32 -15 36 22 -10 -22 -19 39 -6 26 41 35 -7 -21 -3 -24 -17 -34 -33 -1 -18 -5 -16 -12 -40 -14 -27 -39
right_child=2 10 4 8 7 11 12 15 20 13 23 -13 25 17 38 16 18 19 -20 29 21 -23 31 -25 -26 42 -28 -29 -30 -31 -32 34 33 -35 -36 -37 -38 43 40 -41 -42 -43 -44 -45
leaf_value=-0.00079891942948663737 -0.0010472920117376417 -0.0022217753329580731 -7.9746332923204215e-05 -0.0013408214026329026 0.001567358334662605 0.00052183797503640506 0.00211517242657533 0.00073728348656268276 -0.0021733977903557861 -0.00026702098590067639 0.003283322036072716 0.0036240154989965476 0.0085868813624361759 0.00029892488532799765 -0.0019239287051020261 0.0024100567655316856 0.0050361320556514527 0.0011831523696160849 -0.00096335480649063733 -0.00058426953964277979 0.0041568982691746565 -0.00079470613232194426 0.0027083336003495386 0.0015456387017010293 -0.0023533436650163297 0.0086992594467534441 0.002004918268871436 0.00034539614757165583 -0.0033831096005523475 0.0031569485519281119 0.0013948441752018599 0.0027816956377149787 0.007316558932273988 0.0025558214909348984 0.0069465036793518488 -0.0040486190681622933 0.0014942640142082228 -0.0024857014743404852 -0.0046156364174372161 0.0073544146344644047 -0.0023127315024306914 0.0042351747704787732 0.0051582426978409972 -0.0047224415906424021
leaf_weight=9.1287450492382067 15.068661943078039 7.7708522230386761 8.8931506723165494 9.6891197860240919 8.0138753205537814 7.8767697662115159 9.7946817576885206 14.921204924583433 11.503468036651613 12.384516909718512 10.872100889682775 9.6142251342535001 8.6616294384002703 11.554488882422445 10.857043430209158 8.7731691598892194 8.6485760509967857 8.40393418073654 8.2810463011264783 8.3642405569553393 8.1165501177310961 8.1425600945949537 12.146724283695219 11.287905171513556 12.293646216392515 40.1887047290802 12.890505582094191 10.308939039707182 10.264509767293928 10.568152472376822 11.673014283180235 8.2488590925931913 21.624189823865894 8.1172526180744153 26.336996138095856 14.138082027435301 9.1151381880044919 10.279637441039087 236.83833588659763 8.2404806166887266 12.569368258118628 11.057796239852903 13.948208495974539 21.192913681268692
leaf_count=48 77 40 45 51 41 41 49 74 60 63 54 49 41 58 59 43 42 41 41 42 41 42 59 56 64 191 62 54 55 52 59 40 105 40 127 76 45 54 1301 40 68 53 67 114
internal_value=0 -0.00291765 0.00275022 0.000765499 0.00448599 -0.00378573 0.00605077 0.00274626 -0.00213016 0.00253686 0.00261317 0.00019331 0.00660566 0.00309785 -0.00416035 0.00365092 0.00428194 0.00357953 0.00215129 0.00406997 0.000156033 0.00186169 0.00483013 0.00426275 -0.000804309 0.00705358 0.00510568 -0.00196697 -0.00180414 0.00160618 -0.00012295 0.00541049 0.00554542 0.00626015 0.00615956 -0.00293778 0.00355383 -0.00360793 -0.00442615 0.00556902 -0.0045189 0.00676135 0.00800321 -0.00418406
internal_weight=0 371.44 387.224 182.001 205.223 321.596 105.435 99.7881 68.9242 113.077 49.8444 27.7555 96.5415 98.0079 293.841 79.4806 64.5594 85.6234 26.0448 74.0689 27.7626 16.2591 55.1365 30.4005 20.3075 86.7468 32.6099 33.5758 18.1413 18.9324 19.4439 46.7326 38.5146 29.7414 34.5859 23.2668 17.7637 41.1617 260.265 19.1126 249.408 19.7194 54.1369 31.4726
internal_count=3924 2000 1924 921 1003 1751 508 495 362 559 249 145 463 482 1606 390 316 419 128 361 143 83 267 150 105 414 156 178 96 94 99 226 188 145 167 124 87 219 1428 94 1369 94 258 168
is_linear=0
shrinkage=0.00388889


Tree=18
num_leaves=44
num_cat=0
split_feature=21 19 19 5 79 129 27 80 15 15 129 16 158 19 79 129 65 81 5 201 190 105 5 174 65 79 100 68 19 65 78 174 5 21 190 15 65 65 114 114 78 80 27
split_gain=362.13 169.825 135.249 94.5435 52.5391 42.1758 32.8486 22.7578 20.7259 20.672 19.9899 16.2828 13.4291 12.2247 23.8306 11.3823 9.61925 8.78771 7.82723 7.34795 11.0668 7.17294 10.4784 6.78111 6.64733 6.5489 5.5355 5.34587 5.30058 4.96317 4.65124 3.98111 3.96439 3.91765 3.23389 2.65421 1.80753 1.43928 1.38059 1.36677 0.631061 0.524131 0.874686
threshold=0.24281329149380329 0.18458292633295062 0.034578120335936553 0.23007501661777499 0.22485401481390002 0.14071844518184665 0.50833404064178478 0.038372900336980827 0.42580275237560278 0.44334329664707189 0.14079987257719043 0.39345034956932073 0.14535635709762576 0.020278703421354297 0.069210175424814238 0.13894259184598926 0.009509665425866844 0.0098678735084831732 0.22001165896654132 0.14930935816664834 0.29143826453009619 0.0052845689933747062 0.17945490777492526 0.0049216325860470542 0.0026536739896982913 0.065655905753374114 0.0076047214679420003 0.012870247010141613 0.1786795258522034 0.0099700307473540323 0.003731442149728537 0.007747544441372157 0.22226802259683612 1.0041792988777163 0.29590646910903345 0.60893118381500255 0.15711189806461337 0.0071420560125261554 0.0050550401210784921 0.0055021462030708798 0.0018034477834589782 0.28714488446712499 0.85234627127647411
decision_type=2 2 2 2 2 2 2 2 2 2 2 2 2 2 2 2 2 2 2 2 2 2 2 2 2 2 2 2 2 2 2 2 2 2 2 2 2 2 2 2 2 2 2
left_child=2 3 5 4 6 7 33 12 23 -5 17 13 -1 27 21 18 -13 29 26 -16 -21 31 -23 -8 -11 -3 30 39 -26 35 -9 -15 37 -2 -6 41 40 -14 -33 -10 -27 42 -4
right_child=1 25 10 9 34 -7 8 15 11 24 -12 16 32 14 19 -17 -18 -19 -20 20 -22 22 -24 -25 28 36 -28 -29 -30 -31 -32 38 -34 -35 -36 -37 -38 -39 -40 -41 -42 -43 -44
leaf_value=0.00095011764021591229 0.0028974650473756647 -1.4767050469088032e-05 -0.0035987454523993476 0.0005596901996759463 -0.0030647642481081033 0.0048277951277136029 -0.0028721035377986242 1.5610522248017148e-05 0.00639324692007231 0.002532622026650349 0.0010179096944042871 -0.0017989602492132939 -0.0033739537575957889 0.001981300617396388 -0.0018836685336554976 -0.0015174284799245943 0.0016600427447970901 -0.00066410696506625047 0.0037455891877750018 -0.0014471374785027763 0.0023114469043492413 -0.00049412087460266657 0.00326726906577029 0.00038661442422449242 0.0060145468341641717 -0.0015710603086837437 -0.00090636013154332608 0.0017402705041344563 0.0029896122054290839 -0.00104329128520416 0.0028514122107494901 0.0028573233842839932 -0.00051135234060238741 0.0061428690955160695 -0.00064419215246352881 -0.0016175871450382637 -0.0011600340583649931 -0.0013064814633248043 0.0061245786050029777 0.0030032688743860513 -0.0033224941324489872 -0.0019221685343375288 -0.001844735499177199
leaf_weight=13.295330479741095 11.611291170120241 8.1276266574859601 214.538903221488 8.610295891761778 14.833982840180399 15.874596521258352 7.938436612486842 7.9448562711477342 8.4397893995046669 11.021989822387694 8.940374404191969 12.301307782530786 18.278286531567577 9.4812380820512789 10.035158053040503 8.1765195131301862 11.12160801887512 12.091881334781645 12.447444796562193 9.2726567238569277 14.9093721807003 10.087743759155275 12.953139156103132 11.077806159853933 78.688958987593651 7.7454027831554404 8.0190469771623594 8.3241071254014951 11.898369237780569 9.9387350678443891 11.020603120326994 8.4030008614063281 8.7354780882596952 15.809424459934233 8.3049127459526044 11.735680505633352 8.1992398202419263 7.6524500846862784 9.060405418276785 8.5374711304903013 34.67170849442482 9.4533915966749174 9.0524596124887449
leaf_count=69 56 42 1178 43 80 77 41 40 40 53 46 63 97 47 51 41 55 64 61 48 75 50 63 56 375 42 40 40 58 53 55 41 45 76 43 63 43 40 44 41 189 51 49
internal_value=0 0.00203332 -0.00198714 0.0028867 0.00167593 0.00071561 0.00221082 -5.23978e-05 0.00163777 0.0050417 -0.00307674 0.00204267 -0.00144083 0.00250714 0.00189319 0.00134803 -0.000155166 -0.0032205 0.00198678 2.79426e-06 0.000869747 0.00313735 0.00171251 -0.00111761 0.00540336 -0.00245512 0.000972985 0.004262 0.0056904 -0.00333574 0.00177829 0.00415322 -0.00235964 0.005059 -0.00231636 -0.00341961 -0.00283152 -0.00290107 0.00500762 0.00518469 -0.00308783 -0.00349582 -0.00354472
internal_weight=0 371.466 387.196 312.722 202.503 111.445 179.364 95.57 151.943 110.22 275.751 132.927 47.9615 109.504 84.2027 47.6085 23.4229 266.811 39.432 34.2172 24.182 49.9855 23.0409 19.0162 101.609 58.744 26.9845 25.3014 90.5873 254.719 18.9655 26.9446 34.6662 27.4207 23.1389 244.78 50.6164 25.9307 17.4634 16.9773 42.4171 233.045 223.591
internal_count=3924 1855 2069 1539 1010 565 887 488 755 529 1504 658 251 540 419 237 118 1458 196 174 123 245 113 97 486 316 135 121 433 1394 95 132 182 132 123 1341 274 137 85 81 231 1278 1227
is_linear=0
shrinkage=0.00291667


Tree=19
num_leaves=44
num_cat=0
split_feature=10 73 35 130 56 17 202 17 10 35 35 166 138 30 91 17 56 41 20 97 33 119 17 113 56 91 91 196 35 20 20 130 166 94 80 138 88 197 41 30 97 56 1
split_gain=557.754 112.945 73.5514 59.375 47.9977 34.008 29.5535 25.3317 21.2447 16.0618 13.2769 13.462 12.2993 11.0641 10.6203 9.85984 8.97629 8.43021 8.17419 12.0144 8.14923 9.29797 7.74833 7.52317 8.22093 18.2619 7.06798 6.68412 6.51005 6.27842 4.96769 4.34134 4.14675 3.8962 3.8925 3.31924 2.85286 2.25738 1.8856 1.4829 1.13613 1.08405 0.0183355
threshold=0.058060806244611747 0.0099684316664934176 0.17033169418573382 0.13634377717971805 0.52881681919097911 0.49730300903320318 0.18801236814315261 0.1196318455040455 0.13443319499492648 0.34373459219932562 0.10063976794481279 0.0039761096704751262 0.0042769168503582486 0.072859134525060668 0.0016066558891907336 0.39898198843002325 1.0040271282196047 0.005274728639051319 0.07692784816026689 0.0076179055031389007 1.0067611932754519 0.0064609437249600896 0.4617722779512406 0.009178526699543001 0.38184244930744177 0.0098291612230241316 0.0072866049595177182 0.26992129134903492 0.38233828544616705 0.09412106499075891 0.41059696674346929 0.9342688024044038 0.0057396639604121455 1.0049532651901247 0.022081796079874042 0.33548504114151007 0.0065108283888548621 0.22617060435250205 0.0097452546469867247 0.0096146706491708773 0.0032599837286397819 0.34273886680603033 0.59560304880142223
decision_type=2 2 2 2 2 2 2 2 2 2 2 2 2 2 2 2 2 2 2 2 2 2 2 2 2 2 2 2 2 2 2 2 2 2 2 2 2 2 2 2 2 2 2
left_child=1 4 5 27 9 26 22 31 14 18 11 -7 -9 36 -8 28 20 -17 -1 33 21 34 -5 24 -16 32 41 30 38 -28 -4 -3 -26 35 -14 -20 39 -10 42 -12 -35 -2 -6
right_child=2 7 3 6 15 10 8 12 37 -11 13 -13 16 -15 23 17 -18 -19 19 -21 -22 -23 -24 -25 25 -27 29 -29 -30 -31 -32 -33 -34 40 -36 -37 -38 -39 -40 -41 -42 -43 -44
leaf_value=-0.003028345814088132 -0.0012467233396222343 -0.0029932381205214085 -0.0020655372694035157 -0.00052344921702182851 -0.0038539027882531765 0.003028371434104388 0.00063446090553486551 -0.0011043779142849393 0.0067221778267377644 0.0023837714082976602 0.0013545355636256052 -0.0015344437993737841 0.0042670479477810181 0.00056220272554296114 0.0064863351255880454 0.0011917591775401041 0.00025546174945122646 -0.0029221390890766508 -0.0015536089647767489 0.0019221382731339652 0.0051281383728328904 -0.00048162783844383377 0.0028169456408207588 0.0012565978094784334 0.0023144142218339808 0.0055427374732984419 -0.0017070777895566531 0.001940850620876209 -0.0010907845918082431 0.0017075343790999 0.00079196426641606112 -0.00040154398013698956 -0.0005092807593794818 -0.0011328542444452897 0.0011316074965211768 0.0009559201096858011 0.0053929326119288353 0.0033950881196045295 -0.0015578370038604244 0.0036172206726382888 -0.0031662715179822856 -0.0032392945791711921 -0.0021905742347832291
